[array([[-1.7093013 ],
       [-1.33445836],
       [-1.73538716],
       [-1.97107451],
       [-0.69496237],
       [ 0.5185743 ],
       [ 0.84562672],
       [-0.95603495],
       [-1.87310731],
       [ 1.6109893 ],
       [ 0.79632564],
       [-0.57058126],
       [ 1.398204  ],
       [-0.73342948],
       [ 0.58467128],
       [ 1.15675572],
       [-0.54298022],
       [-2.76863452],
       [ 0.75176196],
       [-1.17231935],
       [-0.77112632],
       [-1.80405457],
       [-0.01030279],
       [ 1.10666196],
       [-0.81331614],
       [ 0.82884497],
       [ 0.61454763],
       [ 0.74873848],
       [ 0.7713699 ],
       [ 1.10095817],
       [-0.1778155 ],
       [-1.75045933],
       [-1.35736353],
       [ 1.82977939],
       [ 1.39127284],
       [ 0.16206377],
       [ 0.2106237 ],
       [-1.20878655],
       [ 1.39871391],
       [ 2.46574849],
       [-1.19569418],
       [ 0.65504468],
       [-2.64520467],
       [ 0.59160945],
       [ 0.08638529],
       [ 0.08069441],
       [ 0.2886927 ],
       [-0.86919777],
       [-0.61256275],
       [-0.26247834],
       [-0.19152632],
       [-1.09092738],
       [ 0.53796227],
       [-1.07632565],
       [ 1.02722128],
       [-0.68382512],
       [-0.5888927 ],
       [ 0.35615816],
       [ 0.79232118],
       [-0.12722876],
       [-0.17163387],
       [ 2.60557807],
       [ 1.74793323],
       [-1.90376173],
       [ 1.49831015],
       [-1.0323966 ],
       [-0.41251808],
       [-0.14495349],
       [-0.09521007],
       [-0.57165944],
       [-0.17659151],
       [ 0.24994859],
       [-0.32130431],
       [ 0.37930142],
       [-0.5700294 ],
       [-2.53486021],
       [-2.94593343],
       [ 0.30102166],
       [-0.06019974],
       [-0.60526766],
       [ 1.0404339 ],
       [-0.54292768],
       [-0.00734106],
       [ 0.22254154],
       [-1.20482428],
       [-0.06436886],
       [-0.87403539],
       [-0.55620883],
       [ 1.12273556],
       [ 0.10164505],
       [-0.34619072],
       [ 0.03962846],
       [-0.02712494],
       [ 0.33772499],
       [-0.21680793],
       [ 0.2539829 ],
       [ 1.6748582 ],
       [-2.09714675],
       [-1.06290472],
       [ 0.40498841],
       [ 0.03896935],
       [ 0.62887655],
       [-0.15976823],
       [-0.15592146],
       [-0.18444664],
       [-2.61803699],
       [ 0.38667783],
       [-1.32071072],
       [-0.76979825],
       [ 2.52273419],
       [-1.45590772],
       [-1.34222426],
       [ 0.14837955],
       [ 0.44258021],
       [ 0.83431919],
       [ 0.20268366],
       [ 1.3158895 ],
       [ 1.43928953],
       [ 0.66079819],
       [ 1.20906917],
       [ 1.20426329],
       [-0.65523903],
       [-0.2677404 ],
       [ 0.54992904],
       [ 1.07825364],
       [ 0.35212752],
       [-0.1331618 ],
       [-0.34209122]]), array([[-1.29155582],
       [ 0.10498418],
       [-2.08510964],
       [-2.07862984],
       [-0.52480616],
       [-0.99301577],
       [-0.70667357],
       [-1.71621825],
       [-2.07816022],
       [-0.87267256]])]