[array([[-9.55800387e-01, -7.17606137e-01, -1.18276029e-01,
        -1.97066979e+00, -1.14899813e+00, -4.76299658e-01,
         7.47293683e-01,  1.26141573e+00,  1.08305400e+00,
         7.62278573e-01,  1.81672688e-01, -1.70224228e-01,
        -1.18074713e-01,  1.23676724e+00, -7.31891246e-02,
         8.83888504e-01, -4.10163721e-01,  1.05606085e+00,
         2.94448668e-01,  1.19760873e+00,  3.81566331e-01,
        -3.07864477e-01, -1.12711085e-01,  6.10166218e-01,
        -1.72222324e-01, -2.62840897e-01, -2.23636648e-01,
        -6.59662258e-01, -1.41917367e+00,  6.81153028e-01,
        -1.19907388e+00,  8.87406891e-02,  1.16953060e+00,
         3.77985533e-01, -4.86550857e-01, -9.95634446e-01,
         1.38979258e-01,  6.93578356e-01,  3.33696705e-01,
         1.55740992e+00,  2.86811397e-01,  1.32997332e+00,
         6.50686398e-01,  1.27603201e+00,  1.28052638e+00,
         8.91416024e-01,  2.33214746e+00,  1.07733126e+00,
         1.31783258e+00, -4.00419891e-01,  1.86094419e-01,
        -1.38653551e-01,  9.64841811e-01,  5.52591368e-01,
        -1.88584491e+00,  9.84443587e-01, -2.80769305e-01,
         1.09770141e+00, -5.56904602e-01,  1.17491788e+00,
        -1.54425563e+00, -4.12787599e-01, -1.71869301e+00,
         1.59391820e+00,  2.20090301e-01, -8.82544817e-01,
        -7.42127761e-01,  1.32153839e+00, -4.89135693e-01,
        -1.06521720e+00, -1.06405969e+00, -5.70142553e-01,
        -1.06405231e+00,  2.37207665e+00, -1.44800124e+00,
         2.07916967e-01,  3.69109764e-01, -5.76267635e-02,
         8.34948657e-01, -1.59089988e-01,  1.47701791e+00,
         1.96519231e+00,  1.18646323e+00,  2.02537620e-01,
         1.73072081e+00,  1.65827728e+00, -3.08841739e-01,
        -1.22529284e+00,  1.49952809e+00,  2.05177179e-01,
        -4.06981749e-01, -1.06493585e+00, -1.96676476e-01,
        -4.87867008e-01, -6.25694768e-01, -1.03818071e-01,
        -2.19621038e+00, -1.08715426e+00, -8.79221492e-01,
         4.44688095e-01, -3.76994606e-02, -1.28267615e-02,
        -3.66642514e-01, -4.58254022e-01, -1.01392320e-02,
        -3.49832384e-01,  1.46238932e+00, -6.39639869e-01,
        -1.22268487e+00, -1.08867846e+00,  2.37347627e+00,
         2.10895669e+00,  2.82643397e-01, -1.67424515e+00,
         1.33214900e-02, -4.81276095e-02, -2.19033521e-01,
        -2.50687604e-01, -1.67087820e+00, -2.70078680e-01,
         1.29762033e+00, -1.40055058e+00,  7.35773644e-01,
         6.35098989e-01, -1.27727798e+00,  1.28613014e-01,
         9.04325365e-01,  2.53296522e-01, -9.65875133e-01,
         9.83266705e-01,  1.04564242e+00, -4.45235616e-01,
        -9.90805494e-01, -7.38261330e-01,  1.03828175e+00,
        -3.60483125e-01, -1.61922644e+00, -4.89461011e-02,
         3.27446091e-01, -7.11241464e-01,  1.52806355e+00,
        -1.60518481e+00,  3.44749651e-01, -3.56342584e-01,
        -3.35290446e-01,  3.62301837e-01,  8.49296748e-01,
        -7.02737365e-01, -8.65419086e-02, -1.07564459e+00,
        -3.74974821e-01, -3.52404896e-01,  5.11733431e-01,
         1.17426627e-01, -8.03122391e-01, -8.44020543e-01,
         5.31138888e-01,  1.34785228e+00, -5.41798009e-01,
        -1.20943262e+00, -1.41511341e+00,  4.23909544e-01,
         9.36601297e-01, -1.84247943e+00, -9.89654510e-01,
         8.87758569e-01,  4.66580330e-02, -5.44853285e-01,
        -5.88291134e-01,  6.00224102e-02,  7.27788301e-01,
         5.75373586e-01,  3.97227388e-01, -9.87486827e-01,
         1.38145428e+00,  1.10446733e-01, -1.56331610e+00,
         4.45178092e-01,  7.43714300e-02, -1.43557149e+00,
         1.19483200e+00,  4.23361967e-01,  1.48683022e+00,
        -1.34279952e+00, -1.72272550e+00, -3.22456518e-01,
         1.17827353e-01, -2.64695530e-01,  3.38114496e-01,
         8.33978042e-01,  1.47775631e-03,  1.01948424e+00,
        -6.97243622e-01,  1.07495658e+00, -1.68332880e-01,
        -6.09978477e-01,  1.05752563e+00, -1.57729708e-01,
        -5.28571112e-01,  8.94379478e-01, -6.18316788e-01,
         1.46270393e+00, -9.53685088e-01,  3.78065412e-01,
         8.84940496e-01, -1.27815437e+00, -2.74875491e-01,
        -4.72292547e-01, -9.58908475e-01, -7.51084101e-01,
        -4.59382192e-01, -5.23144551e-01,  1.05953209e+00,
        -8.39247608e-01,  1.03609567e+00,  3.12060308e-01,
         8.53865014e-01, -2.26222689e-01,  3.97116253e-01,
        -6.12820195e-01,  9.60433023e-01, -5.46381166e-01,
        -7.80145904e-03,  1.17698621e+00,  4.81974952e-01,
        -1.56731858e-01, -4.34340309e-01,  9.21867987e-01,
         1.38360679e+00,  2.73147973e-01,  1.52119837e+00,
         1.57161666e-01, -1.19012794e+00,  6.87897507e-01,
        -4.87651759e-01, -1.32316999e+00, -9.78100303e-02,
        -6.88703429e-01,  1.44502404e+00,  2.90092789e-01,
        -4.69993289e-01,  1.46027501e+00,  1.43406402e+00,
        -7.57747838e-01,  1.43302262e+00,  5.28709131e-01,
         2.13418955e-01,  1.26028656e+00,  3.34241042e-02,
         1.40571381e+00,  6.96214604e-01,  8.06610543e-01,
         1.01034015e-02,  5.95885921e-02,  1.01256008e+00,
        -5.60086204e-01,  5.60620817e-01, -9.43165773e-01,
        -7.18692717e-02,  4.49344412e-01,  1.03014623e+00,
        -7.61684276e-01, -6.19974485e-01,  2.35581254e-02,
         6.34750702e-01,  3.30659869e-01,  2.30747402e-01,
         1.91739791e+00, -2.79521032e-01,  1.10657858e+00,
         7.34288795e-02,  2.13912144e+00,  3.94831009e-01,
         4.24072702e-01,  1.69077769e+00,  1.85386351e+00,
        -1.22109102e+00, -9.23288999e-01,  5.67802251e-01,
        -2.62122274e-01,  1.14809310e+00, -1.05548886e-01,
         1.23312140e+00,  8.17148184e-01,  2.45141869e-01,
         1.00519203e+00,  1.27978067e+00, -5.15912969e-01,
        -1.91608647e-01,  1.56711675e+00,  3.55647243e-01,
        -5.79200104e-01, -1.58782407e+00,  1.21216886e+00,
         9.81179389e-01,  1.72267099e-01, -3.06521990e+00,
        -1.71202660e-01,  1.71036383e+00,  9.17346798e-02,
        -9.29335512e-01, -4.02088168e-01,  8.14653440e-01,
         1.31920585e-01,  2.16920987e-01, -4.35003188e-01,
         8.06524136e-01, -5.51043104e-01, -1.44470290e+00,
         2.15052051e+00,  4.49566505e-01, -1.18154337e+00,
        -1.20811244e+00,  7.92044228e-01,  7.73662525e-02,
         4.44932629e-01,  1.34456793e+00, -2.90340572e-01,
         1.69111116e+00, -1.58712597e+00,  1.93458652e+00,
        -3.41116056e-01,  2.45645978e+00,  3.16364223e-01,
         3.48945518e-02, -6.06736993e-01,  8.83043477e-01,
        -3.38190576e-01,  9.42531177e-01, -7.52988964e-01,
        -4.30604295e-01,  4.12692598e-01, -1.43681228e+00,
         4.13175487e-01, -1.19223931e+00, -2.34279939e+00,
        -1.24510937e-01,  1.05425670e+00, -6.51496644e-01,
        -3.33648397e-01, -1.55828394e+00, -7.32238859e-01,
        -1.04425970e-01, -1.13785057e+00, -1.47254222e+00,
        -1.60484166e-01,  1.74978263e+00, -7.62731727e-01,
        -5.14858328e-01,  1.05310278e+00,  2.87417241e-01,
         7.63258775e-01, -8.58683478e-01, -1.18503908e+00,
        -3.62335744e-01,  6.87824106e-01,  4.23110092e-01,
         1.05131088e+00, -2.22469096e-01, -3.73082290e-01,
         1.77105247e-01,  2.56464833e-01,  2.13065078e-01,
         5.49504865e-01, -8.41569562e-01,  2.01732954e+00,
         7.78462654e-01, -1.61981512e+00, -7.24216776e-01,
        -1.31598284e+00,  9.64917490e-01, -1.75735482e-01,
        -8.74288924e-01, -7.61898401e-01, -2.80979979e+00,
        -2.14328017e-01, -6.71776375e-01, -5.14873193e-01,
         5.21252629e-01, -9.51234875e-01,  3.25387580e-01,
         1.87036914e+00,  6.99289686e-01, -1.18144947e+00,
         1.12081279e+00, -1.59122279e+00,  7.04669175e-01,
        -3.07887334e-01,  2.80870617e+00, -1.82226889e+00,
        -1.42991597e+00, -1.35815183e+00, -4.25740511e-01,
         2.22181871e+00,  1.40747969e+00,  1.98032821e+00,
        -1.84616083e-01,  6.15595137e-01, -7.58229946e-01,
         1.56495452e-02, -2.14147630e+00, -1.10319009e+00,
         8.04354386e-01,  3.54976602e-01, -1.29326648e+00,
         1.08585395e+00,  5.91108451e-01,  4.78607036e-01,
        -1.89166393e+00, -2.91454326e-01,  9.05152837e-01,
        -1.64758286e+00, -3.51179109e-01, -7.24819222e-01,
        -2.90757404e-01,  5.08396436e-01, -1.95794792e+00,
         2.62323770e-01, -5.83911477e-01,  4.83639507e-01,
         9.61280013e-01,  3.01337242e-01, -3.28404233e-01,
        -8.77301065e-01, -1.88440703e-01, -8.61967666e-01,
        -2.65249901e-01,  4.86879661e-01, -1.12003284e+00,
        -1.70798746e+00, -8.38837191e-01,  1.12785859e+00,
         2.88889010e-01, -1.51449030e+00,  4.81339748e-01,
         9.09134665e-01, -3.68977694e-01,  2.48084301e-01,
        -4.10598963e-01,  1.07652617e+00,  7.56993800e-01,
        -1.25474960e+00,  2.15343380e-01, -9.95298181e-02,
         4.16633976e-01, -2.18240117e-01, -7.50920146e-01,
         1.69080663e-01, -7.25295760e-02, -8.91953135e-02,
        -6.03166798e-01, -6.71494967e-01, -2.85073093e-02,
         1.01929635e+00, -9.90269844e-01, -7.73709532e-01,
         4.62335411e-01,  8.73097289e-01,  6.07708245e-01,
        -1.67071417e+00, -7.94538439e-01,  7.37508972e-02,
         8.81210519e-01,  3.65981701e-03, -1.15532829e-01,
        -1.49104335e+00, -7.60768555e-02,  1.36022405e-01,
        -3.35274515e-01, -6.17658639e-01,  3.99486210e-01,
        -2.01964853e-02,  1.62528860e+00, -1.62050616e+00,
        -1.59820050e+00, -2.87026076e-01, -6.51939766e-01,
         3.54155795e-01,  1.32869940e-01,  2.29925948e-01,
         2.64075641e-01, -3.15970746e-01, -5.27744600e-01,
        -8.46434786e-01, -1.34937635e+00,  4.36074843e-01,
         2.65078813e+00,  4.92690918e-01, -2.59375630e+00,
        -5.86623947e-01, -8.10564938e-01,  4.10942044e-01,
        -2.11966414e+00, -4.48168059e-01,  1.09000044e+00,
        -1.06063994e+00, -7.63461072e-01, -8.24670258e-01,
         9.07531933e-01, -1.74019833e+00,  2.91629612e-02,
         4.17596759e-02,  1.26498280e-01,  8.85141045e-01,
        -1.16859619e+00, -1.11100439e+00, -1.15989513e+00,
         9.36581857e-01,  1.47313064e-01, -6.36429974e-01,
        -1.03209170e+00,  9.90418328e-01, -9.71677638e-01,
         1.93447246e+00,  1.23432563e+00,  5.78882698e-01,
         5.26713376e-02, -1.22025654e+00,  5.00843604e-01,
         2.60573341e-01, -2.18459478e+00,  1.67359634e+00,
        -1.91456646e+00,  2.46605101e+00, -1.93408099e+00,
        -1.07336783e+00, -8.85240753e-01,  1.36197038e+00,
        -3.97999818e-01, -3.22377219e-01, -7.43048594e-01,
        -8.53890525e-01,  8.16146801e-01,  1.06971572e+00,
        -3.96024196e-01,  1.31865797e+00,  3.70179119e-01,
        -3.34898307e-01,  1.19815817e-01, -4.95299854e-01,
        -3.86836621e-01,  7.23806059e-01,  1.37714635e+00,
        -1.08038782e+00, -2.55950202e-01, -1.65207845e+00,
        -7.51730882e-01,  2.34751138e+00, -4.01237548e-01,
         4.22765668e-01,  1.43413943e-01, -5.30167641e-01,
        -1.22327975e+00, -3.40071852e-01,  9.88212181e-01,
        -9.92907692e-01, -2.18460475e+00,  8.72066197e-01,
        -1.38880495e-01,  6.93400298e-01, -5.02032372e-01,
        -6.71350097e-01, -6.66399100e-01, -2.48910765e+00,
        -1.21378215e+00, -3.76530880e-01, -5.62399040e-02,
        -2.75660234e+00, -6.80454497e-01,  1.47760267e-01,
         9.25249853e-01, -1.37518184e+00,  1.41586516e+00,
        -4.29205680e-01, -1.44133288e+00, -1.03479916e+00,
        -3.38636519e-02,  1.13037888e+00, -3.25424798e-01,
         1.77069493e-01,  6.96477227e-01, -1.94897484e+00,
        -6.89425073e-01, -6.62565256e-01, -6.94146296e-02,
         1.23517567e+00,  3.11423346e-01,  1.06763213e-01,
         1.60299613e+00,  6.36749094e-01, -2.40030370e-01,
        -4.69204345e-01, -1.36796205e-01, -3.19828666e-01,
        -1.43737951e+00, -7.08011269e-01,  9.93173529e-01,
         3.97437109e-01, -1.35257883e+00, -1.06575083e+00,
         1.80791876e-01, -8.19864150e-01, -1.31169172e+00,
        -1.04663619e+00,  5.63114306e-01,  4.67038987e-01,
        -1.41200537e+00, -9.22166637e-01, -1.29313531e+00,
         2.03723355e+00, -4.88025102e-02,  7.72511139e-01,
         4.30983105e-01, -1.43340696e+00, -9.21895996e-01,
         1.03543942e-01,  3.88067605e-01, -2.28827458e-01,
        -5.43388211e-01,  8.62137111e-02,  1.02972555e+00,
         3.20893240e-01,  5.15312678e-01, -5.26010072e-01,
         1.71844593e+00,  8.21553944e-01,  1.07107434e+00,
         7.22806373e-01,  5.19946194e-01, -1.06307415e-03,
         2.53318021e-02, -2.57939673e+00, -9.12611100e-01,
        -5.49220206e-01, -1.69825938e+00, -8.49917055e-01,
         1.05937204e+00, -5.36502707e-01, -4.59404982e-01,
        -9.07525826e-01,  1.03371133e+00,  1.33718101e+00,
        -1.45936521e+00, -4.64142159e-01, -6.99060202e-02,
         1.28597019e+00,  1.47660425e+00, -5.89537497e-01,
         2.21526723e-01,  4.00735673e-01, -1.43708995e+00,
         2.41889515e-01,  1.65321522e-01,  6.66833320e-02,
         8.84459908e-01,  3.93702748e-01,  4.05570253e-01,
        -1.37825544e-01, -7.47455252e-01, -1.34664306e-01,
        -5.42716866e-01, -3.89733267e-01, -7.62345099e-01,
        -3.43507492e-01,  1.52166760e-01, -9.07589856e-01,
        -8.81099084e-01,  3.04290164e-01, -1.95889993e-01,
        -6.13205316e-01,  1.23221480e+00,  7.98920287e-01,
        -5.94400352e-01, -1.29206026e+00,  2.62164375e+00,
        -2.74916555e-01,  8.72187813e-01, -9.93103669e-02,
         5.78068512e-01,  1.47047863e-01,  1.15523752e-01,
         3.76080164e-01,  3.14392086e-01,  8.48068851e-01,
         5.33661931e-03,  7.39840349e-01, -2.32247084e+00,
         1.43257127e+00,  6.58568140e-01, -3.63409840e-01,
        -7.05607173e-01,  1.99241949e+00, -3.23044232e-02,
        -2.09300360e-02, -1.54310769e+00,  5.44680094e-01,
        -8.32541482e-01, -1.49873552e-01, -8.57257827e-01,
        -2.04861703e-01, -2.57096507e-01,  1.32116633e+00,
        -7.30481878e-01, -7.05812112e-01, -6.03829643e-01,
         2.32607256e-01, -1.06242706e+00, -1.66237536e-01,
         9.25999744e-01,  7.35667778e-01,  2.25050642e-01,
         9.06381858e-01, -9.55564322e-01,  8.95752731e-02,
         7.38883771e-01, -1.60279186e+00,  2.63409344e-01,
        -1.39545547e+00, -1.17307441e+00,  7.94757251e-02,
         1.16340394e+00,  4.31502337e-01,  8.88900230e-01,
         3.23820764e-02, -6.89438122e-02, -1.43079429e+00,
         1.44058746e+00, -1.87790377e+00,  2.70679794e-01,
        -6.41964471e-01, -2.21564255e-01, -1.03108292e+00,
        -1.85490891e+00, -6.02946185e-01, -3.11800198e-01,
         5.12058990e-01, -3.16434419e-01,  2.62112304e-01,
         5.16429271e-01, -7.81613460e-01,  1.01399396e+00,
         2.47031983e+00, -2.62169689e-01, -2.29203656e+00,
        -7.53210341e-01, -4.97867501e-04, -7.22533344e-01,
        -1.44425409e+00, -2.03706980e-01, -2.30256478e+00,
        -8.59857730e-01,  4.91622865e-01, -2.64444066e-01,
        -5.67859862e-01, -7.66412725e-02, -9.72435059e-01,
         1.99990143e-01, -1.51347472e+00,  1.11799303e+00,
         8.87006771e-01, -8.41692230e-01, -6.57320317e-01,
        -3.27854853e-01, -1.50718878e+00, -1.02252502e-01,
         2.07071641e+00,  3.11388598e-01, -2.48311107e+00,
         9.65067767e-03, -2.09146749e+00,  9.78887258e-01,
         7.10301984e-01,  1.59057798e+00,  6.58392488e-01,
         2.83613044e-01,  7.26782847e-01,  8.95103573e-02,
         1.10939201e-01, -9.58894754e-01,  1.06950124e+00,
        -2.49981639e+00,  2.46308973e-01,  3.27745991e-01,
         1.93602973e+00],
       [-4.14663338e-02,  7.88808398e-01, -5.23735583e-01,
         1.14957375e+00, -8.53336346e-01, -2.09673589e-01,
         5.45993063e-01,  2.55998616e+00,  5.89707428e-01,
         1.36026168e+00,  4.42757584e-01, -2.90244081e-01,
        -1.81738373e+00,  1.56264720e+00, -1.86570855e+00,
        -3.72946221e-01, -8.32757415e-01,  3.46417575e-01,
         7.00368223e-01,  1.05979794e+00,  7.43180089e-01,
        -1.46857471e+00,  5.26761515e-01, -2.64887018e+00,
        -2.78742278e-01, -6.59803470e-01, -2.56278623e-01,
        -2.44660446e-01,  2.16548358e+00,  1.43626010e+00,
         9.56121512e-01,  8.73309396e-01, -7.95074575e-02,
        -4.72574290e-02,  1.29398110e+00, -9.25947179e-01,
        -1.07807587e+00, -9.30642738e-01,  1.86032777e+00,
        -1.22698080e+00, -6.73107692e-01,  1.46391938e-01,
        -5.55728263e-01,  6.64991243e-01,  5.84556958e-01,
        -4.83317138e-01,  8.32673028e-01,  1.81379821e-01,
         9.04209430e-01, -1.64810314e+00, -2.16606974e+00,
         6.79413880e-02,  7.82387989e-01,  5.04071253e-01,
         2.29620620e-01, -1.10470456e+00,  1.75575075e+00,
         9.33489869e-01, -1.82698261e+00,  8.88363825e-01,
         1.34365762e-01,  3.95529757e-01, -7.73541452e-01,
         4.24083204e-01, -2.89984076e-01, -6.31310170e-01,
         7.90498847e-01,  1.37159191e+00, -1.23557032e+00,
         7.58649526e-01, -4.58421725e-02, -9.31251562e-01,
         9.59257628e-01, -3.68698511e-01,  1.86502575e+00,
         2.28026022e+00,  1.05113608e+00,  4.89806060e-01,
         1.66383909e+00, -4.31857195e-01,  1.38072094e+00,
        -8.22697645e-01, -3.48093403e-01, -4.43291692e-01,
        -6.92976775e-01,  7.58257028e-01, -6.34641300e-01,
        -1.28571354e+00, -5.19847679e-02,  8.84373421e-01,
         1.40070659e+00,  1.13429637e+00, -4.89439685e-01,
        -5.81952595e-01, -4.07221712e-01,  7.05378649e-01,
        -6.40021797e-03,  6.93667754e-01, -1.44602933e+00,
         7.35841965e-01,  1.06308634e-02, -6.19416536e-01,
         4.56944354e-01,  5.99887211e-01,  1.85946278e+00,
        -2.11472904e+00,  6.49888069e-01,  5.76665710e-01,
         1.30734032e+00, -2.08148425e+00,  5.54571721e-01,
         1.95136131e-01,  3.00974733e-01, -8.62455656e-01,
         4.74879027e-01, -5.49002626e-01,  1.10035782e+00,
        -2.19492729e+00, -5.85418959e-01,  1.81010899e-02,
         5.17977648e-01, -8.12745490e-01, -1.52865642e-01,
        -1.14570000e+00,  5.21475179e-02, -1.54141454e-01,
         7.00393842e-01, -7.63784777e-01, -1.05179150e+00,
         8.38581831e-01,  8.40876565e-01,  8.38481369e-01,
         3.94402448e-01, -9.52033528e-01, -2.09917057e+00,
        -9.31109035e-01,  9.51743733e-01,  2.15980365e-01,
         5.43160709e-01, -3.68706598e-01, -5.55145490e-01,
        -1.94870259e-01,  4.02574668e-01, -1.49433811e+00,
         1.85048822e+00,  9.04790014e-01,  1.41066582e+00,
         4.27857361e-01, -1.84990762e+00,  8.86311644e-01,
        -1.22248348e+00,  8.94445939e-01,  6.70619565e-02,
         4.25775965e-01, -2.89007142e-01,  1.19751624e+00,
        -3.41613183e-01, -8.62289637e-01,  1.84163043e+00,
        -1.76509240e+00, -2.73625762e+00,  1.13523381e+00,
         6.90783086e-01, -1.60505481e+00, -4.89365704e-01,
        -1.01244679e-02, -1.48487134e+00,  1.62327572e-01,
        -1.02523149e+00, -1.50528232e-01,  3.16225104e-01,
        -5.34248324e-01,  6.89828568e-03,  2.21050047e-01,
        -3.88368386e-01,  8.78131820e-01,  5.17136963e-01,
        -5.75037448e-02, -4.34108423e-01, -1.53109232e+00,
         7.63813984e-01, -3.07176740e-01, -8.73871892e-01,
        -2.81185354e-01, -3.78036906e-01, -3.42473997e-01,
        -6.73686285e-01,  1.67584350e+00, -1.05939251e-01,
        -9.82474871e-01, -9.15026010e-01,  1.07352331e+00,
         9.44683471e-01, -7.34400385e-01, -2.45447289e-01,
         1.15592304e+00, -1.29864498e+00, -4.85685912e-01,
         9.82703106e-02, -1.25683229e+00, -2.81880426e-02,
        -1.20597178e+00,  4.19542635e-01,  3.71619098e-01,
        -1.47780543e+00, -7.74952000e-01, -2.29885432e+00,
        -1.70726346e-01, -3.01852694e-01,  5.71979549e-01,
         8.28103573e-01,  1.27153074e-01, -3.47456268e-01,
         4.56010938e-01,  1.74222803e-01, -2.14083325e+00,
        -2.77471289e+00,  4.47372850e-01,  3.03207020e-01,
        -2.07398443e+00,  1.75917572e-02,  1.68509079e+00,
        -1.13856163e+00,  4.19072811e-01,  5.28251607e-01,
        -1.10856183e-01,  1.76130229e+00, -3.02387305e-02,
        -8.97022717e-01,  8.07388101e-01, -6.31968765e-01,
        -1.11486876e+00, -9.18959576e-01, -7.54737285e-01,
         6.51959073e-02,  1.92935882e-01, -9.87909806e-02,
        -1.59590327e+00,  1.18001638e+00, -7.22166993e-02,
         1.35133065e+00, -1.69335929e-01, -4.58633972e-01,
        -1.49310540e+00, -2.87419071e-01,  9.80912601e-02,
         2.17583761e+00, -2.89568398e-01, -8.93685745e-01,
        -9.60323495e-01,  5.25729645e-01,  6.88385662e-01,
        -9.24457115e-01,  1.07417460e+00,  1.01943114e+00,
         3.07438254e-01, -1.11500219e+00, -1.28225155e+00,
        -9.75245504e-01,  1.02374474e+00, -2.10813486e+00,
        -2.15819310e+00, -7.95031381e-01,  7.45034334e-01,
        -7.11001279e-01, -3.30982176e-01,  3.49218540e-01,
         6.46850623e-01, -9.33494209e-01, -3.58299233e-01,
        -9.31863767e-01, -9.11643689e-01, -4.51327305e-01,
         3.40036304e-01, -3.01036494e-01,  6.69635988e-01,
        -1.25065976e+00,  8.71346103e-01, -6.23029924e-01,
         9.65660867e-01,  9.21316975e-01,  2.69603841e-01,
         3.78509017e-01,  4.56050291e-01,  1.51651337e-01,
         5.94719565e-01, -3.68108720e-01, -2.08611506e+00,
        -4.78383260e-01,  2.18834987e-01,  1.07590997e+00,
        -1.65025165e-01,  6.06861835e-01,  1.17793011e-02,
         1.82536589e+00,  2.04912443e-01, -1.24322694e+00,
        -3.55640369e-01,  7.74167708e-01,  1.90390593e+00,
         1.53390176e+00, -1.89319563e+00, -8.45506877e-01,
         8.33161789e-01, -1.47584837e+00,  2.24362102e-01,
        -6.22541119e-01,  1.65031631e+00, -7.76347151e-02,
         3.77306311e-01, -4.88826011e-01, -6.69712173e-01,
         1.13649545e+00, -1.36996403e+00, -2.77662673e-01,
         1.93642060e+00, -1.77507399e+00, -3.77101750e-02,
         1.11201511e+00,  8.21801853e-01,  6.53429830e-01,
         1.92679599e+00, -1.28079397e-01, -3.57395694e-03,
        -5.27566498e-01, -4.98139179e-01,  4.01395521e-02,
        -6.32786786e-01, -1.42365484e+00, -6.85930689e-01,
         2.18500190e+00,  3.22615028e-01, -5.46962394e-01,
         2.39900182e-01,  2.31202119e-01,  2.56240801e-01,
        -1.98777020e+00, -2.25657079e+00, -1.91507951e-01,
        -1.06781420e+00, -3.49851259e-01,  5.17153561e-01,
         6.21150380e-01, -7.81869387e-01, -8.41672510e-01,
        -1.55601594e+00, -1.64859544e+00, -3.74258333e-01,
        -4.06091423e-02,  3.48545061e-01, -6.64819260e-01,
        -5.28303363e-01,  2.80568696e-01,  2.70292059e-01,
         7.20181523e-01, -6.32207610e-01, -1.29606861e-01,
        -1.19611650e+00, -5.60342970e-01,  2.31555595e-01,
         1.14056680e+00,  1.62141805e-01,  1.04709361e+00,
         1.70636656e-01,  2.20515957e+00, -9.06921961e-01,
        -1.15033328e+00, -2.66187753e-01,  2.23326083e-01,
         1.03930137e-01, -5.31127843e-01, -7.73639631e-02,
         9.67001023e-02, -1.29633255e+00,  5.31022969e-01,
         9.20961084e-01,  1.78422243e-02,  4.00758629e-01,
        -9.91385945e-01,  7.70145724e-01, -2.54145485e-01,
        -9.58972224e-01, -2.98684871e-01,  6.71262805e-01,
         7.09299992e-01, -2.58303262e+00, -1.17235643e+00,
        -1.35603956e+00,  6.14306112e-01,  3.51702294e-01,
        -1.13417646e+00, -5.30188923e-01, -8.30935784e-01,
        -3.19784922e-01, -9.56822123e-01,  1.20047310e+00,
         3.28893770e-01, -1.39359118e+00, -4.07253382e-01,
         4.20791186e-01, -1.58843917e+00, -5.02033649e-01,
        -6.86267478e-02,  4.23202762e-01,  8.65484773e-01,
         1.07201204e-01,  9.88841637e-01,  3.56228390e-01,
         4.15169070e-01,  3.20972897e-03, -6.65798960e-02,
         7.20901087e-01,  6.11492947e-01, -6.22132527e-01,
        -5.53004754e-01, -1.12514934e+00, -5.21372920e-01,
         5.14548447e-01,  6.18664661e-01,  1.27685813e-02,
         1.07197883e+00,  9.12594707e-01,  4.89508369e-01,
        -4.45359003e-01,  8.16551368e-01, -2.21763663e+00,
        -1.20602617e+00,  2.90090630e-01, -4.54817901e-01,
        -9.73200405e-01, -4.03810272e-02,  1.23838345e+00,
        -1.90437825e+00,  5.69969522e-01,  4.63480515e-02,
         1.39637378e+00,  5.85459108e-01,  8.20707488e-01,
        -1.56933128e+00,  9.71853531e-01, -1.52731313e+00,
        -7.21667648e-01,  3.88888649e-01, -5.89837936e-01,
        -7.93120487e-01, -6.66401221e-01, -7.25347191e-01,
         1.89304059e-01, -4.88084054e-01,  1.48957233e+00,
         7.15691409e-01, -4.92016201e-01, -2.96463412e-02,
         7.90507052e-01,  1.41153033e+00, -9.18855108e-01,
        -3.06538532e+00,  1.48307094e-01, -1.21771131e+00,
         1.63663934e+00,  1.33561844e+00, -7.18559291e-01,
        -9.34171813e-01,  8.25075601e-01, -5.21299803e-01,
        -1.39034113e+00, -6.76342477e-01,  1.91633036e+00,
        -5.85473155e-01, -3.50220398e-02, -9.57625794e-01,
         1.76363277e+00, -2.12658029e+00,  3.75458065e-01,
         4.72946836e-01,  1.18420712e+00,  1.59695865e+00,
        -7.46346055e-01,  1.81595390e-01, -1.11764336e+00,
        -1.09317017e+00, -3.97972984e-01,  3.16278529e-03,
         7.71087892e-01,  6.51866292e-01, -4.67223728e-01,
         1.77964866e+00,  1.66033562e-02, -1.25695510e+00,
         2.42819948e-01,  6.75064291e-01, -5.38086416e-01,
        -6.00739002e-01, -1.72699047e+00,  1.43332972e+00,
         2.08665843e-01, -3.12373051e-01, -6.04885548e-01,
         1.19023803e+00,  1.08479448e+00,  6.94066641e-01,
         3.08211755e-01, -2.67674221e-01, -1.90511549e-01,
         1.71704050e+00,  4.79494162e-01,  2.81910106e-01,
        -8.61992086e-01,  1.21433722e+00, -2.46337917e+00,
         1.51258708e-01, -1.07545942e+00,  1.07666949e-01,
        -1.43003034e+00, -6.41346148e-01,  9.37006105e-01,
        -1.11051824e+00,  1.59727492e+00, -1.84176847e+00,
         7.02838082e-01, -6.24060398e-01,  1.47385448e+00,
        -2.44790741e-01, -1.37508890e+00,  9.67775407e-01,
         1.22077843e+00, -3.92814429e-01, -3.64466618e-02,
        -7.85524120e-01, -2.55678178e-01,  7.74559615e-02,
        -2.05375105e-01, -1.12617925e+00,  1.05695507e+00,
         1.35669318e+00, -2.82090832e-01, -1.63063832e+00,
        -1.67366921e+00,  1.18117349e-01, -2.36972171e+00,
        -1.24789019e+00,  3.88087869e-02, -1.47131205e+00,
         7.94882351e-01,  4.55785626e-02, -6.01138476e-01,
         1.67139673e+00,  3.93019635e-01, -1.07566596e+00,
         6.13528138e-01, -3.97184288e-01,  4.50814609e-01,
        -1.00868210e+00, -1.30406342e-01, -1.06102773e+00,
         1.21179498e-01, -1.52425875e+00, -2.54273122e+00,
        -7.00470000e-01,  2.13827676e-01,  1.29997210e+00,
         1.61447864e-01,  3.81442576e-01, -1.15146280e+00,
        -8.92313407e-01, -3.25983835e+00, -1.38847933e+00,
        -9.08430924e-01,  8.80371933e-01, -6.58815692e-01,
        -2.13691948e+00, -9.27574777e-02,  6.37813088e-01,
         5.45941986e-01,  1.37385260e+00, -4.15011108e-01,
         4.95651367e-02,  6.22455903e-01, -1.71301640e+00,
         3.74082626e-01, -9.33875904e-01, -2.07242155e+00,
         1.09629870e+00,  1.41226056e+00,  9.69584669e-04,
        -1.37765390e+00,  5.85488144e-01,  9.27343187e-01,
        -3.63033957e-01,  5.13974717e-01, -6.14632007e-02,
         1.56883338e+00,  6.68670349e-02, -1.76818071e+00,
         7.62820250e-01, -1.45698580e+00, -2.39556198e+00,
        -9.56185845e-01, -1.55842019e-01,  2.43991020e-01,
        -4.89275100e-01, -7.33315665e-01,  1.89063804e+00,
        -1.12292535e+00,  2.93115381e-01, -7.11758933e-01,
         7.26344811e-01,  7.82671140e-01,  1.54692684e-01,
        -5.14024169e-01, -3.38714549e-01,  7.78364417e-01,
         1.78003518e+00,  5.78568805e-01, -8.76872069e-02,
         3.93750275e-01, -9.55806890e-01, -1.87691013e-01,
        -7.54270215e-01, -4.43697171e-01, -1.59770707e+00,
        -7.55334816e-01, -4.69348643e-01,  8.96544546e-02,
         9.08401211e-01, -1.88664622e+00, -3.52074893e-01,
         1.50730586e-01, -7.78975006e-01,  1.24800173e-01,
        -7.72259494e-01,  1.49480038e+00,  5.07332917e-01,
        -2.97522967e+00, -1.18669361e+00,  8.03480900e-01,
        -7.20612146e-03,  1.38140445e+00,  1.66317958e+00,
         4.50223375e-01, -2.82756056e-01,  2.50053363e-01,
         4.18604912e-01, -4.02318595e-01,  1.45165246e+00,
        -1.24124093e+00, -4.25112783e-01,  8.64741297e-01,
         1.39750421e+00, -1.24109256e+00, -9.30174088e-01,
        -1.09046603e+00,  1.00955804e-01,  1.98592555e-01,
        -9.60962683e-01, -1.37395039e+00, -2.36192224e+00,
         1.43831106e+00, -1.26121565e+00,  1.21481640e+00,
         2.08013907e-02, -7.57149584e-01,  1.52852723e+00,
         7.47110112e-02, -9.13349825e-01, -3.27560767e-01,
         4.91494005e-01,  9.59580781e-01, -7.66501907e-01,
        -3.46339703e-01,  3.84090493e-01,  8.67865426e-01,
        -2.26415957e+00,  4.98846938e-01,  4.63076173e-01,
         1.89928571e-01,  1.52151483e+00, -6.39091897e-02,
         7.85468429e-01, -7.27035965e-01, -1.35816960e+00,
         7.95647372e-01,  1.47595495e+00,  3.05199172e-01,
        -1.14702118e+00, -5.58805939e-01, -1.76782042e+00,
        -1.12145107e+00,  6.57986846e-01,  9.27484757e-01,
        -2.65331073e-01,  2.98297390e-01, -1.36906449e+00,
         9.36069679e-01,  1.73286113e+00, -1.01732071e+00,
        -4.10859907e-01,  6.74633744e-01, -8.38411889e-01,
        -3.12433446e-01,  1.69387230e+00,  9.05867826e-01,
         2.24686753e+00,  8.82317170e-01,  2.45020155e+00,
         9.29309020e-01, -7.29313239e-01,  1.65161600e+00,
        -4.29345119e-01, -6.59135477e-01, -1.25417095e+00,
         2.08990885e+00,  1.18468513e+00, -1.07945336e+00,
         1.56947149e+00, -8.70760547e-01, -7.85289517e-01,
         5.99608000e-01, -1.14849676e+00,  4.17251177e-01,
        -2.86044968e-02, -2.13405794e+00, -1.05961857e+00,
         1.11496839e-01,  1.65466789e-02,  4.52383328e-01,
        -1.91531282e+00,  5.50396668e-01,  1.09465224e-01,
        -6.63710489e-01, -1.12877669e+00,  1.59860045e-01,
         5.73538324e-01, -1.09566135e-03, -4.35079538e-01,
        -1.41713393e+00,  1.10423211e+00,  4.49200372e-01,
         2.55795151e-01,  8.83529183e-01,  2.10245332e+00,
        -9.50986659e-01, -4.79965353e-01,  2.23399907e+00,
        -3.79608540e-01,  5.65140235e-01, -4.26790805e-01,
        -1.08831554e+00,  8.71437690e-01, -4.27922288e-01,
         1.06781230e+00, -1.14558773e+00, -8.65486685e-01,
         3.62020005e-02,  1.51393136e+00, -7.95934231e-01,
        -9.10409034e-01, -5.34874844e-01, -1.63955745e+00,
         8.31486017e-01, -9.57988951e-01,  5.86271911e-01,
        -7.92533542e-01, -1.00960369e+00,  6.74709703e-01,
         7.34606853e-01,  2.17877282e+00,  2.63187973e-01,
         6.47757582e-01, -6.61796853e-01,  6.98447346e-01,
        -4.04400002e-01,  1.50610445e+00, -6.50447871e-01,
         1.34706681e+00,  8.47055821e-01,  9.48086316e-02,
        -4.96892825e-01, -2.14585328e-01, -9.41461577e-02,
        -1.79431948e-01, -2.79465086e-01,  1.18543167e-01,
         7.74239497e-01],
       [ 5.30664469e-01,  1.28140083e+00,  1.31949759e+00,
        -1.80560557e+00, -4.67148987e-01,  1.39295327e+00,
         7.67655596e-01,  6.35660862e-01,  5.18223427e-01,
         3.69627508e-02,  5.45089247e-01, -1.27025026e+00,
        -1.95875164e-01, -6.15674653e-01,  5.81227239e-01,
        -4.02088333e-01,  3.30376054e-01, -7.61754093e-02,
        -9.15288664e-01,  1.32652433e+00, -8.36307396e-01,
        -1.77560732e-01,  6.27465998e-01,  2.60394113e+00,
        -9.95247638e-01,  2.00831044e-01, -1.54499753e+00,
        -1.19529786e-01,  1.15060737e+00,  1.36675593e+00,
         2.65371506e-01,  3.76730845e-01,  5.74909735e-02,
        -8.47522336e-01,  1.56279282e+00,  1.33590818e+00,
        -5.67858860e-01,  4.49874535e-03, -2.14051306e+00,
         8.72001678e-03, -4.89404511e-01,  1.10373087e+00,
         1.03608022e+00, -6.29727058e-01,  1.04717974e-01,
        -8.93782108e-01,  1.74954188e-02, -6.70265504e-02,
        -2.62238775e-01,  6.82307282e-01,  6.84239743e-01,
        -1.36216439e+00,  1.43199786e+00,  3.40557837e-01,
         1.17984001e+00, -7.89303205e-01, -8.62289869e-02,
        -7.61514342e-01, -2.33798630e+00, -3.22090938e-01,
         9.17903580e-01, -1.24167032e+00,  2.53260765e-01,
        -5.74908670e-01, -2.78014348e-01, -4.39631486e-02,
         1.32211519e-01,  8.47122677e-01, -1.83170257e-01,
         5.40293795e-01,  5.25713515e-01, -1.28492285e+00,
         8.96373217e-01, -2.02571282e+00, -4.49765465e-01,
         1.46964944e+00, -5.37023869e-02, -1.65891837e-01,
         1.29363437e+00,  8.04935151e-02,  1.18206928e+00,
         1.04493387e+00, -7.45973470e-01, -6.81643855e-01,
         3.29609706e-01,  9.96876417e-02,  8.08857487e-01,
        -3.97323961e-01,  3.78095592e-01,  5.07910330e-02,
        -9.08923567e-01,  4.64844829e-01, -2.64587842e-01,
         8.67712764e-01, -5.43222862e-03,  1.60316092e+00,
         6.81138440e-01, -2.92767043e-01, -1.24166597e+00,
         1.94397469e+00,  1.59897643e+00, -7.37957854e-01,
        -2.55201184e-01,  1.04973547e+00, -2.04360330e+00,
         1.26962699e+00,  6.91445675e-01,  1.23367057e-01,
        -8.95026706e-01,  9.60367220e-02, -9.18661498e-02,
        -2.53376029e-02, -1.81315669e+00,  9.69645693e-02,
         1.70370894e-01, -1.10640756e+00,  6.94173999e-02,
        -1.74949474e+00,  9.44432756e-01, -2.18979034e+00,
        -5.82798364e-01,  4.97742858e-01,  1.87076848e-01,
        -5.34981990e-01, -7.37363370e-01, -2.14062322e-01,
         1.44908048e+00, -2.35373053e-01,  1.03103781e+00,
         2.23939396e+00,  1.51720726e+00,  1.49489339e+00,
        -9.79156453e-01,  6.31561926e-01,  1.24568023e+00,
        -7.87318966e-01, -1.88343351e+00,  2.47182460e-01,
        -1.46230865e+00, -5.07412823e-01,  6.94226184e-01,
         1.76323354e+00, -1.01007198e+00,  4.45716765e-01,
        -1.60299179e+00,  1.41437786e-01, -1.53880478e+00,
        -8.92268460e-01,  1.45090396e+00,  1.54475248e-01,
         2.05604185e+00,  1.49560667e+00, -1.80678336e+00,
         4.44344926e-01, -1.16352450e+00, -2.99139941e-01,
         1.43176729e-01,  9.73389150e-02,  3.61777173e-01,
         1.26935146e+00, -9.02191296e-02, -1.26171944e+00,
         1.24615951e+00,  1.07146259e+00, -1.05989456e+00,
        -3.75356119e-01,  1.64289025e+00,  9.45663617e-02,
         1.14300989e+00, -4.16079890e-01,  9.01675213e-01,
         1.68010049e-01, -2.21181352e-01, -6.38414115e-01,
        -3.10375868e-01, -5.82747067e-01, -7.27015288e-02,
         5.62281282e-02,  8.16378888e-01, -1.64312869e-01,
        -4.41411391e-01,  1.06761659e+00,  3.87911987e-01,
        -3.48762006e-01, -1.31797058e+00, -5.51882730e-01,
        -4.55997213e-01,  1.66136842e+00, -3.01809669e-01,
         2.30741347e+00, -5.01449997e-01,  3.03403015e+00,
        -9.05173583e-01,  1.34104926e+00,  3.85662334e-01,
         6.97850061e-01, -2.42475450e-01, -9.07345896e-01,
         4.74924131e-01, -1.31039963e+00,  9.70421316e-01,
         2.24622166e-01, -1.21699056e+00, -1.54372063e+00,
         1.43888420e-01, -8.93294927e-01, -8.07066673e-01,
         1.43773649e-02, -2.83956423e-01,  2.30549160e-01,
        -5.25530024e-02, -8.66921420e-01, -1.60475787e-01,
         1.80354972e-01,  3.19427736e-01,  7.41891657e-01,
        -1.29102744e+00,  1.18072612e+00,  1.57890646e-01,
         2.06341628e+00,  6.76436112e-01, -1.53321737e+00,
         3.07675125e-01,  6.26023989e-01,  1.11381941e-01,
         4.95175057e-01,  1.01871662e+00, -6.55143559e-01,
         8.72024289e-01, -4.08452746e-01, -4.83907135e-01,
        -4.11964316e-01, -4.77874584e-01, -1.34162671e-01,
        -1.45218805e+00,  5.25796438e-01, -1.22487177e+00,
         9.81034282e-01,  1.24656217e+00,  3.77051383e-01,
         8.30708775e-01, -3.67620277e-01, -2.40762530e+00,
         1.13315210e+00, -4.59706702e-01, -8.67269093e-01,
        -1.85633681e+00,  1.62449976e-01, -7.60629098e-01,
        -1.76422278e+00, -2.98832178e-01,  1.63258203e+00,
        -3.56305881e-01, -8.64201171e-01,  3.38434920e-01,
        -1.45671876e+00,  6.61686287e-01,  2.21601587e-01,
         6.06292706e-01, -4.66653074e-01, -1.54858338e+00,
         7.29343350e-01,  1.27216326e+00, -3.54763803e-01,
         1.21603679e+00,  1.21980066e+00, -2.41582603e-01,
        -4.11949146e-01, -2.26151592e+00, -7.55598473e-02,
        -1.42782119e+00,  3.23966864e-02, -1.18960929e+00,
         4.51893391e-01, -1.65749722e+00, -9.76929214e-01,
        -7.00365853e-01, -5.46015554e-01, -2.37717696e-01,
        -3.16685403e-02,  1.19441798e+00, -5.94903577e-01,
         6.83092346e-01,  4.10330302e-01,  5.75069963e-02,
         5.79492542e-01, -3.76056601e-01, -3.02184174e-01,
         4.94222046e-01,  7.31022237e-02, -9.71239860e-01,
        -1.88078498e+00,  7.73418039e-02,  3.50238994e-01,
         1.49840150e+00,  4.82471506e-01, -1.53355653e-01,
         2.77822461e-01,  7.25992766e-01, -8.09101673e-01,
         4.14234679e-01, -3.31140956e-01, -1.01910008e+00,
        -2.22282261e-01, -1.88103199e+00,  1.35949269e+00,
         7.12921769e-01,  1.08379438e-01,  1.64112660e-01,
         1.11542825e+00,  1.15082965e-01,  6.18293081e-01,
         7.67166057e-01, -3.53299680e-01, -1.63447852e+00,
        -9.68897383e-01,  3.69025165e-01, -8.02737069e-01,
         2.48976988e-01, -7.54070131e-01, -1.46286498e+00,
        -4.54758080e-01, -1.10877957e+00,  3.21652713e-01,
        -2.57355224e-01, -2.72335916e-01,  1.01135424e+00,
        -2.59701648e-01,  8.57925486e-01, -7.58090270e-01,
         2.13568862e-01, -8.36627184e-01, -6.50627269e-01,
        -6.77437245e-01,  1.08064660e+00, -1.84118191e+00,
        -5.43138904e-01, -7.45801669e-01, -3.73160252e-01,
        -2.43376098e-02,  4.97596041e-01,  2.32098235e-01,
         9.78187734e-02, -5.70485497e-01,  2.65511459e-01,
        -5.03139939e-01, -7.18700594e-01, -6.53958051e-01,
        -4.30079507e-01, -1.38610325e-01,  1.55739251e+00,
         8.76580586e-01,  1.35487098e+00,  5.07425934e-01,
         1.55035789e+00,  3.74821230e-01,  1.07886951e+00,
         2.29439903e+00,  8.96438107e-01, -6.11754394e-01,
        -1.14028395e+00, -2.95989434e-01, -2.20746942e-01,
         7.20711951e-01,  2.48772867e+00, -1.03979114e+00,
         8.45932245e-01,  1.01463732e+00, -1.36541680e+00,
        -1.44437329e+00,  8.07785901e-01, -1.01066907e+00,
        -1.14097621e+00,  1.73664360e+00, -5.98414876e-01,
         8.66217992e-01,  1.40077251e+00,  1.63820537e+00,
         5.05418649e-01,  3.44976477e-01,  1.94357122e+00,
        -5.05958074e-01,  1.33098991e+00,  3.08649461e-02,
        -6.11281357e-01, -6.04365111e-01,  1.70129288e+00,
         6.32483274e-01,  8.77008181e-01, -9.64990927e-01,
         3.60390418e-01, -1.12128033e+00, -7.70405230e-01,
         2.19521023e-01, -1.60004208e+00, -5.56030025e-01,
        -5.62100183e-01,  8.29759481e-01, -1.01659009e+00,
         7.75145707e-01, -3.76151109e-01,  1.50726410e+00,
        -6.31978131e-01,  4.64135770e-01, -1.62020098e+00,
         2.27503086e+00,  1.02369402e+00,  1.55683755e+00,
        -1.05348671e+00, -6.06397841e-02, -5.21564148e-02,
        -6.87422331e-01,  1.47606619e+00,  4.36776238e-01,
         4.85815794e-01,  2.29868067e-01, -3.40932194e-03,
        -1.88608644e+00, -2.75897781e-01,  1.66622300e+00,
         9.17308473e-01,  1.37036193e+00, -1.15058957e+00,
         3.63391256e-01,  2.68903686e-01, -2.20009045e-01,
        -1.02576724e+00,  3.48022846e-01,  1.32855037e+00,
         4.15903438e-02, -2.28541207e-01,  2.50057411e+00,
        -4.02079723e-01,  9.25075048e-01, -9.98645326e-01,
         5.04233936e-01,  4.39887521e-02, -7.80774917e-02,
         1.21717903e+00,  8.16794095e-01,  4.91952467e-01,
        -1.15259643e+00,  2.23587552e-01,  8.96121643e-01,
         2.91085745e+00,  7.02697618e-01, -9.96178923e-01,
        -1.70531663e+00, -1.01327781e+00,  2.04563566e+00,
         7.55802254e-01,  8.56433668e-01, -1.19000797e-01,
        -1.31435188e+00,  8.33281076e-01,  1.99128171e+00,
        -1.85829240e+00,  1.32573920e+00, -2.89586506e-01,
         4.18397948e-01,  5.02740810e-01,  1.05184009e+00,
        -8.12313808e-01, -1.49816344e+00,  5.87074495e-01,
         1.24975965e+00,  1.37342532e+00,  9.63355718e-01,
         1.14974464e+00,  1.74834826e-01,  1.63668639e+00,
         4.67351762e-01,  9.60103069e-01,  1.59600169e+00,
        -9.37128335e-01,  5.48546215e-02, -1.18688529e+00,
         1.23380299e-01,  8.00459726e-01,  2.04790720e-01,
        -5.01343719e-02,  1.24696036e+00,  6.34740784e-01,
        -8.83494077e-01, -4.23370794e-02, -3.64717999e-01,
         1.50162411e+00,  2.55160076e+00, -7.09597328e-01,
         1.72453524e-01,  2.05139060e+00,  1.99836000e+00,
         1.47499449e-02,  3.00093582e+00, -1.21972702e+00,
        -2.59336597e-01, -1.52302929e+00,  1.45021628e+00,
        -1.71108744e+00, -5.73781162e-01, -6.42229363e-01,
         1.90592640e-01, -4.93166531e-01,  7.65814638e-01,
        -1.76525951e-01,  1.20980748e+00,  1.41725769e+00,
         1.85050740e-01,  6.40091028e-01,  1.22453861e-01,
         1.51633895e-01, -9.34636215e-02,  7.40974783e-01,
        -4.38877780e-01,  4.34223693e-01, -1.05569315e+00,
        -2.04173191e+00, -1.27018475e-01, -3.03205632e-01,
         5.82244032e-01,  3.13070065e-02, -2.03262584e+00,
        -2.96533334e-02,  3.35107848e-01, -6.74890221e-01,
         1.73227340e+00, -1.02278631e+00, -9.70593641e-01,
         9.09405921e-01,  1.68575024e+00, -1.10176940e+00,
        -3.03867999e-01,  3.34386590e-01, -1.10830107e-01,
         5.16998543e-01, -9.12470756e-02,  7.70050627e-01,
        -4.71301050e-01,  2.57824147e-01, -6.63000363e-01,
        -1.43840012e-01, -2.13620716e+00, -1.39811528e+00,
         1.24316072e-01, -3.06815618e-01, -8.63930042e-01,
         3.12640354e-01,  5.84518521e-02,  1.65127623e+00,
        -9.39698355e-01,  1.43918121e+00, -1.02054611e+00,
        -1.23247360e+00,  7.56488378e-01,  4.64488221e-01,
        -1.98549466e-01,  8.88486045e-01,  9.95501206e-01,
         1.00075683e+00,  3.14717129e-02,  1.89855724e-01,
         4.60437474e-01,  2.15252769e+00, -2.62168989e-01,
        -4.00432116e-01, -7.31110133e-01,  8.30866935e-01,
        -2.67051216e-02, -8.10651188e-01, -7.21968956e-01,
        -7.30715716e-01,  8.56445020e-01, -6.77643769e-01,
         1.55600919e+00, -3.20778714e-01, -4.30096080e-01,
         8.84850615e-01,  1.43254869e+00,  2.76502384e-01,
         1.44674674e-01, -3.68733757e-01, -1.54386318e-01,
        -1.30535147e+00, -3.22806083e-01,  1.02617519e+00,
        -1.83102544e-01, -3.53601624e-01,  1.94443640e-01,
         2.03011893e-01,  4.61284970e-02, -8.12092819e-01,
         4.45339259e-01,  1.63315520e+00, -1.25067229e+00,
         1.03771361e+00, -1.37807295e+00, -1.04782657e+00,
         4.14422669e-02, -1.19406784e+00, -1.69074469e+00,
         6.27774530e-02, -2.04060494e-01, -8.84175029e-01,
         1.43549702e+00, -9.43706253e-01, -1.84030301e+00,
         5.21238111e-01,  8.95022764e-01, -4.00086316e-01,
        -4.03889406e-01, -7.28139694e-01,  1.04339065e+00,
        -6.03322590e-01, -4.95602720e-01,  9.81798800e-01,
        -6.21304347e-01, -1.63028830e-01, -2.95949212e-01,
         3.14515950e-01,  1.75343621e-01,  4.51752447e-01,
        -9.98858695e-01, -2.14357969e+00,  3.95477834e-02,
        -7.35673399e-02, -6.42958670e-01,  1.23992278e+00,
        -2.49123279e-01, -8.35809429e-01,  6.18436828e-01,
        -6.09474791e-01, -1.43102479e+00,  2.45055345e-01,
        -1.09365997e+00, -1.33204130e+00, -2.53772038e+00,
        -3.12316389e-02, -6.78001533e-01,  1.42908567e+00,
         7.92323967e-01, -1.03755231e-01,  5.72995006e-01,
         5.40951640e-02, -2.06206226e-01,  1.59579866e-01,
        -2.51055622e+00,  8.18147207e-01,  1.02827391e+00,
         1.14866783e+00, -5.86679850e-01,  3.95447930e-01,
        -1.58989310e+00,  7.45189693e-01,  4.43047574e-01,
         2.91569492e-01,  4.40659450e-02,  3.38031311e-01,
        -2.95005009e+00,  6.10660505e-01, -2.35892218e+00,
        -2.10830947e+00, -7.15614891e-01, -2.99439602e-01,
        -2.18965714e-01, -7.33935083e-01, -1.17540369e+00,
        -2.41994102e-01,  8.66739350e-01,  5.65728489e-01,
         5.35942837e-01, -6.52217904e-01,  9.83407436e-02,
         7.21518818e-01,  8.03124981e-01, -4.97692683e-02,
         5.93648168e-01,  2.76244587e+00,  2.96252716e-01,
         6.37179508e-01,  5.00130067e-01,  1.70449785e-01,
        -1.22148463e+00, -1.49389658e+00, -6.31928298e-02,
        -3.19648225e-02, -1.54759861e+00, -7.77252423e-01,
        -1.65250431e+00, -1.04195001e+00, -4.72887596e-02,
         8.80373809e-01,  1.88840409e+00,  6.80261366e-01,
         7.39010137e-01,  1.31518674e+00,  8.72403220e-01,
         4.41887165e-01, -9.73320708e-01, -5.94734626e-01,
         1.43769888e+00,  7.33359117e-01,  5.66216053e-01,
         3.77577259e-01,  9.88715320e-02,  1.01382158e+00,
         7.08247269e-01,  1.37880648e+00,  1.22252835e-01,
         1.70822756e+00, -1.42941799e+00, -4.99612616e-02,
        -2.07553312e-01,  7.11691161e-01, -5.48287779e-01,
         1.02291883e+00,  1.38603448e+00,  2.47869218e-01,
        -1.33115627e+00, -1.71632620e+00, -8.39650140e-01,
         1.82215007e-01,  8.69559476e-01,  8.66046986e-01,
         7.04636188e-01, -5.69970346e-01,  1.53813014e+00,
        -2.58974797e-02,  5.65628261e-01, -2.99033412e-02,
        -3.73134212e-01, -1.07169655e+00, -1.47197371e-01,
        -7.25758652e-01, -1.05644075e+00, -1.63478791e+00,
         8.04899456e-01,  3.03081805e-01, -2.95963038e+00,
        -1.22540587e+00,  5.03424414e-01,  8.07004900e-02,
         1.85041336e-01, -4.06610214e-04,  8.37913306e-02,
         3.01853950e-03,  7.40324571e-01, -1.02685920e+00,
         9.21025806e-01,  1.15551738e+00, -1.01968316e+00,
        -2.99362451e-01, -1.26822217e+00,  7.69804628e-01,
        -1.39139408e+00,  1.58322056e+00, -1.65496102e+00,
        -1.76483768e+00,  3.94439558e-01,  3.32011681e-01,
        -8.58725376e-01,  7.44542386e-01,  7.23562147e-01,
        -5.54168681e-02, -4.35902030e-01,  1.12256399e+00,
        -6.70515775e-01,  2.98469768e-01, -9.73486782e-01,
         3.97619077e-01,  2.36323179e+00, -1.79234454e-01,
        -1.12984389e+00,  6.76076027e-02,  1.10339499e+00,
         1.02818399e+00,  6.82280205e-01, -1.31500304e+00,
        -1.36431564e+00,  3.07979384e-01,  3.25959120e-01,
        -1.68096178e+00,  5.41673850e-01,  6.60922834e-01,
        -3.95280781e-01],
       [ 3.75227673e-01,  1.82943676e-02, -1.37018363e+00,
         3.46096789e-01, -1.88301848e-01,  7.07367005e-02,
        -6.00825786e-01, -1.29685561e+00, -1.77442687e+00,
        -1.62978274e+00,  6.47436308e-01, -1.63445725e+00,
         1.36205202e-01,  6.43633383e-01,  1.23504237e+00,
        -1.92253729e+00, -1.92588278e-01,  9.07323681e-01,
         6.85719858e-01,  1.41691994e+00, -6.03565432e-01,
        -2.09081859e+00, -3.62026974e-02,  2.65249870e+00,
         4.69162684e-01,  1.66194701e+00, -1.76770694e+00,
        -2.73427860e-02,  6.00731849e-01,  8.72319916e-01,
         5.49419963e-01,  3.55775214e-01,  1.38066597e+00,
        -1.51670195e+00,  6.60674902e-01, -3.82866639e-01,
         2.33961574e+00, -4.16038914e-01, -8.77557560e-01,
        -8.94398877e-02, -7.75817251e-01,  1.65317458e+00,
        -7.97317336e-01, -2.91909632e-01,  5.22717354e-01,
         1.17066638e+00,  2.06657110e+00, -8.29539026e-01,
        -9.92440594e-02, -1.04291284e+00, -4.36393499e-01,
         9.89399827e-01,  4.08423197e-01,  2.78908736e-01,
         1.06120990e-01,  8.30811506e-01, -1.24072349e+00,
        -4.87763076e-01, -5.24688526e-01,  1.43438875e+00,
        -4.54639110e-01, -7.52119233e-01,  1.50150308e-01,
         1.14009442e+00, -6.41248870e-01, -1.17129226e+00,
        -1.63143657e-02,  6.54362361e-01, -6.51697707e-01,
        -1.64273650e+00,  5.43457451e-01,  2.73852311e-01,
        -1.46234788e+00, -2.39848039e-01,  1.93258969e+00,
         5.18404655e-01, -5.85107832e-01,  9.60749455e-01,
         4.98365515e-01,  1.09105568e+00, -1.94680844e+00,
        -8.39850390e-01, -1.49675300e+00, -5.39614739e-01,
        -3.65255059e-02, -1.39634767e+00, -4.34454509e-01,
         8.81478630e-02, -1.20504463e-01,  1.15091813e+00,
         1.22180525e+00, -1.34625351e+00,  7.55114286e-01,
        -1.84408022e+00,  1.14480036e+00, -7.59908241e-01,
         6.81142534e-01, -1.29609239e+00,  1.47693211e+00,
         1.59822177e-01,  7.66523418e-01, -1.56440483e-01,
         6.63838982e-01,  1.32475434e+00,  4.66186534e-01,
        -1.52715984e+00, -1.24896319e+00,  5.05802215e-01,
        -1.10668987e+00, -4.63398553e-01,  1.65704380e-01,
        -2.12171332e+00, -6.32480247e-01,  4.90349994e-01,
         7.83682848e-01,  2.38420903e+00,  9.06198797e-01,
         4.53360395e-01, -8.86033615e-02,  1.10883301e+00,
        -1.02513968e+00, -1.25080327e+00, -6.61513867e-01,
         4.24123528e-01, -1.26557043e+00, -7.26809004e-01,
        -4.70011354e-01,  6.17009862e-01,  1.76127717e-01,
        -7.14375223e-02, -1.29287531e+00,  2.11229675e+00,
        -5.07319753e-01,  1.13954559e+00,  6.76692662e-01,
         1.05610504e-01, -1.01364018e+00,  1.30687572e+00,
        -1.67028592e-01,  3.44633818e-01, -1.02603665e+00,
        -1.14173251e+00, -1.55729852e-01, -9.58797524e-01,
        -1.00730812e+00, -5.85570529e-01, -9.89649610e-01,
        -5.47291498e-01,  1.82138010e+00, -1.40217782e+00,
        -6.75515859e-01,  1.24634734e+00, -4.72370731e-01,
        -3.77467074e-01,  8.82342163e-01,  2.21782229e-02,
         1.20063899e+00, -1.00479546e+00,  5.93797411e-01,
        -9.52125819e-01,  5.36525374e-02, -2.97184373e-01,
         1.10515360e+00, -3.05331626e-02,  2.98328212e-01,
        -5.11333401e-03, -3.60945742e-01, -7.22954631e-01,
         6.45667672e-01, -7.15638029e-01, -4.72879811e-01,
         9.96030085e-01,  3.20547466e-02, -4.58716771e-01,
         1.78848028e+00, -8.38761821e-01, -3.77167246e-02,
        -9.66344834e-02,  5.44257705e-01,  5.01475954e-01,
         1.77916989e-01,  1.61378059e+00, -8.69919920e-01,
        -9.17679653e-01, -3.37060338e-01,  4.29885505e-01,
         4.16759703e-01,  4.53580925e-01,  1.67286606e+00,
         4.96982827e-03,  3.03725185e-01,  1.10769196e-01,
         1.40747305e+00,  1.35361723e-01,  2.18805133e+00,
        -1.05421562e+00,  1.84033331e-01,  7.95243716e-01,
        -8.99038145e-01, -7.16883498e-01,  1.63463534e+00,
        -9.47576943e-01, -7.09665477e-01,  5.22133396e-01,
        -3.29868609e-01, -8.59447204e-01,  5.53445900e-01,
         1.34011293e+00, -6.10851634e-02, -2.75444859e-01,
        -3.97435714e-02,  5.85922623e-01, -6.42440596e-01,
        -6.83308664e-01, -2.04995698e-02, -8.11856831e-01,
         3.41440447e+00, -5.21536188e-01,  1.39547404e+00,
         7.93977545e-01,  3.15205723e-01,  1.40301051e+00,
        -1.19011851e-01,  9.21182283e-01,  2.04310186e-01,
        -5.69801208e-01,  8.68585899e-01, -5.32378177e-01,
         1.62480044e-01,  1.16285110e+00,  9.81704063e-01,
        -1.85599017e-01, -6.80482721e-01, -7.19352421e-01,
        -1.26030336e+00, -2.06728662e-01, -1.47463632e+00,
         1.14622833e-01,  6.06633420e-01, -1.05675613e+00,
         1.72350371e+00, -6.38541794e-02,  1.10673762e+00,
        -1.51595976e+00, -1.24236302e-01,  3.48682592e-01,
        -6.26606106e-01,  4.59228857e-01, -1.62071329e+00,
        -3.42452839e-01,  7.00783632e-01, -9.51455199e-01,
        -1.11010614e-01, -2.22481124e-01, -2.20698821e-01,
         9.95616963e-01, -1.45707168e+00,  4.40535459e-01,
        -1.63485940e-01, -4.41781665e-01, -2.97021619e-01,
         3.30555961e-01, -4.02863009e-01,  7.60118876e-01,
         4.47309181e-01,  1.46271915e+00, -2.14359380e-01,
         1.52175516e+00,  1.29171788e+00,  1.44622834e+00,
        -2.13946562e+00,  2.56747691e+00, -1.52537080e+00,
        -1.45104109e+00,  1.19222691e+00, -9.89589159e-01,
         1.38160717e+00,  1.80023464e+00,  1.71761294e+00,
         1.55326908e-01, -2.89297636e-01,  1.32693181e-01,
        -1.54402478e+00,  1.49777519e+00,  8.71225892e-02,
        -4.68927389e-01, -2.09519797e+00,  1.81011205e-01,
         3.84230572e-01, -3.44797757e-01, -5.58644105e-01,
         1.66778649e+00,  9.68194480e-01, -4.63723971e-01,
         1.60950902e-01, -1.19373200e+00, -5.19375651e-01,
        -1.19307503e-01, -1.26569028e+00,  4.40527222e-01,
        -2.91204891e-01, -1.35348203e+00,  3.14048097e-02,
        -2.35514741e-01,  6.81012704e-01, -4.60509356e-01,
         1.23333010e+00,  1.89283185e-01,  1.23897165e+00,
        -1.82263891e-01,  9.32947881e-01, -2.38170267e-01,
        -4.72210148e-01, -2.19544363e+00,  5.12654698e-01,
         5.60735781e-01, -1.14939942e+00,  6.55314031e-01,
        -2.67741841e-01, -1.74880444e-01, -2.69176207e+00,
        -7.42761703e-01,  4.78224837e-01, -4.80658195e-01,
        -4.78956049e-01, -8.64021523e-01, -6.23528257e-01,
         4.61556323e-01,  1.14503126e+00, -1.02986825e+00,
        -6.11085820e-01, -6.57165257e-01, -2.76246950e-01,
        -1.61382344e+00, -4.42960879e-01,  1.42410825e+00,
        -4.66921909e-02,  6.98109658e-01, -4.74921162e-01,
        -9.97799593e-01, -1.52233768e+00, -5.79896252e-01,
        -5.82608786e-01, -7.44024642e-01, -1.02153849e+00,
         5.89080225e-01, -1.50491390e+00, -6.69833871e-01,
        -1.40573265e+00, -4.67819061e-01, -1.83020104e-01,
        -9.55650498e-01, -2.51049846e+00,  6.93976789e-01,
        -1.24536034e-01, -2.85287029e-01, -1.52279673e+00,
         1.14697739e+00,  4.71177918e-01, -1.80225674e+00,
        -4.31494599e-01,  1.18391952e-01,  3.52278392e-01,
         7.93589477e-02,  6.58283482e-01, -5.06081191e-01,
         8.49923719e-01, -1.46817961e+00, -2.06436382e-01,
        -2.92080540e-01, -2.52281840e+00, -8.57846912e-01,
         6.48334725e-01, -2.80199026e-01, -4.55227653e-01,
        -1.06283337e+00, -4.77968732e-01, -4.63038613e-01,
        -3.12017440e-02,  9.21088090e-01, -1.90646311e-01,
        -9.07571146e-01, -2.14389518e+00, -1.94342903e-01,
         6.93044613e-01, -2.47263507e+00, -7.11070621e-01,
        -1.26452438e+00, -7.97403123e-01, -5.99147897e-01,
         4.77684675e-01, -1.17041683e+00,  9.91608993e-01,
        -8.50935139e-01, -3.94950602e-01, -9.75086228e-01,
        -4.53664293e-01,  2.47305238e+00,  1.53274320e-01,
        -5.67771842e-01,  2.46116430e-01, -9.91501961e-02,
        -1.60030558e+00, -2.16785666e-02, -1.47881297e-01,
         7.25122344e-01, -4.19083718e-01,  1.88744995e+00,
         7.16398818e-01,  7.23689913e-01,  1.08340414e+00,
        -1.26454424e+00, -1.43596306e+00, -1.35635989e+00,
         1.20434676e+00, -1.11313411e+00,  8.20876943e-01,
        -7.10400215e-01, -1.85104819e-01, -1.41110483e+00,
        -4.54588809e-01, -2.82319181e+00, -2.62862759e+00,
         1.22240150e+00, -1.19551293e+00, -1.85633134e-01,
         1.06892969e+00,  6.22138964e-01,  1.75733934e+00,
        -2.28123919e-01,  5.03905519e-01,  8.54590864e-01,
         1.57444375e-01, -1.65445993e+00, -7.02431316e-01,
         7.40896517e-01,  1.19305785e+00, -7.53675897e-01,
         4.50645550e-01, -5.98856584e-01,  7.25533256e-01,
        -7.35368436e-01, -1.07856077e+00, -6.05101116e-01,
        -4.74231455e-01, -6.16625033e-02, -1.17779910e+00,
        -7.34239010e-01, -8.45089226e-01, -1.30069977e+00,
         1.36755339e+00, -3.50520951e-01, -8.84807116e-01,
        -1.11816326e+00, -2.07372129e+00,  8.52371744e-01,
         1.88356583e+00,  7.16480256e-01,  1.31540262e+00,
         1.23136757e+00, -3.15917079e-02,  9.53426259e-01,
         9.92182743e-01, -2.44173422e+00,  2.20796846e-01,
         8.63852812e-02, -6.03159179e-01, -1.49412147e+00,
        -6.53594728e-01,  6.61440334e-01, -8.76389924e-02,
        -3.66429850e-01,  1.53567511e+00,  8.26274043e-01,
         9.44799652e-01, -7.52411361e-01, -9.30855281e-01,
         1.20834612e-01,  4.61449605e-01, -1.94429265e-01,
        -1.36527449e+00, -1.24069149e+00, -1.78726814e+00,
         9.08607205e-01, -1.40835217e-01, -2.18410231e+00,
         1.35077490e+00,  4.70956146e-01, -1.39129032e-01,
        -6.51670872e-01, -9.14175437e-02,  5.15956600e-01,
         5.82934651e-01,  1.41511851e+00, -6.80139446e-01,
        -4.55869364e-01, -1.51871555e+00, -4.82553924e-01,
        -1.06529215e+00,  4.38295008e-01, -5.98811136e-01,
         2.93373348e-01,  8.90754635e-01,  1.30074628e+00,
        -1.03402187e+00,  9.75213934e-01,  2.70448269e+00,
        -1.02735764e+00,  5.46322096e-01,  1.52522034e-01,
         1.45275445e-01,  8.00152989e-01, -2.56100423e+00,
        -5.58973825e-01, -2.79749731e+00, -1.76681927e+00,
         3.81351341e-01, -5.59507742e-01,  1.03086496e+00,
         4.95449846e-01,  1.50786862e-01, -3.28207509e-01,
         1.25334863e+00, -8.97415598e-01,  3.85905242e-01,
        -3.70110836e-01,  8.10888171e-02, -2.08980672e+00,
        -2.86145126e-01, -9.53306728e-02,  1.94086141e-01,
        -6.71476081e-01,  7.11427804e-01, -2.76646707e-01,
        -2.49238308e-01, -2.68074679e-01,  1.13824977e+00,
         2.22196579e-01, -5.30242740e-02, -1.21003022e+00,
        -3.85956188e-01,  3.57012678e-01, -1.22756006e+00,
        -1.15081984e+00, -8.62583000e-01, -1.18005659e+00,
        -6.12573797e-01, -1.65820707e+00,  1.43364868e+00,
         9.03353654e-01, -2.58757663e-01,  9.35960623e-01,
        -1.07923043e+00, -1.79867807e-01,  2.89408220e-02,
         3.91964947e-01, -5.99527462e-01,  6.43164246e-01,
         1.01797636e+00, -6.27393119e-01, -1.31072014e+00,
        -1.36142002e+00, -2.16660777e+00, -1.09469324e-02,
        -7.16088970e-01,  7.82184629e-01, -1.07519085e+00,
        -6.75274620e-01,  3.74748237e-01, -4.30346457e+00,
         1.48560063e+00,  1.76452246e+00, -1.25706842e+00,
        -9.42510674e-01, -4.22677918e-01,  1.39727334e+00,
        -7.83024319e-01, -1.07423370e-01, -3.90916886e-01,
        -1.80164764e+00, -1.69227645e+00,  1.31595088e+00,
        -2.05046139e-01,  3.19877036e-01,  1.32542022e+00,
         7.13667329e-01,  1.65306931e+00,  3.88214483e-01,
         3.21625100e-01,  3.95786944e-01,  1.29899954e+00,
         1.38294371e+00,  4.95276847e-01,  6.53764590e-01,
        -1.79991382e-01,  4.53190340e-01,  7.36501253e-01,
         5.81065013e-02,  4.82136958e-01, -4.53211537e-01,
        -4.26789795e-01,  7.34223011e-01, -1.32833457e-01,
        -3.04845727e-01, -5.32839164e-01, -1.57432585e+00,
         1.78577503e+00,  2.32062911e+00,  2.75549448e-01,
        -6.87759693e-01, -1.25790409e+00,  5.07438639e-01,
        -7.30292538e-01,  7.03340386e-01,  1.18622082e+00,
        -9.43898561e-02,  1.15795051e-01,  1.02770481e+00,
         1.71322026e+00, -1.14065578e+00, -7.78452867e-02,
         6.44987887e-01,  1.88460918e-01,  3.79852847e-01,
         8.35073051e-02,  7.58363302e-01, -1.53753778e+00,
         9.59012947e-01, -7.06592396e-01,  9.67813036e-01,
        -1.55451688e+00,  1.03706897e+00,  2.06010145e-01,
         3.94643734e-01,  2.99558288e-01, -3.93852945e-01,
         7.81813548e-02,  1.47594970e+00,  9.15478683e-01,
         1.83307099e-01, -7.32852143e-01, -9.56200929e-02,
         4.33592369e-01,  8.60955256e-01, -5.65071613e-01,
        -1.03872758e+00,  7.61534104e-01, -1.99738302e+00,
        -2.18857773e+00,  7.11729123e-01,  2.36673719e-01,
         4.32146523e-01, -2.64281512e+00,  9.81148576e-01,
         2.05518101e+00,  1.96946391e+00, -2.21134197e+00,
        -1.46629514e+00,  8.70853285e-01,  2.05014279e+00,
        -1.22636732e+00,  3.60007006e-01, -1.06210282e+00,
        -9.16507203e-01,  3.71024849e-01,  1.22957299e+00,
         5.13180523e-01,  1.10109432e-02,  5.85054606e-02,
        -4.34882676e-01,  8.27627581e-01,  1.18545363e+00,
         2.86563223e+00,  7.09128530e-01, -9.29925929e-01,
         7.75787352e-01,  2.00482573e+00,  1.08989023e-01,
        -4.28310974e-01, -5.08380580e-01, -1.63442181e-01,
        -7.26811183e-01, -2.93994888e-01, -9.19435802e-01,
         4.34457382e-01,  1.32436273e+00,  1.97694007e-01,
         2.77155321e-01, -9.86849062e-01,  2.91822467e+00,
         9.36053060e-01, -8.39022528e-02, -7.28762548e-01,
        -1.13986602e+00,  1.13483723e+00,  5.99201839e-01,
        -1.78565901e-01,  6.28378650e-01,  4.87298730e-02,
        -2.38327163e-01,  8.11389338e-01,  1.02517684e+00,
        -4.56707031e-01, -1.56794860e-01, -2.91643601e-01,
         3.08794902e+00, -2.56325346e-01,  5.39664591e-03,
         1.05429197e-01, -1.91458160e-01, -1.51689145e+00,
        -2.75179176e-01,  1.09822867e+00, -6.70953344e-01,
        -1.14445588e-01,  5.61482733e-01,  5.13849003e-01,
        -1.00545805e+00,  5.48432958e-01, -3.20202585e+00,
        -2.36386209e-01,  2.61148248e-01,  7.12835863e-01,
         4.19194275e-01, -1.64543116e+00,  9.19470241e-01,
         1.87033693e+00, -3.67768758e-02, -6.40379962e-01,
        -1.48156529e+00, -8.39974659e-01, -1.14738519e+00,
        -1.31417352e+00, -5.51261340e-01, -2.02207663e-01,
        -6.80966905e-01,  1.70906214e+00, -3.13097831e-01,
         5.39230017e-02,  6.87367836e-01, -1.14651936e+00,
         2.97675499e-02, -1.18361812e+00, -3.15000757e-01,
        -7.42393852e-01, -3.96548661e-01, -1.39548011e-04,
        -1.30303996e+00, -2.35990083e-01, -1.59251702e+00,
        -1.62980149e+00, -6.28919947e-01,  9.61750742e-01,
        -6.56754338e-01, -7.74707490e-01,  3.17858274e-02,
        -5.98945994e-01, -5.90889467e-02, -7.67917500e-01,
         5.43869832e-01,  1.22437306e+00, -2.45916417e-01,
        -1.12521788e+00,  1.32486575e+00, -3.77275309e-01,
        -1.09220434e-02, -4.50789248e-01,  6.57395786e-01,
        -5.38421328e-01, -2.23942288e-01,  1.52756626e+00,
         4.31003014e-01, -3.68122416e-01,  1.27727860e+00,
         1.11931557e+00,  8.79200064e-01, -6.09541091e-02,
         7.22506924e-01, -9.42897577e-01,  1.50971034e+00,
         4.58771043e-01, -9.76291345e-01, -1.05949818e+00,
        -1.35103802e-02],
       [ 1.32549752e+00,  6.53818592e-01,  1.21064168e+00,
         9.72640489e-01,  1.94347763e+00, -9.54974337e-01,
         1.71697355e+00, -6.22533628e-01, -5.09973065e-01,
         3.91833935e-01, -6.00183933e-01, -1.36646563e-01,
        -1.38461304e+00,  3.28069173e-01, -8.19519686e-02,
        -5.08612948e-01, -3.07835704e-01,  9.57760987e-01,
         4.57256903e-01,  8.90702556e-01, -3.30590587e-01,
        -6.01360693e-01,  5.56225175e-01, -2.96280700e-02,
         1.21581023e+00,  3.90462680e-01,  1.36077916e+00,
         3.11929132e-01,  9.19348026e-01,  3.33597234e-01,
        -5.01893813e-01,  2.16000582e+00,  2.70081966e-01,
        -1.44320822e+00, -1.72058512e+00, -9.18320371e-01,
        -1.54587720e+00, -1.46450889e-01,  8.44798434e-01,
         2.13132531e-01, -9.52403031e-01, -1.19884500e+00,
         4.72005222e-01,  1.09860295e-01, -1.83571174e+00,
         1.55670692e+00,  2.62829439e-01,  1.23892768e+00,
         8.18560307e-02, -2.25352665e-01, -3.15236881e-01,
         2.29115531e-02, -4.37885662e-01, -2.42212538e+00,
        -8.75540636e-01,  4.96093980e-01,  9.93538041e-01,
        -4.28726285e-01, -2.19167574e-03, -6.72469738e-01,
         9.39702069e-01,  1.54403691e+00, -4.82405606e-01,
         3.05312437e-01,  7.70594040e-01, -1.13471024e+00,
         9.44834737e-01, -2.08918080e+00,  7.27220530e-01,
        -1.32081520e+00, -4.96469503e-01,  5.01420919e-01,
         2.01512487e-01,  6.67097065e-01, -1.18778542e+00,
         6.70798302e-01,  6.66681830e-01, -1.34403733e+00,
         5.41711563e-01,  1.30459834e+00,  7.88000540e-01,
         2.29849769e-01,  8.33301348e-01, -9.76107414e-01,
        -5.82491320e-01,  4.81922283e-01, -1.18830532e+00,
        -1.78822560e+00, -1.31164210e+00,  7.08070343e-01,
         3.97064046e-02,  3.76237138e-01, -2.64784140e+00,
        -1.03821177e+00, -2.20688987e+00, -2.78898070e-01,
        -8.29948047e-01, -1.04130547e+00, -1.73836813e+00,
        -7.15734796e-01,  6.80955066e-01,  6.37901893e-01,
        -1.15660520e+00, -5.02475898e-01, -6.65486208e-01,
         1.35947753e-01, -9.06120192e-01, -7.96994729e-01,
         2.11676458e-02, -4.70517096e-01,  9.54187332e-01,
         5.47709929e-01, -2.48593079e-01, -9.36726843e-01,
         6.64543335e-02, -2.12895028e-01,  6.23219149e-01,
        -2.33551230e+00,  1.66630910e+00,  9.49440868e-01,
        -1.02612207e+00, -1.04511098e+00,  8.38144982e-01,
         1.77014618e+00, -1.93636583e-02, -2.16892748e-01,
         2.39391110e+00,  2.71320162e-01, -5.94589365e-01,
         5.54257275e-01,  4.98904818e-02, -1.56272626e-01,
         4.22042558e-01,  1.89834063e-01,  2.38774983e-01,
         5.67131966e-01, -3.79150477e-01,  5.63017156e-01,
        -4.40827150e-01, -3.77211648e-01, -7.42549726e-01,
         1.08440495e+00,  1.32957310e+00, -2.77020314e-01,
         2.35674466e+00, -6.32957076e-01,  1.21296812e+00,
        -1.24915799e+00, -1.73188783e+00, -1.52485157e+00,
        -9.85375908e-01, -5.03116408e-01,  5.77352487e-01,
        -1.83435183e+00,  4.16079313e-01, -2.39235077e-01,
        -1.37142557e-01, -9.40120943e-01,  4.27699762e-01,
         1.70458142e-01,  1.07506765e-02, -5.32341541e-01,
        -7.95402982e-01,  2.38596355e+00, -1.29586820e-02,
         1.15012514e+00, -2.06546697e+00, -5.53368954e-01,
         1.03677021e+00, -1.71356697e+00,  1.37991604e+00,
         6.11001628e-01,  7.95249477e-01, -1.23984233e+00,
         1.14712491e+00, -1.41984730e+00, -9.36230436e-01,
         7.54707489e-02, -5.20902932e-01,  1.03776058e-01,
         8.76964576e-04,  3.06258241e-01,  2.91788554e-01,
        -6.67942126e-01,  3.67116639e-01, -8.16299885e-01,
        -1.08744078e+00,  3.59323310e-01, -1.02585718e+00,
        -1.58007459e+00, -2.18483275e+00, -1.21360750e+00,
        -8.48010858e-01,  6.18045746e-01,  1.29077150e+00,
         8.14030676e-02,  1.58602565e-02,  2.80038573e-01,
        -6.50311974e-03, -1.36792170e-01,  2.76509917e-01,
         3.44912554e-01,  7.51178224e-01,  2.50726362e-01,
        -8.37833007e-01, -6.95770281e-01,  8.58369565e-01,
         1.98665441e-01,  7.30489012e-01,  3.92829136e-01,
        -8.43608589e-01,  4.86379242e-01, -1.05257207e-01,
        -4.25962097e-01, -1.95893837e+00,  4.15878567e-01,
        -3.29389472e-01, -1.61648975e+00,  9.18458308e-01,
         4.80718741e-02,  5.47050293e-01, -2.47284731e-01,
         7.92378866e-01,  9.89640259e-02,  3.38035568e-01,
        -1.43488226e-01, -1.55857559e+00, -2.05683694e+00,
         5.33436029e-01, -7.90367823e-01, -2.99794659e+00,
         5.63805862e-01, -1.42576648e+00,  1.61090541e+00,
        -1.56998272e+00, -7.57729474e-01,  6.08177235e-01,
         6.67615245e-01,  7.88464271e-01,  1.08932505e-01,
         5.05681250e-01,  3.32582785e-01,  4.03635224e-01,
        -6.23916700e-01,  1.16808861e+00, -1.87537192e+00,
        -1.34199060e+00,  4.03936807e-01,  7.29860779e-01,
         1.42411885e+00,  4.40219770e-01, -8.52854199e-01,
         1.41268265e+00,  4.78270064e-01,  4.22003435e-01,
         2.83906107e-01,  8.16347217e-01,  1.92220677e+00,
        -9.54303005e-01, -1.22898712e+00,  1.36913020e+00,
         8.39141408e-01,  6.79944882e-01,  7.20235222e-01,
        -1.78211087e+00,  3.95724076e-01, -1.66933257e-01,
        -5.38114631e-01,  1.47008769e+00,  4.49183941e-01,
        -1.98320290e+00, -9.65603581e-01, -1.06627000e+00,
        -9.80396790e-01,  9.94344093e-01, -2.49917597e-01,
        -7.86085205e-01, -4.17842447e-01,  2.76196099e-01,
         3.58817494e-01, -9.01884531e-01,  1.47657571e+00,
         5.83789179e-01, -8.04720192e-01,  2.35567187e-01,
         2.14879768e-01,  8.55438062e-01, -3.28696867e-01,
        -6.51550972e-02,  1.93931460e-01,  2.45779475e-01,
        -1.28417491e+00,  1.44769584e-01,  3.27804876e-01,
        -3.65965504e-01,  1.99158019e+00, -1.09812458e+00,
        -1.97118425e+00, -1.53740635e+00,  2.11639244e+00,
         1.14549860e+00, -1.30607566e+00,  2.11338857e+00,
        -2.95831230e-01,  7.49619433e-01, -3.62786607e-01,
        -7.91863798e-01,  7.49168368e-01,  1.11159621e+00,
        -1.16105861e+00, -1.00778403e+00, -6.37886184e-01,
         5.82690410e-02,  1.16348179e+00,  1.25404467e+00,
        -2.61207309e-01, -7.53394092e-02, -9.75677222e-01,
        -5.19414995e-01,  7.37866435e-01,  1.22591622e+00,
         2.10195311e-01, -4.82869909e-01, -2.56108755e+00,
        -2.72124357e+00, -5.61430845e-01, -2.10948337e-01,
        -2.22424897e-01,  1.25628090e+00, -1.88318044e+00,
        -1.20823474e+00,  1.39924426e-01,  7.08539752e-01,
        -8.61768908e-01, -4.42223533e-01,  3.29350751e-01,
         1.33321646e+00,  1.09175908e+00,  2.96465420e+00,
        -7.84178095e-01,  3.44994387e-01,  1.85322841e-01,
         1.22611374e+00,  2.95779051e-01,  2.98476834e+00,
        -1.50464271e+00, -1.21733673e+00,  1.58090306e+00,
        -1.17848686e+00,  8.73063781e-01, -9.52708802e-01,
         4.87086175e-01, -2.28187175e-01,  9.02374464e-01,
         8.22752575e-01, -1.20779030e+00, -7.25236064e-01,
        -2.64934647e-01, -5.06687890e-01,  6.82000053e-01,
         1.54397840e+00,  4.61531016e-01, -6.22357559e-01,
         1.37329220e+00, -3.59976806e-01, -1.80979659e+00,
        -5.58481846e-01, -4.87624602e-01,  1.07813015e+00,
         8.58654710e-01, -1.98383338e-01,  6.14281434e-01,
         6.93147885e-01, -2.27638343e-01,  7.64077014e-01,
        -2.10566192e-01, -1.16666436e+00,  1.93063220e-01,
        -9.04078577e-01, -1.14414148e+00,  1.53945330e+00,
         5.01036808e-01,  8.34828112e-01,  3.30773666e-02,
         2.00738492e+00,  2.41524599e+00, -2.32690395e-01,
         1.62793854e+00,  1.74858787e-01, -8.09074150e-02,
         3.99020250e-03,  6.93450291e-01, -3.88613601e-01,
         2.66634741e-01,  1.77281247e+00,  3.50643273e-01,
        -2.56579625e-01, -6.96886509e-01,  5.00179171e-01,
        -7.64260215e-01, -3.37295702e-01,  1.92126843e+00,
         6.95343999e-01,  1.43604065e-01, -1.17977354e+00,
         1.28732753e+00, -1.41924888e+00, -8.38462391e-01,
         1.78209080e+00, -1.26013448e+00, -1.80942950e+00,
         8.22537066e-01,  5.94908160e-01,  2.29293426e-01,
        -1.86350370e-01,  7.60327544e-01, -4.23674216e-01,
        -7.46257614e-01,  2.01540800e-01,  3.88502524e-01,
        -3.87257536e-01, -1.60974902e+00, -9.03275445e-01,
        -9.60629461e-02, -4.47565611e-01, -1.87078165e-01,
        -1.05379398e+00,  2.89647525e-01,  8.54056645e-01,
        -5.34706516e-01, -1.18055820e+00,  7.33300703e-01,
        -9.38198280e-01, -1.28912228e+00,  1.51665072e+00,
        -7.90451439e-01,  6.46360362e-01, -1.83353255e+00,
        -2.63109133e-01, -2.50619706e-01,  2.93026544e-01,
         5.60042068e-01, -2.46979225e-01, -5.43791575e-01,
         5.88307345e-01,  1.51399703e+00,  3.48302019e-01,
        -1.62622720e+00,  1.04729770e+00,  5.14049026e-01,
         1.02458065e+00, -4.89144808e-01,  8.40190104e-01,
         2.09820747e-01, -1.28406009e+00,  1.38228465e-01,
         2.36030183e-01,  1.96991999e+00, -5.35806823e-01,
        -2.70092243e-01,  1.50394685e+00,  4.00772714e-01,
        -2.24657657e-01, -1.02349479e-01, -1.12097584e+00,
        -7.61299251e-01,  1.10469690e+00,  9.92991858e-01,
        -1.25590484e+00,  7.58495683e-01, -2.06920982e-02,
        -1.44974126e+00,  1.09136483e+00, -1.54199420e+00,
         3.74057578e-01, -2.20402018e+00,  7.45037564e-01,
         3.20263571e-01,  7.48818939e-01,  1.68252108e+00,
        -4.17828883e-01, -7.05760658e-01,  9.96150101e-01,
         5.53430740e-01,  1.02719569e+00,  1.01423981e+00,
         1.25938704e+00, -1.98461426e+00, -4.37656917e-01,
         9.84208675e-02, -1.35098566e+00, -1.86379318e+00,
        -9.59935004e-01, -4.00723393e-01, -1.49591266e+00,
        -1.73577032e-01, -4.17053693e-01,  8.15972857e-01,
         1.29515775e+00,  1.85951349e-01,  2.72562456e-01,
         4.27366418e-01, -8.01841608e-02,  8.79974411e-01,
         6.77059006e-01, -3.08046654e-01, -2.53530683e-01,
         4.86703112e-02, -2.72303436e-01,  2.15436894e+00,
        -1.22780737e-01,  2.05202693e+00, -1.79009543e+00,
         9.58199527e-01,  1.21157892e+00,  1.52548268e+00,
         1.53479397e+00, -3.30671243e-01, -2.71231436e-01,
        -8.38433466e-01, -3.62233279e-01, -1.17469142e+00,
        -1.30903682e-01,  2.34338246e+00, -7.59747816e-01,
        -2.04448662e+00,  6.33308242e-01,  6.45574864e-01,
        -1.93625078e-01, -2.02141759e-01,  7.41489737e-01,
         1.13699003e+00, -8.37885320e-01, -1.32239158e+00,
        -1.38678031e-01,  1.14629562e-01,  1.01900571e+00,
        -9.06730293e-01,  8.45969949e-01, -1.39603908e+00,
         1.10881967e+00,  3.99861449e-01,  6.19345407e-01,
        -9.44473500e-01,  2.70277695e-01,  6.88354812e-01,
         8.93470510e-01,  1.52404294e+00,  4.70119521e-01,
        -7.75375689e-01, -7.44959431e-01, -7.95163919e-01,
         3.31576900e-01,  1.10373068e-01,  1.54915633e+00,
        -6.23296439e-01,  7.86051080e-01, -5.53584997e-01,
        -1.49366100e+00, -1.21537330e+00, -1.27561466e+00,
         1.14623814e+00,  3.77906577e-01, -7.49839137e-01,
        -3.98312251e-01,  1.05940761e+00,  1.01332549e+00,
         7.93025400e-01,  7.03488194e-01, -6.97867619e-01,
         2.88472559e-01,  6.02509104e-01, -1.00415002e-01,
         7.79968640e-01,  1.03246816e+00,  3.72992643e-01,
         8.86584681e-01, -2.81791378e-01, -3.79302222e-01,
         8.34959406e-02,  2.51974549e+00, -1.37594426e-02,
        -9.93790897e-01, -8.59984603e-01,  6.99956549e-01,
        -9.40614441e-01, -7.06009808e-01, -1.10138213e+00,
         5.11637601e-01, -1.81336758e-01,  1.17488621e+00,
        -1.42082770e+00,  3.01563407e-01,  4.19449798e-01,
         1.01392116e+00, -1.53634177e-01,  2.29012068e-01,
         5.69621568e-01,  3.80416582e-01, -9.42187249e-01,
         5.63723206e-01, -1.20761821e-01,  1.93840752e+00,
        -1.37820242e+00, -1.26128505e+00, -2.23759010e+00,
         9.79060735e-01, -5.17427396e-01, -1.48598032e+00,
        -2.43651139e+00, -6.22159989e-01,  1.25197219e+00,
         1.70399263e+00, -1.09554733e+00,  2.00107281e+00,
        -6.25789706e-01,  1.09425594e+00,  4.43580399e-01,
        -2.85491164e-01,  1.40481863e+00, -3.88860142e-01,
         7.38931530e-01,  6.99726330e-01,  1.14804109e-01,
        -1.38837349e-02, -8.45813454e-01, -1.56336277e+00,
         3.27988543e-03, -5.48087471e-01,  3.49142755e-01,
         1.15423164e+00, -1.81915562e+00, -4.78836899e-01,
        -6.51844760e-01,  8.18554028e-01, -7.11674645e-02,
         4.25582053e-01, -9.42619692e-01, -8.63178334e-02,
        -2.08322072e-01,  5.27626310e-01, -6.46928534e-01,
         4.19217295e-01, -9.64359782e-01,  4.57739366e-01,
        -5.43013996e-02, -1.02926952e+00, -2.84769993e-01,
         2.04572379e-01,  1.09026750e+00,  7.17586315e-01,
        -1.11336033e+00,  1.19661698e+00,  9.23592655e-01,
         1.09962360e+00,  4.79503603e-01, -3.39679436e-01,
         2.84902365e-01,  9.46001492e-02, -1.70766287e+00,
         2.30704581e-02, -1.12039693e+00,  5.21175273e-01,
        -1.44607538e-02,  1.38649188e+00, -3.49927983e-01,
         5.38778360e-01, -3.65595406e-01, -2.82632928e-01,
         5.92428875e-01,  6.86722126e-01,  6.49293972e-01,
        -1.24565718e+00,  3.52779724e-01,  1.54243016e+00,
         1.88691641e+00,  9.49064267e-01, -7.02157404e-02,
         1.07881837e+00,  2.30443063e+00, -3.60589597e-01,
         6.58195611e-01,  1.07586666e+00, -1.04700238e+00,
         3.97129543e-01,  5.73233716e-01,  1.83735477e-01,
        -9.49479148e-01,  5.58972357e-01, -1.40029092e+00,
         4.58233732e-02, -8.83316887e-02, -9.58049783e-01,
        -5.14384042e-02, -3.15953720e-01, -2.05721591e+00,
        -7.21662089e-02, -7.19150622e-01,  2.45496265e-01,
        -1.69302470e-01,  9.54058266e-02, -1.54195224e+00,
        -6.11965381e-01, -1.27218675e+00, -2.75243812e-01,
         6.34916756e-01, -6.39430894e-01,  1.58228924e-01,
         9.74048649e-01, -3.20381903e-02, -2.50424351e-01,
        -6.60470988e-01,  9.87440269e-04, -3.84195683e-02,
        -5.60067712e-01,  1.56053864e+00,  2.13880714e+00,
        -6.79977688e-01, -3.49499857e-01, -1.42844214e+00,
        -9.26256158e-01,  1.85315766e+00, -1.78876363e-01,
         3.61388149e-01, -6.37920525e-02, -1.40645184e+00,
        -2.27092679e-01, -8.84024681e-01, -7.89336875e-01,
         2.62140887e+00, -1.26628570e+00, -1.65808326e+00,
         1.34225642e+00, -1.64313156e+00,  7.17189113e-01,
        -9.99117948e-01, -2.03182582e+00, -8.55825010e-01,
        -3.98422881e-02, -5.17025164e-01,  1.16924639e+00,
         8.12699488e-02, -6.12738737e-01,  1.10617037e+00,
         2.16680642e+00,  4.19702681e-01,  4.92190465e-01,
        -5.17854680e-01, -4.56837789e-01, -8.73413970e-01,
        -7.30381737e-01,  5.03602253e-01, -1.05266046e+00,
         6.82905489e-01,  2.45322792e+00,  1.11684781e+00,
         3.68640890e-01,  3.61179487e-01, -4.28533275e-01,
         2.11311585e-01,  7.17919417e-01, -1.52213038e+00,
         4.69234021e-01,  7.78347166e-01, -4.89707892e-01,
        -5.10604501e-01,  1.72144535e+00,  2.60521543e-01,
         1.31823838e+00, -1.37864253e-01,  2.17134311e+00,
        -7.92919718e-02,  1.40170142e+00,  5.30333036e-02,
        -2.24277530e-01,  3.75240067e-01,  1.14753167e+00,
        -2.82174491e-01, -5.63432967e-02, -2.18537637e+00,
         2.29312552e-01,  1.97128163e+00, -4.57371556e-01,
         1.30361689e+00],
       [ 4.27179497e-01,  7.22689466e-02,  1.97078795e+00,
        -1.42585023e+00,  1.37602031e+00,  1.65022008e+00,
        -1.27642448e+00, -4.01120534e-01, -4.07306256e-01,
         1.61745515e-01,  1.01087084e+00, -1.18003300e+00,
        -4.60614364e-01,  4.15974244e-01,  1.04528278e+00,
        -8.59366189e-01,  6.36005086e-01, -1.70961018e+00,
         7.93356357e-02, -1.67070501e+00,  7.70852801e-01,
         3.65961799e-01, -3.73785013e-01,  9.57436322e-01,
         2.24903122e+00, -4.11139705e-01, -4.71267362e-01,
         5.72970400e-01,  6.52445194e-01,  8.48752686e-02,
        -5.30797766e-01,  9.92438848e-01, -6.74072394e-01,
        -1.17813448e+00, -9.77285724e-01, -1.10155943e+00,
        -1.37777850e+00, -2.80347161e-01, -6.37782796e-01,
         3.84102395e-01,  1.42133127e+00, -5.22121578e-01,
         8.47977293e-01, -1.09177684e+00,  5.75282977e-01,
        -1.03286732e+00, -1.40380907e+00, -5.33921092e-01,
        -2.15072693e+00, -1.09944717e+00, -6.67162264e-01,
         1.71746766e+00, -4.85956109e-01,  2.12329734e+00,
        -1.01438848e+00, -2.24222255e-01,  4.83812362e-01,
         7.59673021e-01, -1.34091619e+00,  2.69779043e-01,
         3.02084461e-01, -1.51432712e-01, -2.01774481e-01,
        -9.61522578e-01,  5.99095796e-01, -8.13548803e-01,
         8.20536897e-01,  1.67351203e+00, -1.27182029e-01,
         2.26594788e-01,  4.29952245e-01,  2.08456621e+00,
        -4.47368571e-01, -3.51019227e-02,  5.32712100e-01,
         9.77837659e-01,  5.38948005e-01, -2.02210647e-01,
         4.15406605e-01, -2.79815911e-01,  9.74475695e-01,
        -5.54313940e-01,  8.92008806e-01, -1.60326288e+00,
        -1.77405026e+00,  2.83530445e-01, -2.40190541e-01,
        -1.30929512e+00,  3.56608407e+00, -1.65831851e+00,
        -7.24464707e-02, -3.29502702e-01, -1.09501085e+00,
        -7.80715337e-01,  6.40345601e-01, -6.45415335e-01,
         1.30718091e-01,  7.85549030e-01, -1.29251568e+00,
        -4.10635567e-01,  1.96911491e-01,  2.71962933e-01,
        -1.05186367e+00,  2.68850041e-01, -2.01060912e-02,
         1.26649987e+00,  4.76051393e-01,  1.39729139e+00,
        -1.31604344e+00,  1.45061443e-01, -8.74288371e-01,
         4.03293077e-01, -4.02540650e-01,  6.91258446e-01,
         2.22571221e-01,  7.03308897e-01,  1.08466199e+00,
         1.28577580e+00, -2.40657579e-01,  1.85364213e-01,
         1.54544193e+00,  6.93346695e-02, -8.38172185e-01,
         9.90254141e-01, -1.12879483e-01,  1.71411668e+00,
         8.36725031e-02,  1.59974716e-01, -5.04801498e-01,
        -1.01138047e+00,  2.68581596e-01,  1.70762581e-01,
         4.80901593e-01,  3.38067355e-01, -1.55999180e+00,
         1.49790284e+00, -1.03649576e+00, -8.21201036e-01,
        -1.10139474e+00, -1.24309589e-01,  9.21970803e-01,
         5.01563824e-01,  6.11824538e-01,  8.01647302e-01,
        -6.48595126e-01, -1.18916453e+00, -2.46250402e+00,
         9.84944177e-01,  2.39645613e-01, -4.79892788e-01,
        -5.03661881e-01, -2.18809747e-01, -2.13292833e+00,
        -1.90171252e-01, -1.16717284e+00, -1.22500393e+00,
         2.72855558e-01,  1.35307642e-01,  2.92767783e-01,
        -1.10161782e+00, -8.47070317e-02, -2.08707643e+00,
         1.00021871e+00, -1.01569034e+00,  3.47565614e-01,
         7.73927142e-01,  1.88269676e-01, -6.11570901e-01,
         1.87053401e-01,  4.77996590e-01, -2.53904584e-01,
        -7.65884967e-01, -1.60289802e+00, -6.94877370e-01,
        -5.38743217e-01,  1.10406033e+00,  4.30112327e-01,
         6.64250330e-01,  7.34343770e-01,  5.18211957e-01,
         6.72675999e-01, -5.47663308e-01,  1.74766621e+00,
         1.36645812e-02, -3.94746004e-01, -2.63199107e-01,
        -1.74464270e+00, -2.24240111e+00, -3.38540910e-01,
         8.81440968e-02, -4.75235990e-01, -1.34221249e+00,
        -7.11994740e-01, -1.28344138e+00,  7.88105882e-01,
        -1.22211237e+00, -2.92727622e-01, -1.09295751e+00,
         1.31911468e+00,  1.64465882e+00, -7.71562653e-01,
        -3.33560755e-01,  1.88500285e+00,  2.56249317e-01,
         8.33864370e-01, -4.39375590e-01, -1.69016820e-01,
        -1.06741465e+00, -2.06043929e-01,  1.93172786e+00,
        -3.05193813e-01, -4.43986277e-01, -6.19211713e-01,
        -2.95513010e-01,  5.06875427e-02,  2.27524239e-01,
         4.76358836e-01, -3.93817905e-01, -1.31450862e+00,
         2.12115522e-01, -1.31131938e+00,  1.51202164e-01,
        -1.60403425e+00,  7.42841049e-01, -1.67812556e+00,
        -1.44023652e+00,  1.22731852e+00, -6.75804784e-01,
        -6.79507836e-01,  8.93303481e-01,  8.57424425e-01,
        -7.89712367e-01, -3.63293825e-01,  4.71714410e-01,
         6.24038132e-02,  6.13272229e-01, -4.03336258e-01,
         6.31655107e-01,  7.00831999e-02,  6.02240269e-02,
         1.45936559e+00,  1.08245562e-01, -1.54982824e+00,
         8.07315954e-01, -7.52419817e-01, -1.20065974e+00,
         3.36697858e-01, -7.22973999e-01, -1.04022845e+00,
         5.13275231e-01, -1.25750348e+00,  1.29166193e+00,
        -1.80264388e-01,  1.86429257e-01, -3.39041699e-01,
        -2.45583444e+00,  2.97938790e-01,  9.71821672e-01,
        -3.03475897e-01, -8.21956515e-01, -1.08103502e+00,
         4.86194784e-01, -1.30846367e+00, -5.66389246e-01,
        -3.55730236e-01,  1.11874038e+00, -6.24570996e-02,
         2.46163145e-02,  7.86640794e-02,  1.68550813e+00,
         6.27755019e-01,  1.18978255e+00,  8.87940785e-01,
        -2.16986405e-01,  5.21695523e-01,  2.05544557e+00,
        -1.13738819e+00, -1.27060764e+00,  1.37395139e+00,
         1.84935497e+00, -1.36173959e+00, -3.67281451e-01,
        -1.51327150e+00, -3.19203340e-01,  2.52962422e-01,
        -5.43901143e-01, -2.96358599e-01,  1.81394028e+00,
        -7.78854281e-01,  8.28371947e-02,  7.22420091e-01,
         1.70341548e+00, -2.41934365e+00, -3.62488312e-01,
         5.37996332e-01,  1.37542837e+00,  1.09151965e+00,
        -7.37404455e-02,  1.97442924e+00,  5.22083141e-01,
         4.73642619e-01,  5.67791625e-01, -8.37020422e-01,
         1.98031044e-01,  1.24278812e+00, -8.37109319e-03,
         1.39151868e+00,  1.02042961e-01,  4.58870475e-01,
        -5.20035728e-01, -2.75618787e-01, -1.25728023e+00,
        -1.01518851e-01,  7.02933942e-01, -6.01028607e-01,
        -8.81637450e-01, -1.05882356e+00,  5.37818702e-01,
        -1.28908728e-01,  1.49473678e-01, -1.10135443e+00,
        -7.07357518e-01,  1.59142981e+00, -1.14934019e+00,
         1.48829245e+00, -8.68537489e-01, -1.40203711e-01,
         1.25861607e-01,  1.41086725e+00,  2.80709516e+00,
         4.27115037e-01,  6.60049627e-01, -1.38343315e+00,
        -6.76251321e-01,  1.05038376e+00,  1.79584579e-01,
        -2.41691382e+00,  5.53967351e-01, -6.08213279e-01,
        -1.47487085e+00,  1.91700171e+00,  9.29500890e-01,
         2.69891249e-01,  6.77942428e-01, -1.10414576e-01,
        -1.38330752e+00,  5.35093941e-01, -1.04248500e+00,
         5.92082540e-01,  6.79933159e-02,  7.83122671e-01,
        -6.47589846e-01, -3.63184264e-01, -1.74656189e+00,
         1.07919606e+00,  1.16881608e-01,  4.25902770e-01,
        -1.23372109e+00,  1.28697640e+00,  2.15837060e+00,
         7.06782484e-02,  1.55363345e+00,  1.10753937e-01,
        -1.92271159e-01, -1.43421118e+00, -1.78905028e+00,
         2.51623409e-01, -1.14732665e+00, -2.87346879e-01,
         1.08480867e+00,  1.45780927e+00, -3.67527674e-01,
        -1.99097760e-02,  8.19284229e-01,  2.57116571e+00,
         2.28491991e-01,  8.12921414e-01, -3.54072525e-01,
        -7.31984810e-01,  9.63176200e-01, -7.94799101e-01,
         4.86419428e-01, -3.97097063e-01, -2.65780981e-01,
        -2.91270900e-01, -7.42062654e-01,  2.71090148e-01,
         1.28277506e+00,  5.48430857e-01,  7.55968980e-01,
         1.10090649e-01,  1.16766718e+00,  5.58690517e-01,
        -6.13394065e-01, -4.61270332e-01, -5.08565112e-01,
         2.69986265e-01,  9.91567171e-01,  9.91890053e-01,
        -2.12172168e-01,  2.47110260e+00, -1.45410283e+00,
         4.65610319e-01,  1.36901234e+00, -1.30849726e+00,
         1.31394923e-02, -1.39178829e+00,  1.11728292e+00,
         7.21711474e-01,  8.34651422e-01,  2.47448058e-01,
        -1.21458157e+00, -9.56572163e-01, -5.50151348e-01,
         9.16415725e-01,  1.90725425e+00, -2.17818930e-01,
         1.43412728e-01,  9.71725405e-01,  6.26359418e-01,
        -9.95599438e-01,  9.38814215e-01, -1.89042843e+00,
         1.53544641e+00, -1.16676446e-01, -9.90792543e-01,
         1.35598015e+00,  1.13569486e+00,  1.79723673e+00,
         4.66714074e-01,  1.70551402e+00, -1.06572943e+00,
        -1.86698017e-01,  5.74717587e-01,  2.67813838e-01,
         2.17129902e-01, -1.12705653e+00,  1.09848585e+00,
        -1.30853303e-01, -1.81224213e-01, -2.01238307e-01,
        -1.95834133e-01,  1.23741579e+00, -5.16819610e-01,
         7.52695399e-01,  1.89926146e+00,  6.90549073e-01,
        -1.17581898e+00, -9.55505064e-01, -9.85309343e-01,
        -2.84498403e-01,  4.93578173e-01,  3.14569990e-01,
         3.27229194e-01, -9.10435095e-01,  1.53320835e+00,
         1.83235590e-01,  3.78397829e+00,  6.85564605e-01,
         4.76427897e-01,  3.23408307e-01,  1.03074158e+00,
         1.24867444e+00, -1.58321127e-01,  1.65224359e+00,
        -1.12730759e+00,  3.55604674e-02, -4.67681307e-02,
        -1.53126677e+00,  6.78787977e-01,  1.13710943e-01,
         7.79988966e-01,  3.81169011e-01, -1.54381707e-02,
         4.16789650e-01,  4.39430894e-01,  9.83683103e-01,
        -1.67573369e-01,  1.72081033e-01, -3.09436623e-01,
         9.94736325e-01,  2.65067317e-01, -1.20947351e+00,
         4.17402101e-02,  1.50034002e+00,  1.67199166e+00,
         1.80181982e+00,  1.73157011e+00, -2.50784077e-01,
         5.38148433e-01, -4.37660804e-01,  2.17517666e-01,
         2.65586084e-01,  1.51106316e+00, -1.64503804e+00,
         1.07032907e+00, -1.04768864e+00, -9.40562351e-01,
        -9.89788986e-01,  3.41300228e-01,  1.42083982e+00,
        -6.71724753e-01, -2.30056534e+00, -1.51414514e+00,
        -2.26675736e+00, -5.71223610e-01,  7.95660554e-01,
        -1.25498010e+00, -6.77208367e-01,  5.91412198e-01,
         6.40880550e-02,  9.68095628e-01,  2.48860530e+00,
         1.10616615e+00,  9.70722159e-01,  2.45464408e+00,
         2.48770242e+00,  1.65040237e+00,  5.30095246e-01,
        -1.20482571e-02, -7.14155996e-01, -6.93522357e-01,
         5.46394390e-01, -2.69397653e-01,  1.31234947e+00,
         1.82817391e+00,  3.73474927e-01,  1.79538174e+00,
         6.14988149e-01, -2.93210648e-01,  6.85877022e-01,
         9.46432517e-01,  1.18907652e+00,  1.60947275e+00,
        -4.92666981e-01,  1.36518253e+00,  9.09740999e-01,
        -3.61410037e-01, -3.31720008e-01, -7.70591811e-01,
        -1.63596086e+00, -1.34411362e+00,  7.46105616e-01,
        -9.31853824e-01, -6.44191205e-01,  1.04817476e-02,
        -1.55873833e+00,  8.69102241e-01, -5.52993158e-02,
         1.84373133e-01, -1.49625247e-01, -5.57667414e-01,
        -6.91800375e-01,  4.65972609e-01, -8.10159223e-01,
         7.22785578e-01, -2.47205426e-01,  1.36681124e+00,
        -5.90200216e-01,  6.94481760e-01,  9.13710819e-01,
         2.58398737e-01,  5.99719106e-01, -1.06421967e+00,
         2.09942435e-01, -1.72497931e+00, -7.33052949e-02,
        -1.69903497e-01, -1.94930053e+00, -4.96773133e-01,
        -7.77005580e-01, -1.17487710e+00, -9.96886945e-01,
        -1.73608707e-01,  6.42129254e-01, -9.09491339e-01,
         7.62143132e-01, -8.59026204e-01,  1.12869261e-02,
        -3.78665932e-01, -6.62569514e-01, -2.58196195e+00,
        -4.03309584e-01,  8.71438594e-01, -5.54358063e-01,
        -5.10920380e-01, -1.00281079e+00, -9.63374295e-01,
         2.86500924e-01, -3.96477350e-01,  3.06742789e-01,
         1.56958056e-01,  1.49848631e+00,  1.61403928e-02,
         4.88829078e-01, -1.08051321e+00, -4.92720345e-01,
         1.16008620e-01,  8.68040371e-03, -2.17896771e-01,
         1.99775071e-01, -1.30477913e+00, -1.14942432e-01,
        -3.52916841e-01, -6.49791077e-01, -1.14499665e+00,
         1.43543286e+00,  9.33002084e-01, -6.96215221e-01,
        -8.59336627e-01,  1.91722969e+00, -2.99786984e-01,
        -9.43193448e-01,  2.67109691e-01, -1.42670861e+00,
        -1.01871184e+00,  1.75697073e+00,  1.68574401e-01,
        -1.19488251e+00, -1.77457160e+00,  1.09437290e+00,
        -5.53546574e-01, -6.32077230e-01,  1.58583280e+00,
         1.38658795e-01, -3.63332365e-01, -6.98593528e-01,
        -1.26349746e+00,  1.17576854e-01, -6.02162328e-03,
        -4.87934939e-01,  3.32845259e-01,  1.05121810e+00,
         4.75226903e-03,  7.43495900e-03, -5.49404443e-01,
        -9.40945883e-01, -8.00874892e-01, -1.61388978e+00,
         1.59872624e+00, -1.27550834e-01, -6.92364284e-01,
         8.08805627e-01, -5.44445711e-01,  1.84885113e-02,
        -7.03266598e-01,  2.75709447e-01,  1.19385369e+00,
         2.71578956e-02, -3.15158946e-01,  7.97605536e-01,
         1.17239412e-01, -1.33964830e+00,  1.75795962e-01,
         1.03244608e+00,  3.60354051e-01,  3.26337229e-01,
         1.13181421e+00, -5.11680247e-02, -2.14865801e-01,
         7.22840076e-02, -8.73256648e-01,  1.46985134e+00,
        -4.02563683e-01,  1.41967453e-03, -3.66724059e-01,
        -2.05817283e-01,  1.35653826e+00,  1.94276547e+00,
        -9.69848503e-01,  1.30971747e+00, -3.22351376e-01,
         7.68411657e-01, -7.88407019e-01,  4.38040850e-01,
        -9.21491759e-01,  1.54346057e-01,  1.10317285e+00,
        -3.20816618e-01,  1.59299260e+00, -1.25829608e+00,
         1.16974742e+00,  9.70171759e-01, -2.12851893e+00,
         8.70811288e-01, -9.37392593e-01,  1.15862904e+00,
        -8.54282248e-01,  4.77110125e-01,  5.41068032e-01,
        -7.26266297e-01, -1.12449425e+00,  2.00646526e-01,
        -2.95398386e-01, -4.26344319e-01, -9.16718991e-01,
        -1.25567592e+00,  1.60603213e+00, -9.53188498e-01,
         2.21032226e-02,  1.31421466e-01,  6.61924636e-02,
         1.13740366e-01, -1.48928798e-01, -1.14846813e+00,
         9.15312471e-02, -6.30714202e-01,  3.62112412e-01,
        -2.08871995e-01, -7.22657497e-01,  1.21664569e+00,
        -6.17905930e-01,  5.25468335e-02,  1.91264425e-01,
         6.87903418e-04, -1.17729709e+00,  4.91585150e-01,
         4.52048973e-01, -5.66545022e-01, -1.33187747e+00,
         1.57084978e+00,  8.36413741e-01, -3.12148329e-01,
        -8.15265732e-01,  9.40601297e-01,  2.31881533e-01,
        -5.96637277e-02,  1.26609145e+00, -1.19359981e+00,
        -1.82372580e-01,  1.13166568e+00, -7.16723780e-02,
         3.33632588e-01,  4.15166423e-01, -3.00698975e-01,
         6.11266715e-01, -1.42311649e-01, -1.07576284e+00,
         2.26305017e-01,  1.03735144e+00, -2.05168937e-01,
         4.70941169e-02,  3.29674876e-01, -1.47728946e+00,
         1.18225500e+00, -5.91055316e-01, -4.32277191e-01,
         8.89542218e-01,  2.20391833e-01,  2.75387205e+00,
        -1.74815675e+00,  2.07972494e+00,  1.66877845e+00,
        -1.74674068e+00, -1.00432966e+00, -5.53131408e-01,
         1.25777797e+00, -4.45994526e-01,  1.76173441e-01,
        -5.86156257e-01, -9.31572680e-01, -2.92257508e-01,
         4.11828134e-02,  1.86376504e-01, -5.00213185e-01,
         1.95923409e-01, -2.12986413e+00, -1.65928588e+00,
         4.26643869e-01,  7.79490619e-01, -2.73355313e-01,
         2.95519686e-01,  3.58603235e-01,  1.98121002e+00,
         7.18151154e-01, -8.55298219e-01, -1.46790752e+00,
         2.89505231e-01, -5.89001702e-01,  1.19133668e+00,
        -8.29995962e-01,  4.34064661e-01, -1.14331832e+00,
         1.24453074e+00],
       [-1.25198048e-01, -7.01372084e-01,  1.50131249e+00,
        -2.27923452e-01, -2.73637580e+00,  2.14168254e-01,
         8.25920630e-01, -1.29981020e+00,  1.71530660e+00,
        -2.91300192e-01, -1.55701000e-02,  1.02459484e+00,
         1.83555407e+00,  2.50595534e-01, -3.12616327e-01,
        -5.06858484e-01, -8.47016557e-01, -4.64479716e-01,
        -2.16837310e+00,  9.15779213e-02, -7.17075139e-01,
        -4.66323884e-01, -8.47277559e-01, -4.23444747e-01,
        -1.22131242e+00,  1.73812619e+00,  3.74498856e-01,
        -8.73316864e-01, -8.17188039e-01,  9.72268911e-01,
         4.45647267e-01,  5.01982036e-01, -8.99388936e-01,
        -8.64063735e-01, -5.19813437e-01,  1.66277356e+00,
        -1.02506143e+00, -2.77671277e-01,  1.32081329e-01,
        -9.65820736e-01, -4.64282072e-01,  3.59193303e-01,
         1.60422711e+00,  1.16142173e+00, -1.39584924e+00,
        -6.08602800e-01,  6.83357297e-01,  1.08387908e+00,
        -8.70950255e-01,  1.74791561e+00, -5.33095288e-01,
         8.22512418e-01, -7.70814201e-01, -6.46675692e-01,
        -2.93406223e-01,  1.28229233e+00, -6.92226798e-01,
         6.44028860e-01,  1.14458580e+00,  1.92384732e-01,
        -1.23009581e+00,  2.38195657e-01, -6.42917512e-01,
        -9.37148643e-01, -8.38254546e-01,  2.12541722e-01,
         3.56466468e-02,  9.61192459e-01, -1.26317013e+00,
         9.43109226e-01, -8.70784881e-01,  5.63343037e-01,
        -4.36785645e-01,  4.49456896e-01, -4.30421830e-01,
        -1.64988402e-01, -1.39344074e+00,  1.28926015e+00,
        -1.28949544e+00, -1.30825533e+00,  6.09859267e-01,
        -8.07487682e-01,  4.84355718e-01, -4.38719560e-01,
         8.03027143e-01,  1.57744991e+00,  9.67032185e-01,
         8.42956877e-01,  3.96077908e-01, -5.84071753e-01,
         8.43120521e-03,  1.16147280e+00, -1.10389915e+00,
        -4.19996311e-01, -4.41731256e-01, -5.52536358e-01,
        -9.27881700e-01, -8.16266183e-01,  4.73914356e-02,
        -3.03509174e-01, -6.58303595e-01, -6.69270814e-01,
        -1.73563872e-02,  1.04101205e+00, -1.63122120e+00,
         4.89435410e-01,  1.45744101e+00,  4.44964648e-01,
         5.41328247e-02, -2.21282795e+00,  1.26412857e-02,
         2.20194807e+00, -1.87346909e-01,  2.54389325e-01,
        -1.72167705e+00, -1.99011621e+00,  9.46675765e-01,
        -4.62798165e-01,  2.33243751e+00,  7.15657494e-01,
         8.69710496e-01,  4.45116575e-01, -3.81297308e-03,
        -9.37029060e-01, -5.57818291e-01,  2.98126763e-02,
        -8.07075278e-02, -2.66757951e+00,  1.70635193e+00,
        -1.63233153e+00,  6.98312693e-01, -1.64193511e-02,
         6.04087071e-01,  4.59998719e-01, -1.21821663e+00,
         9.12276450e-02,  1.34581561e+00, -5.24368743e-01,
        -1.53929784e+00, -1.33624678e+00, -1.89838729e+00,
        -1.23809604e+00, -3.97233108e-01,  7.53444508e-01,
        -1.80637137e+00, -3.16133421e-01,  7.73296070e-01,
        -4.91791263e-01,  7.83576046e-02,  5.92996459e-01,
        -1.19770753e+00,  1.20966240e+00,  3.73225695e-02,
         4.32672503e-02, -2.57711786e-01, -4.58242462e-01,
        -4.45872928e-01, -8.46522605e-01, -3.86342125e-01,
        -1.45373487e-01,  8.04711847e-01, -5.56578481e-01,
         4.01668622e-01,  1.46228471e+00,  4.55028408e-01,
        -4.63909123e-01,  1.09804983e+00, -1.45614903e-01,
        -6.11221799e-01,  6.66454274e-01,  3.56843260e-01,
         6.78078457e-01,  5.58138538e-01, -4.80231926e-01,
         2.54364676e-02, -6.39228882e-02, -1.02734480e-01,
         1.11037049e+00,  2.73603190e-01, -6.31646648e-01,
        -1.39874916e+00, -1.35032297e-01, -2.33632547e+00,
        -7.03522792e-01,  3.34520649e-01, -1.32275597e-01,
        -1.10922290e+00,  9.51415826e-01,  3.92431469e-01,
        -1.30496066e+00,  5.32609237e-01,  1.75568260e+00,
        -5.17659213e-01, -5.76155318e-01,  3.43952017e-01,
        -3.71324142e-01, -1.26120236e+00, -1.32660147e+00,
         4.67722280e-01, -4.54494229e-01, -6.15569488e-01,
        -4.11370969e-01,  2.31074477e-01,  5.58806319e-01,
        -2.61752805e-01,  1.74228184e-01,  3.57768649e-01,
         8.65348020e-01, -2.57522109e-01,  1.26893676e+00,
        -8.51823992e-01,  4.26924307e-01, -8.00331863e-01,
        -1.10184403e+00,  4.41085576e-01,  3.44830274e-01,
        -7.94005610e-01,  1.93255942e-01,  1.44457361e+00,
         3.02006171e-01, -5.06531561e-01,  1.47249185e+00,
         6.27904306e-01, -7.33037008e-02,  5.26910075e-01,
        -8.27259407e-01, -1.01378996e+00, -1.72517514e+00,
        -2.42957794e-01, -4.46859300e-01, -6.22555727e-02,
         3.49812386e-02, -1.52909386e-01, -1.14152067e+00,
         1.33419759e-01, -3.12787220e+00,  4.93852558e-01,
        -1.15160396e+00,  5.19170613e-01, -2.71441760e+00,
        -1.27267987e+00, -2.41195473e+00,  8.07844032e-01,
         3.24087294e-01, -2.31123911e-01,  1.97081192e+00,
        -1.70352690e-01, -1.99822806e+00,  4.93276724e-01,
         1.49847527e+00, -5.92555080e-02,  1.27714550e+00,
         7.72457758e-01, -1.00048987e+00,  2.55893652e+00,
         5.02222995e-01, -1.52542529e+00, -5.77876534e-01,
         1.05411627e+00, -8.50270458e-01,  2.95097809e-01,
         4.42235112e-01, -1.63268156e-01,  1.04258921e+00,
        -1.90320964e+00, -1.13429936e+00, -9.18506909e-01,
        -8.78557472e-01, -5.65804323e-01,  5.16965305e-01,
        -4.86482052e-01,  3.53458366e-01, -6.14598670e-01,
        -5.73877945e-01,  1.18127414e-01,  7.70760068e-03,
         1.16472513e+00,  2.24967993e+00, -9.68430435e-01,
        -4.76651599e-01, -4.16117276e-01, -1.94382215e+00,
        -4.94957570e-01, -2.23105388e+00, -2.58941719e+00,
         1.20114083e+00, -3.67328699e+00, -1.84135515e+00,
        -6.25684461e-01,  1.29600514e+00, -6.61179791e-01,
         7.54559619e-01, -1.01173629e+00,  1.51257639e+00,
         1.36888430e+00, -2.87210051e+00, -3.00975998e-01,
         1.41503085e+00, -1.56546920e-01,  5.77975922e-01,
         6.82782872e-01,  1.02171661e+00,  1.77458695e+00,
         2.64506698e+00, -5.94327678e-01,  7.87422545e-01,
        -1.22523501e+00, -1.54700766e-02, -1.57335031e+00,
        -2.35145212e-01,  1.15153727e-01, -1.57336369e+00,
         6.29665195e-02, -1.95037533e-01,  5.75937554e-01,
        -5.55042543e-01, -4.22592329e-01,  4.98521570e-01,
         4.60537771e-01,  1.57188903e+00, -8.12645025e-01,
         2.73294216e-01, -1.30913580e+00, -2.32006352e+00,
         5.14803685e-01,  8.64036736e-01,  4.20424203e-01,
         1.83310326e-01, -7.06974301e-01,  9.68207956e-02,
        -3.28181589e-01,  3.16142016e-01,  8.27645306e-01,
         5.78368563e-01,  1.28384417e-01, -6.99357182e-01,
         1.44185630e-01, -1.31410492e-01, -2.14496681e+00,
        -6.19556085e-02, -1.78337408e+00,  6.11214698e-01,
        -4.14069314e-01,  1.03535986e+00,  1.44623773e+00,
         5.32460049e-02, -1.31992675e-01,  2.50846000e-02,
         7.15880410e-02, -1.29469391e+00, -1.03933022e+00,
        -1.87824276e+00, -8.78392593e-01, -2.66841389e-01,
        -1.13330705e+00, -5.16988021e-01,  2.10842560e-01,
        -5.54785086e-01,  1.26062070e-01, -2.28503037e+00,
        -1.21837828e+00,  2.27323133e-01, -2.53475911e-01,
         2.74458717e-01,  1.41500507e+00,  2.67814280e-01,
        -9.21490380e-01, -8.55899276e-01,  4.90434854e-01,
         1.35599743e+00, -6.00508409e-01,  4.68216896e-01,
         4.58650345e-01,  5.79248842e-01,  5.17327162e-01,
         1.78316527e+00,  1.50510297e-01,  3.91700940e-01,
