[array([[ 2.45910149e-02, -6.84510290e-03,  3.20653607e-02,
         7.54012135e-02, -1.15923194e-02, -1.15915066e-02,
         7.81826845e-02,  3.79936806e-02, -2.32424455e-02,
         2.68607247e-02, -2.29425945e-02, -2.30570586e-02,
         1.11699701e-02, -9.64906081e-02, -8.53937160e-02,
        -2.78372790e-02, -5.01426123e-02,  1.55575612e-02,
        -4.49538904e-02, -6.99194520e-02,  7.25604264e-02,
        -1.11775925e-02,  3.34314430e-03, -7.05355458e-02,
        -2.69509609e-02,  5.49148648e-03, -5.69826731e-02,
         1.85998235e-02, -2.97360462e-02, -1.44409925e-02,
        -2.97889162e-02,  9.17014347e-02, -6.70688126e-04,
        -5.23834355e-02,  3.64620915e-02, -6.85839956e-02,
         1.04943848e-03, -1.04543662e-01, -7.68975344e-02,
         1.41197952e-04,  1.76801484e-02, -7.38979308e-03,
        -3.81006579e-02, -8.42161780e-02, -8.92840489e-02,
        -4.81906945e-02, -4.16451379e-02,  3.72732244e-02,
         1.17959720e-02, -8.94480869e-02,  1.56523934e-02,
        -1.93034778e-02, -3.35126328e-02,  3.02824887e-02,
         5.10420822e-02,  4.61052361e-02, -4.15474584e-02,
        -1.53082937e-02,  1.63997260e-02,  4.76373153e-02,
        -2.48809905e-02, -9.34255334e-03, -5.90427546e-02,
        -7.45317958e-02,  7.84915668e-03,  1.33274569e-02,
        -6.28266452e-02,  4.41339854e-02, -4.37821008e-02,
        -9.65243552e-02, -7.84325977e-03, -7.88316233e-03,
        -7.09232699e-02,  4.58678487e-02, -1.60447430e-01,
         1.70685649e-02, -1.56597481e-02, -4.71278376e-02,
        -1.67985256e-02, -1.03478665e-01, -1.12443616e-02,
         1.81919953e-02,  7.31666579e-02, -2.56581992e-02,
        -4.00263977e-02, -2.48406752e-02,  4.40640254e-02,
         1.37715271e-02, -3.24868193e-02,  1.97953527e-02,
        -1.72224071e-02,  1.05656829e-02, -1.20995284e-01,
        -1.02544093e-01, -1.02576733e-01, -1.02270105e-01,
         2.61320816e-03,  6.86123250e-02,  1.15118629e-01,
        -4.44547971e-02, -8.74976023e-02, -5.39815540e-02,
        -1.39256654e-02, -4.83913307e-02, -6.74161925e-02,
        -1.32224652e-01, -1.74630733e-02,  1.93648236e-02,
         3.03360037e-02, -1.56507109e-02, -9.50797097e-02,
        -1.31263243e-03,  2.98183972e-03,  1.21948310e-01,
        -1.38321159e-02,  1.33416532e-02, -1.01216159e-02,
        -7.74021985e-02,  1.81437382e-02, -2.30012062e-02,
        -2.90164914e-03, -3.34318360e-02,  1.90279439e-01,
         6.41963075e-02,  1.06010932e-01,  8.06012848e-02,
         7.61698300e-02, -4.75600425e-02,  2.45383677e-01,
         2.01413814e-01,  2.77956160e-01,  3.20085635e-01,
        -2.09010524e-02, -2.16730688e-01, -2.91668096e-01,
        -6.84453624e-02, -2.25280933e-02, -2.33948880e-02,
         5.50909356e-02, -5.72339976e-02,  1.12609448e-02,
         6.47132093e-02, -7.99673666e-02,  7.88421757e-03,
        -7.06019835e-03,  5.73217013e-03, -1.63506875e-01,
        -2.38321783e-01, -2.40345315e-01, -1.39726140e-01,
        -2.19955861e-01, -1.12470380e-02,  1.07316005e-02,
        -1.06247748e-01, -7.38561056e-02, -1.22937148e-01,
        -4.12615109e-03,  1.24906933e-01,  4.66434318e-01,
         2.06407068e-01,  1.17844437e-02,  4.89698791e-02,
        -2.74725965e-01, -3.21584883e-01,  2.91583462e-02,
         5.00105572e-02,  4.43580279e-02,  9.42693335e-02,
        -1.21485220e-02, -3.73090011e-02, -6.21366521e-02,
        -4.49152899e-02, -7.19182740e-03,  2.70642024e-03,
        -1.26242308e-01, -2.60745726e-01, -1.94579213e-01,
        -1.57618214e-01, -2.30710891e-01, -1.49637865e-01,
        -1.76448754e-01,  5.11361107e-02, -2.21788500e-01,
        -1.23492832e-01,  1.14650979e-02,  4.52402284e-01,
         6.15269472e-01,  2.73386866e-01,  2.07432360e-01,
         2.34860022e-01, -1.02517759e-01, -2.89558648e-01,
        -2.01558059e-01, -7.14602100e-02, -1.52883783e-02,
         9.76160149e-03, -4.37995448e-02,  6.74833013e-03,
        -1.04552742e-02, -6.32568578e-02,  5.66865789e-02,
         5.89421452e-04, -3.90489989e-02, -1.05463297e-02,
         3.37384053e-02,  1.04155411e-01, -1.00981460e-01,
        -2.90862387e-01, -1.51390829e-01,  5.29054610e-02,
        -3.43504422e-01, -9.03506153e-02,  1.84836155e-01,
         4.65978444e-01,  5.23655347e-01,  3.95245305e-01,
         1.51994256e-01,  2.44414745e-01,  1.41610258e-01,
        -1.61790257e-01, -1.37455862e-01, -1.54727140e-01,
        -2.49705792e-02, -8.12902896e-02, -2.36432311e-02,
         4.09116218e-02, -2.26244889e-02, -1.01108726e-01,
        -6.49653528e-02, -3.14363011e-02,  1.92018862e-01,
         2.92342043e-01,  2.97970250e-01,  2.22402153e-01,
         5.67237463e-02, -1.05379620e-01, -2.03726725e-01,
        -4.25030865e-01, -8.28421270e-01, -4.52905402e-01,
         1.05849364e-01,  5.18263510e-01,  6.26818259e-01,
         2.60109287e-01, -1.55204666e-01,  9.59443577e-02,
         1.54435676e-01, -2.90979522e-01, -3.01592325e-01,
        -2.33018246e-01, -5.98876675e-02,  6.10032944e-02,
         1.04970178e-01,  3.57040041e-02, -1.11790480e-01,
        -6.80304085e-02, -3.37380622e-03,  4.79820074e-02,
         2.69845365e-01,  1.98925847e-01,  1.73736075e-01,
         3.04252573e-01, -4.88821489e-02,  6.24627066e-02,
        -2.32859477e-01, -8.23306623e-01, -1.11675488e+00,
        -1.20317500e-01,  6.51765700e-01,  1.01273739e+00,
         5.35782010e-01,  1.21450672e-01,  1.24723645e-01,
         1.24775488e-01,  9.90061046e-02, -1.09505658e-01,
        -5.20336849e-01, -4.27717174e-01, -6.25482090e-02,
        -1.60328088e-02,  5.53928663e-03,  2.18216107e-02,
         4.42064087e-02, -1.16184734e-01,  4.30419428e-02,
        -1.26074131e-02,  1.84637147e-01, -2.62363929e-02,
         1.58221979e-01,  2.03586355e-01, -1.14961467e-01,
        -6.99116706e-02, -3.03328427e-01, -1.07204222e+00,
        -5.17958043e-01,  6.41697270e-01,  9.29560107e-01,
         6.50359591e-01,  5.41038945e-01,  5.49179804e-01,
         1.02816460e-01,  4.64564253e-02,  9.85178552e-02,
        -2.95420611e-01, -6.04472478e-01, -4.02124562e-01,
        -6.28250275e-03, -1.59577028e-02,  2.72553656e-02,
        -1.64055219e-02, -4.77283155e-02,  1.52807644e-02,
        -5.57044715e-03,  1.14609067e-01, -4.82045035e-03,
        -9.39316189e-03,  2.60552716e-01,  1.30841155e-01,
        -2.42105339e-01, -2.09844370e-01, -3.92570356e-01,
        -5.41914903e-01,  3.15709727e-01,  7.94098001e-01,
         3.44991262e-01,  3.07433599e-01,  3.41183946e-01,
         3.38045680e-01,  3.88903731e-01,  1.95640889e-01,
         1.64016248e-01, -2.40375684e-01, -2.88844705e-01,
        -2.39220125e-01,  1.08934858e-02, -4.65048916e-03,
        -4.08581686e-02, -2.66571682e-02, -2.04063629e-02,
        -8.38259812e-02, -1.08993632e-01, -1.91053151e-02,
        -2.14061549e-01, -8.14878404e-02, -3.16552501e-01,
        -3.58354122e-01, -5.55214499e-01, -4.40338539e-01,
        -6.29226704e-01, -1.47645365e-01,  4.24674727e-01,
         4.70101302e-01,  7.52385820e-01,  7.65427544e-01,
         5.27798502e-01,  6.94039889e-01,  7.61262550e-01,
         6.24171664e-01,  3.17252344e-01,  3.97280408e-02,
        -1.67289954e-03,  9.36929946e-02,  6.06061583e-02,
         2.53689355e-02,  3.41345015e-02, -2.82667871e-02,
        -1.55106316e-02, -2.59004095e-02, -5.52616685e-02,
        -2.43609480e-01, -2.03162305e-01, -2.47874580e-01,
        -1.75727065e-01, -3.53268524e-01, -3.43921142e-01,
        -3.95546927e-01, -2.20261547e-01,  3.15988128e-01,
         5.01626665e-01,  3.36568052e-01,  5.91088508e-01,
         5.04885405e-01,  3.88231211e-01,  7.07572488e-01,
         7.98634629e-01,  2.67586661e-01, -1.40540986e-01,
        -2.12355104e-01, -1.23041156e-01,  7.70899272e-02,
         3.48902951e-02,  4.75607420e-02, -6.65679592e-02,
         8.67566214e-02,  4.59164420e-02, -1.21184202e-03,
        -6.38434336e-02, -1.76148830e-01, -3.08438739e-01,
        -3.50356592e-01, -3.94221162e-01, -3.07348719e-01,
        -2.96717833e-02,  2.36798524e-01,  7.10132440e-02,
         6.11762714e-01,  3.09899710e-01,  2.30612593e-01,
         3.23809130e-01,  5.84351537e-01,  5.38215315e-01,
         6.18587446e-01,  2.66440004e-01,  5.17823226e-02,
        -4.93517425e-01, -7.28621353e-01, -2.58015273e-01,
         5.37461017e-02,  8.97969008e-02,  5.89323048e-03,
         1.01634118e-01,  8.69312287e-02, -1.67019695e-02,
         1.06890010e-01,  1.31513018e-01, -7.34790456e-02,
        -1.81944824e-01, -3.78835879e-01, -1.60650655e-01,
        -2.20985698e-01, -1.17410553e-01,  2.27094472e-01,
         2.07255976e-01,  4.76952749e-01,  3.76582689e-01,
         3.89588257e-01,  5.78240331e-01,  3.22996358e-01,
         1.80594261e-01,  4.32295921e-01, -2.36243382e-01,
        -4.29201558e-01, -6.90944938e-01, -6.18368452e-01,
        -4.55822019e-01,  3.49578722e-02,  3.01721602e-02,
        -4.09255438e-02, -2.54002070e-02, -5.23352923e-02,
         2.03413967e-03,  1.28481540e-01,  1.97557545e-02,
        -1.15235953e-01, -1.00433100e-01, -2.37920025e-01,
        -1.07960969e-01, -1.62410936e-01, -1.68666629e-01,
         2.62131392e-01,  4.99387172e-01,  4.35231574e-01,
         2.74613189e-03,  5.61526323e-01,  6.60951318e-01,
         2.65691162e-01, -6.47495519e-02, -2.54823595e-01,
        -8.26410388e-01, -5.81699439e-01, -4.38276300e-01,
        -5.00873487e-01, -3.15827201e-01,  9.12695443e-02,
         1.19012171e-01, -4.55396028e-03,  2.85438230e-02,
         1.52504022e-02,  1.59331030e-01,  1.29109498e-01,
         2.94603724e-02, -1.40126415e-02, -1.95489255e-01,
        -5.26862917e-02,  8.00258674e-02, -8.46643943e-02,
        -2.10480379e-01,  4.17603078e-02,  4.25721943e-01,
         7.51944989e-01,  1.14634169e-01,  3.38388131e-01,
         3.89744641e-01, -3.47712793e-01, -5.24642670e-01,
        -6.34725556e-01, -8.58955475e-01, -4.58858413e-01,
        -3.45276576e-01, -2.87290644e-01, -1.42092569e-02,
         1.02981147e-01, -3.86994204e-02,  3.78722398e-02,
        -3.32146754e-02, -2.41376486e-02, -2.47230153e-02,
         4.44181519e-02,  4.37243357e-02,  1.26245818e-01,
        -6.27848073e-02, -1.14642797e-01,  9.49809038e-02,
        -5.54253318e-02, -9.39584578e-02,  4.36869357e-02,
         4.74555700e-01,  5.88649083e-01,  3.76708708e-02,
        -1.11829295e-01, -3.02617325e-01, -6.44040264e-01,
        -4.87964339e-01, -4.41267415e-01, -5.31282316e-01,
        -4.76318478e-01, -2.38039100e-01, -7.99005808e-02,
         1.39958289e-03, -1.97280043e-02,  3.39506983e-02,
        -8.15000141e-02, -3.27160757e-03, -6.35199175e-02,
        -4.18931729e-02,  1.14244450e-01,  4.59565991e-02,
         7.16507083e-02,  3.25930609e-02,  6.91775796e-03,
        -1.70717106e-01, -2.04055698e-01,  1.42093926e-01,
        -2.16770390e-02,  1.43343223e-01, -2.29234891e-01,
        -3.89538875e-01, -4.19134469e-01, -2.53559920e-01,
        -2.26365288e-01, -1.12488135e-01, -3.16764565e-01,
        -1.84491633e-01, -2.25353541e-01,  4.17265530e-02,
         1.61434183e-02, -7.18514788e-02, -7.13703302e-03,
         2.70336325e-02, -2.04424574e-02,  1.43459931e-02,
         1.02163445e-01,  4.31144494e-02,  1.03323260e-01,
         2.10450900e-01,  8.09132614e-04,  3.54263060e-02,
         2.10525854e-01, -3.22435565e-02, -2.31760900e-01,
        -2.28785657e-02, -3.63246710e-01, -4.03391090e-01,
        -3.46574485e-01, -3.09701615e-01, -3.89978637e-01,
        -4.06331796e-01, -1.51850447e-01, -1.88162934e-01,
         2.04273558e-02, -6.63601312e-02,  5.21800440e-02,
         1.83868173e-01,  2.06244276e-01,  4.27638202e-02,
         2.34218933e-02, -2.55421316e-02, -4.21053182e-02,
         4.11024645e-02, -4.23691837e-02,  1.60109962e-02,
         2.04702737e-02,  1.58407583e-01,  1.20766142e-01,
         2.40110979e-01,  1.15673101e-01, -4.12550765e-02,
        -1.46315772e-02,  4.33736533e-02, -1.51309984e-01,
        -2.30452323e-01, -1.60824314e-01, -1.93594702e-01,
        -2.74703710e-01, -1.17307218e-01, -2.30317309e-02,
        -1.44296927e-01, -1.30106740e-01, -1.49829713e-01,
         1.07937558e-01,  2.49728257e-01,  8.50731851e-02,
         9.79156407e-02, -3.95225293e-02,  1.27308985e-01,
         6.39659737e-03,  5.41073058e-03,  3.59293961e-02,
         3.23725826e-02,  4.61391780e-02,  1.32444856e-01,
         1.32768969e-01,  2.51250961e-01,  6.51974935e-02,
         1.54476758e-01, -9.30135020e-02,  2.79313065e-02,
        -1.73100305e-01, -3.43264752e-01, -1.45415508e-01,
        -8.86460503e-02,  3.60814089e-02, -2.95057761e-01,
        -1.76980138e-01, -1.15760586e-01, -3.82418840e-02,
         1.18588563e-01,  7.84449302e-02,  8.59238212e-02,
         1.88804249e-02,  6.09614374e-02,  1.08823339e-01,
        -1.36350291e-02, -7.44181502e-02, -1.21660946e-02,
        -1.35018286e-02, -1.31958545e-01,  9.66914705e-03,
         4.52319522e-02,  1.64301157e-02,  3.19783472e-02,
         6.39590659e-02,  1.57128736e-02, -2.58462091e-01,
        -1.67057537e-01, -2.30428222e-01, -1.70907772e-01,
        -4.20077232e-02, -1.71790466e-01, -3.10216073e-01,
        -3.00483452e-01, -3.62937683e-01, -7.33841384e-03,
         8.88207732e-02, -1.07138872e-02,  8.74310106e-02,
         7.08873219e-02,  2.19427433e-01, -5.93925870e-02,
         6.43967057e-02,  6.07826436e-02, -1.02648112e-01,
        -1.69655640e-02, -1.83890630e-02, -7.19946026e-02,
        -4.24653192e-02, -4.01900739e-03,  1.11125997e-01,
         3.41799688e-02, -4.41500703e-02, -4.07557870e-02,
        -3.36707309e-01, -2.05248726e-01, -1.19697243e-01,
        -2.23585469e-01, -3.26629160e-02,  1.09706465e-01,
        -4.38322955e-02,  8.49996322e-02, -2.97871916e-01,
        -2.12563740e-01, -9.72741404e-02, -1.59634049e-01,
        -1.76965377e-02,  4.56072302e-02,  7.27735544e-02,
         4.81898003e-02, -4.80761952e-02,  4.57277428e-02,
        -9.15401980e-03, -2.58786457e-02,  5.19336954e-02,
        -3.47533409e-02, -7.82032962e-02, -5.15200451e-02,
         8.31592058e-02,  1.35469160e-02,  1.08711056e-01,
         1.56737630e-02,  1.20231783e-01,  8.50078883e-02,
        -8.04194366e-02, -1.59779292e-01,  7.46008268e-03,
         2.28866325e-02, -1.33046189e-01, -1.43576575e-01,
        -1.41988588e-01, -2.10659517e-01, -1.35044163e-01,
         6.02848428e-03, -7.71626271e-02, -8.93952146e-02,
         4.30717413e-02, -7.73769300e-03, -9.14433015e-03,
         8.97613220e-04,  1.72078586e-02, -2.67220861e-02,
        -3.85318256e-02,  9.69578491e-03, -4.84415163e-02,
         2.09564775e-02, -7.01051513e-02,  7.87989242e-02,
         7.75916694e-02,  7.71982064e-02,  1.02519619e-01,
         1.29039674e-01, -4.48207514e-04, -1.44618916e-01,
        -9.61190424e-02,  3.31297334e-02, -3.66706459e-02,
        -4.36397057e-02, -5.89726045e-02, -6.49334126e-02,
        -1.10991294e-01, -1.06294027e-02, -3.54560083e-02,
        -3.26515438e-02, -6.41948521e-02, -4.82526958e-02,
         5.21630245e-02, -4.70022489e-02,  1.30322332e-01,
         2.44228754e-02,  9.15075169e-03, -4.24950424e-02,
         3.46705053e-02, -2.85111157e-02,  5.78305991e-03,
         1.26447259e-01, -4.37535504e-03,  5.75433429e-02,
        -3.51379627e-02, -3.59551546e-03,  8.79924836e-02,
        -2.49347097e-02,  8.72368288e-02,  5.29401614e-02,
        -5.50457886e-03,  4.64072607e-02,  5.13840353e-02,
         2.21948692e-02, -8.84428248e-02, -3.94466747e-02,
        -3.44534931e-03,  4.37878487e-03,  3.18405118e-02,
         8.79751047e-03, -6.61093968e-02,  1.88225984e-02,
         3.02284988e-02],
       [ 2.77137568e-02,  5.35066190e-02,  4.12852986e-02,
         2.27328014e-02, -3.47372034e-03, -8.22298194e-02,
         2.12692712e-02,  1.02820727e-02,  1.34451559e-02,
        -6.32084733e-02, -5.35202739e-02,  5.21388355e-02,
        -1.92169603e-03,  3.40252380e-02,  1.63102618e-03,
         1.48269249e-03,  4.64519703e-02, -2.55480210e-02,
         4.75868756e-03, -2.28860371e-02, -2.15107686e-02,
        -1.53063009e-02,  1.09972604e-02, -2.37015886e-02,
         6.21691921e-02, -4.42896611e-02, -9.25152497e-03,
        -2.17699313e-02,  7.16360798e-02,  9.73091145e-03,
         5.10839168e-02, -7.35461977e-02,  1.32210571e-02,
         4.40440988e-02,  4.40553630e-03,  5.38728446e-02,
        -2.27646973e-02,  7.07829636e-02,  1.15344092e-01,
        -1.57798969e-02, -1.97729607e-02,  7.66786662e-02,
         7.64698731e-02, -3.23799005e-02, -1.68544594e-02,
        -1.03752515e-02, -6.56304402e-02, -4.34390809e-02,
        -4.83388542e-02, -3.76610691e-02, -1.12629252e-03,
         1.22795370e-02,  7.67612127e-02, -4.94258900e-02,
         4.87312202e-02, -1.05940264e-02, -2.44881853e-03,
         3.34085431e-02, -5.55695993e-02,  1.89254517e-02,
         8.18281421e-03,  2.44434511e-02,  1.42957677e-02,
         1.21040868e-01, -3.99720983e-02, -3.88429001e-02,
        -2.42277081e-02, -3.19905935e-02, -4.21627654e-02,
         9.31429621e-02,  1.26825249e-01,  7.19369240e-03,
         4.38397742e-03,  9.09372510e-02,  4.85944424e-02,
         5.57291090e-02,  3.02824389e-02, -6.66413794e-02,
         8.08065813e-02,  9.12600301e-02, -2.94563230e-02,
        -1.89091410e-02,  1.41524457e-02,  1.65580784e-02,
         3.26027997e-02,  9.95199542e-02, -8.74050178e-03,
        -3.94541198e-02, -6.95598274e-02, -4.61209819e-02,
        -2.87211222e-02,  5.60631843e-02, -4.83082327e-02,
        -4.56284603e-02, -7.25778848e-02, -2.78735304e-02,
         1.63975523e-01,  8.80496016e-02,  1.20625853e-01,
         2.10303734e-01,  2.29578551e-01,  2.64021930e-01,
         2.12493388e-01,  1.71969456e-02,  3.43714464e-02,
         4.63197110e-02,  7.22700806e-02,  8.34908687e-02,
         8.57024151e-02,  5.94575330e-02,  6.85902286e-02,
         3.21159251e-02, -8.27357783e-03,  7.31956558e-03,
         5.98437727e-02, -3.90877055e-02,  1.78764256e-02,
        -4.30592853e-02, -1.54684584e-02,  3.64179365e-03,
        -1.73833796e-02, -1.16246747e-01, -2.34718525e-01,
         8.98967521e-03, -3.22321235e-02,  3.34680189e-02,
         2.52232626e-01,  3.72255835e-01,  2.11230329e-01,
         2.30982549e-01,  1.33451634e-01, -1.48874883e-01,
        -1.23056557e-01, -6.55692039e-02, -1.31307312e-01,
         1.13753079e-02,  1.23285374e-01,  9.54907808e-03,
         3.58011735e-02, -2.79001330e-02,  5.91636242e-02,
        -7.54089886e-02, -2.72457268e-02,  1.75791152e-02,
         6.37678100e-02,  2.75788954e-03, -9.20505490e-02,
        -2.74754237e-03, -1.08789380e-01, -2.41234537e-01,
        -6.27975620e-03,  1.75167220e-01,  1.42579927e-01,
         5.34717031e-01,  3.09021656e-01,  2.79212043e-01,
        -1.61010634e-01, -4.82122863e-02,  1.61249854e-01,
        -1.62931109e-02,  7.39538972e-02, -1.20484269e-01,
        -1.68022842e-01, -9.27895469e-02,  1.09102163e-01,
         1.80512493e-01,  3.51594203e-02,  1.87111993e-02,
        -6.19604343e-02,  7.14453600e-02, -4.82610717e-03,
         9.21635331e-02, -8.24546688e-03, -1.02807782e-01,
        -1.28133250e-01, -1.37100091e-01, -4.92441217e-02,
        -1.61344398e-02,  3.39159125e-01,  5.14580110e-01,
         4.46954869e-01,  6.62301617e-01,  4.34825766e-01,
         3.76648038e-01,  3.64785334e-01,  4.04432895e-01,
         6.77246072e-01,  3.31220455e-01,  2.87541364e-01,
         1.56434842e-01, -2.13832628e-01, -2.36564055e-01,
         8.19742912e-02, -1.17826873e-02, -5.56840680e-02,
         4.21877114e-02,  3.89343908e-02,  1.75027836e-02,
        -4.88639531e-02,  4.29322439e-02,  4.37150395e-03,
        -8.93930481e-02,  1.84790038e-01,  8.76723261e-02,
         3.71876085e-02,  2.49380087e-01,  3.55080180e-01,
         2.78055124e-01,  5.70357694e-01,  4.47983261e-01,
         2.47380943e-01,  3.63318212e-01,  8.08893944e-01,
         3.68398384e-01,  7.74191443e-01,  5.08918686e-01,
         4.41949926e-01,  3.92524752e-01, -6.14110268e-02,
        -4.63425608e-02, -2.98962059e-02, -1.12771432e-01,
        -7.48995400e-03,  3.42646619e-02,  4.61394198e-02,
        -2.58629170e-02,  5.69880543e-02,  5.82556958e-02,
         2.51066307e-01, -4.19250694e-02,  3.49481381e-01,
         3.42613651e-01,  4.97604683e-01,  2.99157612e-01,
         3.13780821e-01,  5.06367741e-01,  3.50760226e-01,
         4.00455950e-01,  7.28419848e-01,  6.95018877e-01,
         7.80692855e-01,  4.15518102e-01,  4.65300283e-01,
         1.62934106e-01, -6.72482688e-02,  9.30432319e-02,
         1.27898455e-01, -5.29637476e-02, -1.84980805e-02,
        -1.80508921e-01, -2.10146872e-02,  1.07335333e-01,
        -6.06133448e-02, -7.19641313e-02,  7.43236215e-03,
         1.68726731e-01,  2.23758181e-01,  1.26691988e-01,
         6.16987667e-01,  4.79935141e-01,  4.47945929e-01,
         6.01700466e-01,  7.91456732e-01,  5.15843581e-01,
         5.16616439e-01,  7.88210368e-01,  1.16832729e+00,
         8.51673457e-01,  9.54224112e-02,  2.43207289e-01,
         5.06451940e-02, -2.57304822e-01, -1.64546275e-01,
        -1.00709897e-01, -1.14449383e-02,  2.47893233e-03,
         3.09341031e-02, -1.48613239e-01,  1.12160044e-01,
        -8.69663348e-02, -1.78852327e-02, -5.23256149e-02,
        -6.15621958e-02,  1.99541510e-01,  1.44453400e-01,
         3.92750382e-01,  8.32937177e-01,  5.17347491e-01,
         5.00352029e-01,  2.87940338e-01,  6.10446926e-01,
         5.59635725e-01,  6.13404241e-01,  1.08045871e+00,
         1.34085971e+00, -1.29197549e-01, -3.09969999e-01,
        -3.03393006e-01, -1.79580681e-01, -1.63498035e-01,
        -1.15251948e-01, -7.14230086e-02, -7.90825231e-02,
         1.91051682e-01,  3.18470971e-02,  3.80267188e-02,
         3.32114517e-02,  1.04170747e-02,  3.60293337e-02,
         8.40576108e-03,  6.12182832e-02,  1.04425482e-01,
         2.83720438e-01,  2.91403892e-01,  6.91742992e-01,
         4.98093309e-01,  4.33294705e-01, -9.21727175e-02,
         2.49017788e-01,  4.15612389e-01,  1.03372739e-01,
         6.45061728e-01,  4.85623103e-01, -5.97437260e-01,
        -4.44230834e-01,  1.69615086e-01,  3.29474435e-01,
         4.07649438e-02,  2.49230851e-01,  1.61146203e-01,
         1.77819762e-01,  2.40448067e-01,  4.50176992e-01,
         1.46989215e-01,  8.33335082e-02,  6.60599563e-02,
         5.47316661e-02,  7.45331226e-02,  6.25120435e-02,
         9.15606789e-03,  4.68232247e-01,  3.11514160e-01,
         1.46859994e-01, -1.17773057e-01, -1.83404491e-01,
        -1.73785708e-01, -4.20102841e-01, -6.23152852e-01,
        -7.58439429e-01, -6.15665924e-01, -4.27905524e-01,
        -3.90389369e-01, -1.73101612e-01,  2.68415116e-01,
         4.23055565e-01,  3.67219642e-01,  1.97062369e-01,
         1.73517534e-01, -6.70182581e-03,  1.73189037e-01,
         9.22244576e-02,  4.39901616e-02,  5.06253094e-03,
        -6.34422665e-02,  7.89233695e-02, -2.84594389e-02,
        -2.69016703e-02, -5.54677972e-02,  1.39197671e-01,
        -1.12477377e-01, -3.94045109e-01, -2.77332995e-01,
        -4.75955592e-01, -3.86203531e-01, -6.61889071e-01,
        -9.07665452e-01, -1.19587274e+00, -3.11533592e-01,
         1.15606544e-01, -2.56944268e-01, -1.16475718e-02,
        -2.09733243e-02, -3.29722109e-02, -1.61888194e-03,
        -1.31731990e-01, -2.51611703e-01, -2.04792467e-01,
        -2.99239837e-01, -1.73315541e-01,  8.26733158e-04,
        -8.10364320e-03, -1.98005479e-02, -8.39176086e-02,
         1.83543541e-03, -3.57670606e-02, -7.85681759e-02,
        -1.19660375e-01, -4.69918934e-01, -4.23767187e-01,
        -4.52162899e-01, -4.40668991e-01, -6.75874220e-01,
        -6.15669407e-01, -7.23249592e-01, -7.15759616e-01,
        -1.91369697e-02,  2.60591000e-01, -5.58921067e-02,
        -3.19408544e-01, -5.03360654e-01, -1.94342348e-01,
        -3.17090039e-01, -2.48425270e-01, -5.57428497e-02,
        -3.92456604e-01, -3.12109646e-01, -2.05325548e-01,
        -2.66347557e-02,  8.67951003e-03,  2.68889305e-02,
         2.38735593e-03,  1.88549245e-03, -5.54879381e-02,
        -1.83045892e-01, -2.46192568e-01, -3.53423902e-01,
        -4.57990000e-01, -5.28539154e-01, -5.18255480e-01,
        -8.07751128e-01, -2.86865182e-01, -7.72097731e-02,
        -2.81516619e-01, -1.31589654e-02, -3.39773417e-01,
        -1.24563239e-01, -4.94123102e-01, -3.20274501e-01,
        -1.48743108e-01, -4.87160205e-01, -8.64958349e-02,
        -3.34548362e-01, -5.70115413e-01, -4.30298969e-01,
        -5.04580681e-02,  7.50007333e-02, -3.86647608e-02,
        -6.95029099e-02, -4.35692376e-03,  1.23400080e-01,
        -4.06241244e-02, -2.24170328e-02,  1.37008050e-02,
        -3.74182217e-01, -4.52541068e-01, -4.36875756e-01,
        -2.37077149e-01, -2.83409370e-01,  1.07714721e-01,
         1.85447937e-03,  7.18008346e-02,  5.04870493e-02,
        -6.09442478e-01, -6.27979752e-01, -3.44370759e-01,
        -3.79531423e-01, -5.26357596e-01, -4.31850302e-01,
        -5.44434795e-01, -4.59185486e-01, -2.54289045e-01,
        -3.52205364e-01, -2.22818190e-03, -4.30130830e-02,
        -3.74692316e-02, -4.99679758e-03,  2.76413010e-02,
         3.55701606e-03,  3.01214956e-03, -1.30758809e-01,
        -2.49806464e-01, -3.51143908e-01, -3.69664165e-01,
        -2.21538715e-01, -1.46625395e-01, -2.02084707e-01,
         1.07520741e-01, -1.11527989e-02,  3.07187228e-01,
         2.72179917e-02, -4.66119687e-01, -5.39463377e-01,
        -1.83508497e-01, -2.40092774e-01, -3.67075987e-01,
        -1.64717896e-01, -1.77108515e-01, -3.57046145e-01,
        -1.34226251e-01, -1.36066246e-01, -7.64904194e-02,
        -7.80217142e-02, -8.16924900e-02,  2.45740205e-02,
        -5.38441107e-02, -1.06566304e-01,  3.59913971e-03,
        -8.96190959e-03, -2.70231838e-01, -1.27907206e-01,
        -4.30172644e-02, -2.12725042e-01, -1.46555932e-01,
        -2.33290932e-01,  7.14366351e-02,  7.76763996e-02,
        -2.43780594e-01, -5.25372607e-02, -5.46533403e-01,
        -4.75117968e-01, -4.02690592e-01, -1.24175091e-01,
        -8.97946085e-02,  1.60620960e-02, -5.46137568e-02,
        -7.57883191e-02,  1.04445533e-01,  2.01119513e-02,
         3.41765832e-02,  7.47877369e-02, -1.21559696e-03,
        -6.71879230e-02, -5.27342918e-02, -1.29632165e-02,
        -4.13463848e-02, -1.39744198e-01, -1.74224719e-01,
        -2.11481827e-02,  1.05125961e-01,  6.19620182e-02,
         7.24639797e-02, -2.75885764e-01, -9.84728938e-02,
        -1.46333064e-01,  8.20557680e-02, -2.93032402e-01,
        -3.42426349e-01, -3.68993635e-01, -2.03198381e-01,
         3.30523472e-02,  6.35067582e-02,  4.57457217e-01,
         2.18159247e-01,  1.95039195e-01,  4.30821461e-01,
         3.17244993e-01,  2.02602468e-01,  1.04248415e-01,
         8.44093776e-03,  5.87143363e-02,  4.70099347e-02,
        -7.39971423e-02, -1.35887600e-01, -2.25577776e-02,
        -1.03007958e-01,  1.54828862e-01,  1.25118608e-01,
         1.29131237e-01,  1.76867936e-01, -1.09930293e-02,
        -1.02816404e-01, -2.24727619e-01,  1.96699097e-01,
         2.01172526e-01,  6.91300289e-02,  2.33547680e-01,
        -1.93203311e-02,  2.20847346e-01,  8.38651985e-02,
         4.78326376e-01,  3.22691587e-01,  2.94462539e-01,
         5.08130951e-01,  3.83442140e-01,  2.81605263e-01,
         1.00383924e-01, -1.16893375e-02,  8.47548665e-02,
        -6.79303683e-02, -7.98685278e-02,  6.57083900e-02,
        -5.54636208e-02, -2.25078125e-02,  1.98431527e-01,
         1.45260589e-01,  2.99519982e-01,  1.85375500e-01,
         2.36945392e-01,  2.56848523e-01,  4.47414890e-02,
         3.83366509e-01,  3.59664426e-01,  6.67738280e-01,
         3.55752600e-01,  2.31344817e-01,  2.02206388e-01,
         2.37110530e-01,  2.55367381e-01,  2.53976318e-01,
         2.84474021e-01,  2.63340512e-01,  2.76607810e-01,
         1.92840078e-01,  2.63439264e-02,  5.66934666e-02,
        -3.25211044e-02, -5.18406097e-02,  2.65647301e-02,
         5.93876420e-02,  1.95361828e-02,  3.61363192e-02,
        -6.17673691e-02, -3.28931189e-02,  1.74865670e-01,
         4.34998690e-01,  4.35170546e-01,  1.93049472e-01,
         2.44674808e-01,  3.54272628e-01,  3.62522721e-01,
         6.47814004e-01,  1.79719974e-01,  3.85644409e-01,
         3.73556299e-01,  2.13988741e-01,  1.90036417e-02,
        -5.13157394e-02,  1.14445193e-01,  1.48793324e-01,
         2.69143507e-01,  8.74128000e-02, -9.36806064e-02,
         9.83419889e-02, -5.46169371e-02, -1.09536866e-02,
        -1.37043004e-02,  1.01808265e-02,  4.11338158e-02,
         2.20846957e-02, -9.76077325e-02, -1.31012662e-01,
         1.16165042e-02,  3.58762203e-01,  1.71744173e-01,
         1.26163318e-01,  1.78944015e-01,  3.39464775e-01,
         3.59146055e-01,  4.15869035e-01,  4.17425690e-01,
         4.59111131e-01,  3.02356326e-01,  1.64259749e-01,
         1.49291407e-01, -5.59301527e-02,  3.95576698e-02,
         2.48138313e-01,  2.62903903e-01,  1.30301076e-01,
         1.17809872e-01,  2.45087220e-02, -8.71707460e-02,
         3.72959678e-02,  1.88701519e-02,  6.35009924e-02,
         3.45925126e-02, -2.16940425e-04, -1.02030273e-01,
        -2.16254787e-04,  1.06780755e-01,  3.52344305e-01,
         1.86340177e-01,  9.26114796e-02,  1.06580704e-01,
         2.35485222e-01,  8.59617593e-02,  3.04293416e-01,
         3.86269023e-01,  2.73626570e-01,  3.94294598e-01,
         3.36190844e-01,  2.69254933e-01,  2.95089585e-01,
         2.51213706e-01,  5.78785152e-02,  5.38374299e-02,
         7.46904193e-02, -2.91746879e-02,  8.44002513e-02,
        -1.97849394e-02,  1.11235515e-02,  4.61701260e-02,
        -7.01915883e-02, -8.72770016e-02, -4.54660746e-02,
         1.66538381e-01,  1.42270402e-01,  4.40009848e-01,
         5.04330799e-01,  4.98252145e-01,  4.45694590e-01,
         4.58879397e-01,  5.15989475e-01,  5.32016412e-01,
         5.47821956e-01,  3.62057449e-01,  6.50208569e-01,
         6.76981761e-01,  7.03929732e-01,  6.28335548e-01,
         4.64095921e-01,  3.08940374e-01,  1.84297525e-01,
         8.04375842e-02,  1.90667364e-02,  7.21305875e-02,
        -5.76851803e-02, -9.58757189e-03, -3.54879930e-02,
        -9.24073323e-02, -4.09330390e-03, -5.94043790e-03,
         1.02872177e-01,  7.28322620e-02,  6.88377090e-02,
         2.76379257e-01,  3.43883447e-01,  3.89548558e-01,
         5.27537017e-01,  4.41226625e-01,  5.31039405e-01,
         6.08774855e-01,  8.03123244e-01,  6.48199562e-01,
         4.53697709e-01,  4.14156854e-01,  5.57600309e-01,
         2.27916150e-01,  2.42556100e-01,  2.07371830e-01,
         5.40332225e-02, -6.42748400e-02,  2.79152260e-02,
        -2.63726264e-02, -5.79195140e-02, -1.42198169e-01,
        -1.36219078e-03,  8.77395282e-02,  8.22445865e-02,
        -2.26296368e-02, -2.98735113e-02,  2.28784899e-02,
        -4.81909079e-02,  2.55890225e-02,  5.81571128e-02,
         8.19484983e-02,  3.88796653e-02,  2.43282947e-02,
         1.78673119e-02, -1.86127852e-03,  7.37631603e-02,
         4.93402368e-02,  7.09053984e-02, -8.78414275e-03,
         1.34893143e-01,  5.39415701e-02,  8.35066605e-03,
         1.00569807e-02, -8.68299886e-02,  4.46119465e-02,
         3.64792087e-02, -1.39277895e-02,  3.31653470e-03,
         2.55427974e-02],
       [-7.73575470e-02, -2.61920104e-02,  3.93219611e-02,
        -6.20965795e-02,  1.45332833e-02, -6.71608070e-02,
         2.30917251e-02, -1.76451631e-03, -7.99609400e-02,
         5.76631905e-02, -3.63677022e-02, -4.01134730e-02,
         9.93140489e-03,  5.68810282e-02, -5.02782395e-02,
         3.05412569e-03,  2.12295802e-02,  3.43138407e-02,
         8.73515862e-03, -1.81705857e-02, -4.09718212e-02,
         4.26475771e-03, -5.30787904e-02, -1.44628400e-01,
         2.16129309e-02,  4.47514431e-02, -1.16982587e-01,
        -4.99891188e-02,  3.06527035e-02,  1.01861204e-01,
         1.02944193e-03, -3.60415162e-02, -9.05471946e-03,
         6.80665856e-02, -3.18821998e-02, -3.93642783e-02,
        -2.40743984e-02, -4.73887001e-02,  7.09480323e-03,
         7.37190622e-02, -4.07233340e-04, -1.82643393e-02,
         1.86303048e-02, -1.24206613e-02,  5.99793241e-02,
         2.00817338e-03, -4.90372799e-03,  1.62602667e-01,
         1.65812705e-02, -3.67918340e-02, -2.10579271e-02,
         5.68754124e-02,  5.60772093e-03, -7.12053703e-02,
         4.55086136e-02, -3.30780612e-02,  9.27420595e-02,
         5.34703469e-02, -2.21457309e-02,  6.38783144e-02,
         4.10833950e-03,  4.22294626e-02,  2.39808145e-02,
        -4.21297986e-02, -3.30684149e-02,  4.98320877e-02,
        -2.37212212e-02, -6.45596101e-02, -9.54374796e-02,
         1.02932982e-02,  1.43667037e-01,  4.73867075e-03,
         2.36781039e-02,  7.34675232e-02,  6.14923007e-02,
         1.03656184e-01,  2.11659406e-02,  6.92145235e-02,
         8.41253300e-04,  5.21274992e-02,  6.09688018e-02,
         1.28111792e-01,  2.86961181e-02,  1.61293211e-02,
         9.62345693e-03, -1.74843369e-02,  1.75996937e-02,
        -1.28929514e-02,  1.12314324e-02,  6.41025405e-02,
        -5.26262817e-02,  5.03797204e-02,  4.76419268e-02,
        -6.50940089e-02, -1.84438569e-01, -2.12166461e-01,
        -1.07493083e-01, -2.89703663e-01, -3.36471588e-01,
        -1.39149612e-01, -5.29952577e-02, -1.21657285e-02,
         7.56468258e-02,  8.95951172e-02,  9.45757742e-02,
         3.59896721e-02,  6.38503062e-02, -1.91367417e-01,
        -9.32308783e-02,  1.00173850e-01,  5.23931649e-02,
        -2.13683896e-02,  1.99876178e-02, -1.19740251e-03,
        -4.18197155e-02,  1.91971534e-02, -4.89581041e-02,
         5.57174741e-02, -4.64126528e-02, -5.17184767e-02,
        -9.40898226e-02, -1.91247939e-01, -2.68529227e-01,
        -4.13165311e-01, -4.36357618e-01, -5.67237423e-01,
        -3.96927153e-01,  1.15675491e-02, -1.15940454e-01,
        -3.63366480e-02,  1.24913600e-01,  1.32191360e-01,
         8.38772057e-02,  3.87488522e-02, -1.33321835e-01,
        -7.06791488e-02, -2.50029189e-02,  1.77064803e-02,
         2.04917676e-02,  8.37914241e-02, -6.56634890e-03,
        -4.82463898e-02,  5.54441714e-02, -1.37429835e-03,
        -1.00509986e-01,  3.36647944e-02, -1.30629398e-01,
        -1.36920743e-01, -2.21664290e-01, -2.72381627e-01,
        -4.12788107e-01, -6.70574241e-01, -6.43854559e-01,
        -4.71308409e-01, -3.62111909e-01, -5.38508900e-01,
        -6.03460651e-01, -6.50291517e-01, -6.65421412e-01,
        -2.60097445e-01, -4.21765729e-03,  1.41996639e-02,
         4.40272898e-02, -5.25417522e-02, -2.05753385e-02,
         2.65917911e-02,  4.18443580e-02, -8.90337122e-02,
        -5.21650529e-02, -5.29049940e-02,  3.20994800e-02,
         9.07347875e-02,  6.31371276e-03, -5.51776803e-02,
        -5.67574148e-02,  6.06057866e-03, -8.20216885e-02,
        -8.22533096e-02,  9.48487378e-02,  1.75903896e-02,
        -1.27053361e-01,  2.99667250e-03, -7.70898887e-02,
        -5.33269220e-03, -9.71676244e-02, -2.28307068e-01,
        -1.42442537e-01,  4.92514792e-02, -6.21211590e-03,
        -6.13973046e-02, -1.59705584e-02,  8.75223195e-03,
         2.08716972e-01,  5.87227892e-02,  3.85920334e-02,
        -7.75569490e-02, -1.20131712e-02, -3.76933543e-02,
         8.23072585e-02,  1.83167056e-02,  4.38542802e-02,
         7.92193359e-02,  4.65407666e-02,  1.23361184e-01,
        -1.21850449e-01,  1.08240105e-01,  1.89898282e-01,
         1.41440466e-01,  3.57854404e-01,  8.50076711e-02,
        -6.66176907e-02,  3.68502212e-02,  6.18692959e-02,
         2.47788082e-01,  4.80171776e-02,  1.55184350e-01,
         3.65762891e-01,  2.11735552e-01,  1.69414079e-01,
         1.00626308e-01,  7.59689467e-02,  5.58528005e-02,
         7.48937890e-03,  1.31603582e-02, -7.51904103e-03,
         4.51368914e-02, -2.69871081e-03, -1.43352372e-02,
         1.20850205e-01,  4.79975100e-02,  1.16715622e-01,
         2.49532097e-01,  2.80681543e-01,  1.08241628e-01,
        -1.14529324e-01,  2.29682244e-02, -6.38024744e-02,
        -6.60269451e-02,  5.68466053e-02,  2.86382044e-01,
         4.18105499e-01,  3.92509230e-01,  5.39714093e-01,
         4.19883342e-01,  5.49058312e-01,  4.29958456e-01,
         2.73369439e-01,  3.10989525e-01,  2.41397088e-01,
         1.88450915e-01,  9.41399832e-02, -3.90683120e-02,
        -6.25528054e-03,  2.14429465e-02, -1.80867370e-03,
         1.85750448e-02,  1.88455435e-01,  1.37216709e-01,
         2.61609906e-02,  1.83610274e-02, -1.13383795e-01,
        -7.44600617e-02, -1.22837454e-01,  3.77019313e-02,
         2.61100044e-01,  1.94224392e-01,  1.78512303e-01,
         2.98181343e-01,  4.91442284e-01,  6.64160119e-01,
         6.05455255e-01,  5.80821471e-01,  2.76582233e-01,
         2.99066124e-01,  1.62199691e-01,  2.00379393e-01,
         5.00752102e-01,  4.54675659e-01,  1.91261087e-01,
        -4.81857861e-02,  4.81924718e-02,  2.82129257e-02,
         4.67531660e-02,  1.89271340e-01,  1.51040798e-01,
         3.57048377e-02, -4.79483282e-02, -1.49357531e-01,
        -1.95649810e-01, -2.84089390e-01,  3.98071741e-02,
        -8.69001704e-05,  5.11965221e-02,  5.47260217e-01,
         3.28026464e-01,  2.08090090e-01,  5.16057526e-01,
         1.30142917e-01,  2.84403460e-01,  4.41066302e-01,
         2.56629286e-01,  3.81313061e-01,  3.55208921e-01,
         4.99595799e-01,  6.68054635e-01,  5.76209373e-01,
         2.02229989e-01,  5.90165733e-02, -2.78087624e-02,
        -4.64440242e-03,  9.39632614e-03,  1.43151852e-01,
         3.21842554e-01, -5.07770948e-02, -1.63096691e-01,
        -6.36416670e-03, -2.12545173e-01, -2.41547412e-01,
        -2.34980748e-01, -1.31143061e-01, -1.43875945e-01,
         5.46187736e-01,  1.64476016e-01,  5.15733788e-02,
        -3.06437289e-01, -4.67064461e-01, -2.91908527e-01,
        -3.07791174e-01, -2.77824551e-01,  4.91817718e-03,
         1.06938790e-02,  2.78727012e-01,  3.67739624e-01,
         3.42063606e-01,  1.37596734e-01,  1.94752804e-02,
        -5.28184248e-03,  3.53152694e-02, -3.44455104e-02,
         6.67676201e-02,  1.33417280e-01, -4.62088779e-02,
         5.44783569e-02,  2.81133094e-01,  1.36826263e-01,
         7.67228923e-02, -2.72135452e-01, -5.02749787e-01,
        -4.10636067e-01,  4.71766834e-03, -5.57939069e-03,
        -4.24052665e-02, -8.80001984e-01, -8.31995178e-01,
        -1.10274010e+00, -1.01171533e+00, -8.30529800e-01,
        -9.65362739e-01, -9.13148313e-01, -4.89161850e-01,
        -2.59490250e-01,  1.33562604e-01, -3.02284999e-02,
         2.59020048e-02, -2.30367886e-02,  9.04303782e-04,
         1.96806411e-01, -7.58243802e-02,  6.29070437e-02,
         7.01724678e-02, -5.53137576e-02, -5.51620839e-02,
        -1.32486853e-01, -3.70777160e-02, -2.22145729e-01,
        -3.98500639e-01, -3.93538299e-01, -2.88101978e-01,
        -2.21805364e-03, -3.37804902e-01, -2.52563103e-01,
        -4.27970163e-01, -5.05860589e-01, -4.48061730e-01,
        -6.46710159e-01, -8.64447286e-01, -7.88707232e-01,
        -4.96684322e-01, -4.12148121e-01,  1.08090877e-01,
         4.99439968e-02, -3.49172141e-03, -2.25203106e-03,
         1.74128230e-02,  5.41489261e-02, -2.86817182e-03,
        -6.75692448e-02,  5.35988582e-03, -3.45828970e-02,
        -1.08424350e-01, -1.78845576e-01,  3.91602535e-02,
         1.53257704e-01, -4.11961517e-01, -4.08261638e-01,
        -2.82884911e-01,  7.51039069e-02,  4.57462993e-03,
         1.42507221e-01,  9.99134625e-02,  3.85388617e-01,
         2.26239948e-01, -3.49247288e-01, -6.51596657e-01,
        -5.63034719e-01, -3.88651283e-01, -2.34876261e-01,
        -1.71717274e-02,  2.06276813e-02,  2.56073063e-02,
        -3.16126228e-02,  2.11440264e-02,  3.84800372e-02,
        -4.19766145e-02, -9.00825501e-02, -5.97643700e-02,
         6.64034144e-02,  1.59105427e-02, -1.35969576e-01,
        -3.36550923e-02, -2.36283482e-03, -2.44785121e-01,
        -2.27187259e-01, -3.23193527e-01, -2.54530532e-02,
         1.95300934e-01,  3.79876610e-02,  2.80162728e-01,
         4.41312713e-01,  3.36762551e-02, -2.06026079e-01,
        -2.38339158e-01, -4.58565104e-01, -3.93798050e-01,
        -2.64936541e-01, -1.59565738e-01,  1.53974176e-02,
        -1.69923720e-02, -1.31355131e-02, -1.03237727e-01,
         2.09650121e-02, -1.93011079e-01, -1.63191136e-01,
        -1.32284990e-01, -5.70111253e-02, -1.92339066e-01,
        -5.41855420e-02,  2.00604192e-04, -1.07627288e-02,
        -1.94619193e-01, -2.66836908e-01, -1.05945503e-01,
         1.88801508e-01, -8.47650508e-03,  3.81653759e-01,
         1.54192667e-01, -1.01596429e-01,  3.62543116e-02,
        -6.87113391e-02, -2.42427401e-01, -3.19143388e-01,
        -4.53281962e-01, -2.92134905e-01, -1.92981093e-01,
        -8.08550455e-02,  1.34438440e-03, -4.07158538e-02,
         5.54322138e-02, -1.35496021e-02, -1.32574009e-01,
        -2.55923510e-01, -1.48272516e-01, -1.55162154e-02,
        -2.74583589e-02, -1.12529930e-01, -1.10290185e-01,
        -4.64401485e-02,  4.11509512e-02, -1.24105566e-01,
        -1.27709652e-01,  9.44319747e-02,  2.22951385e-01,
         3.48820978e-01,  6.41987976e-02, -5.97186142e-02,
        -3.30982078e-02,  1.44715522e-03, -3.23185057e-01,
        -3.77799737e-01, -2.82422483e-01, -1.06338202e-01,
        -3.57684839e-02,  3.86885004e-02,  5.64576693e-02,
         1.02372280e-02,  9.80123782e-03, -1.80684623e-02,
        -1.99711613e-01, -2.82583121e-01, -2.43374767e-01,
        -1.71381970e-01, -6.37659101e-02, -9.50361270e-02,
         5.86362592e-02,  1.31391245e-02,  2.42272027e-01,
         2.73217212e-01, -4.56398955e-02, -1.12211206e-01,
        -1.14890591e-01, -1.20568553e-01,  2.30763959e-01,
         1.16744089e-01,  1.43316680e-01, -3.03365781e-02,
        -4.99264468e-01, -4.77862885e-01, -5.04761835e-01,
        -3.47541081e-01, -1.74981326e-01, -7.46553902e-02,
         4.19730463e-02,  1.86445198e-02, -4.29436167e-02,
        -3.00082468e-02, -1.85227937e-01, -3.88671702e-01,
        -2.46190027e-01, -3.32008840e-01, -1.25243184e-01,
        -8.48393989e-02, -2.26818594e-02, -1.17646420e-01,
        -1.11219515e-01,  2.40113197e-02, -1.08971950e-01,
        -1.39851745e-01, -1.30368380e-01, -1.96566269e-01,
        -1.02611330e-01, -2.04792108e-02,  7.84996049e-02,
        -5.82581805e-02, -4.10585408e-01, -4.04073234e-01,
        -3.28345007e-01, -1.76142001e-01, -3.84622721e-02,
        -8.16331618e-02,  5.63912242e-02,  3.54166526e-02,
         2.46927618e-02,  4.06317865e-04, -2.89619909e-01,
        -4.61529667e-01, -3.30817005e-01, -3.75192160e-01,
        -5.07510594e-01, -2.36106962e-01, -1.91553393e-01,
        -1.98678731e-01, -1.46802394e-01,  4.01224623e-02,
        -6.80470669e-02, -2.52173174e-02, -1.48667490e-01,
        -2.49204154e-01, -8.18888076e-03, -4.02935776e-01,
        -2.68621098e-01, -3.09937641e-01, -4.98701673e-01,
        -3.47385516e-01, -1.71682749e-01, -7.74742034e-02,
        -2.07226403e-02, -6.93294858e-02, -3.04434624e-02,
        -1.85957584e-02, -1.57901830e-02,  4.94349352e-02,
        -1.77960544e-01, -4.74801227e-01, -4.46953482e-01,
        -4.26325839e-01, -1.05298168e-01,  7.79480830e-02,
        -6.85003065e-02, -4.27405791e-02,  8.18672269e-02,
         4.92751577e-02, -9.82441201e-03,  2.18094069e-01,
        -1.04733494e-01, -2.47311600e-01, -1.46324313e-01,
        -5.24142948e-01, -2.83390949e-01, -2.43292092e-01,
        -2.40844088e-01, -1.98391152e-01, -2.04389484e-01,
        -6.07188026e-02, -3.91487866e-02, -2.28931317e-02,
         6.79661273e-02, -1.09523602e-01,  7.59063303e-02,
        -9.33335807e-02, -1.45080602e-01, -2.79871238e-01,
        -1.64872252e-01, -3.74305461e-01, -1.47204897e-01,
        -1.34967650e-01, -1.27522722e-01,  1.09386544e-02,
        -1.76943266e-01,  1.73561937e-01,  4.55669028e-02,
         1.43320424e-01, -2.19259005e-02,  3.09558344e-02,
        -1.28014620e-01, -3.31039565e-01, -2.62450459e-01,
        -2.20107271e-01, -1.93793073e-01, -1.40858739e-01,
        -1.42384654e-01, -2.51446791e-02, -1.15021548e-02,
        -6.03890967e-02,  2.99279683e-02,  4.36819957e-02,
        -2.23818066e-02, -4.90570303e-02, -6.31192418e-02,
        -8.08045553e-02,  7.73992781e-02,  1.63915329e-01,
        -3.98538890e-02, -3.12877160e-01,  1.73267288e-02,
         2.64082185e-01, -1.97875608e-01, -1.01722431e-01,
        -1.40600591e-01, -7.85697307e-03, -1.62261503e-01,
        -3.25363243e-01, -3.23448655e-01, -3.14998281e-01,
        -1.40118869e-01, -2.16031717e-01, -1.28716883e-01,
        -2.28854168e-01, -1.02716261e-01, -3.80142466e-02,
        -5.88069017e-02, -1.37883860e-02,  3.39778267e-02,
         5.24255663e-03,  2.89327538e-02,  6.88850080e-02,
        -1.09073524e-01,  8.42052401e-02,  1.58253607e-01,
         2.50543707e-01,  1.61121746e-01,  1.12977214e-01,
         6.04572495e-02, -1.34415778e-01,  9.74304644e-02,
         4.90901531e-02, -1.64546163e-01, -1.31174456e-01,
        -1.59115839e-01, -3.30795927e-01, -1.17273379e-01,
        -1.46707035e-01,  6.84002432e-02,  7.06056833e-02,
         5.49819829e-03, -6.40133574e-02, -1.28565736e-01,
         2.71552449e-02,  4.93493046e-02, -8.80514832e-02,
         1.58251235e-02, -2.49606210e-02, -4.03597372e-03,
         1.26507451e-02, -5.54739394e-03,  5.25292457e-02,
         1.34391145e-01,  1.29682270e-01,  1.48370570e-01,
         1.87516110e-01,  1.19857155e-01, -5.46849635e-02,
         2.21895193e-01,  2.19990516e-01, -4.18034694e-02,
        -7.42593576e-02,  1.52489036e-01,  2.01762988e-01,
         4.03677773e-01,  4.21486466e-01,  2.46383615e-01,
         6.67420896e-02,  1.47479345e-01,  1.14695692e-01,
         4.38605833e-02,  1.70624349e-02, -3.99374811e-02,
        -4.11372059e-02,  2.58683029e-02,  2.07137985e-02,
         6.93894702e-02,  3.22020780e-02, -7.47287953e-02,
         4.27975111e-02, -4.34229975e-02, -2.19610612e-02,
        -4.25477954e-02,  1.54512730e-02,  9.08345880e-02,
        -2.26831393e-02,  6.23997143e-02,  2.57338099e-02,
         1.10646765e-01,  1.18904461e-01,  2.49583987e-01,
         1.02355397e-01,  1.44235274e-01,  1.88413696e-01,
         1.28427950e-01,  7.86191608e-02, -9.50363825e-03,
        -1.96345570e-03, -5.36386057e-02,  2.17401665e-02,
         3.85631631e-02,  2.26631339e-02,  8.28997284e-02,
        -2.77044215e-04,  3.31076454e-02, -5.40472470e-02,
        -1.91642910e-02,  3.46779460e-02,  4.32603818e-02,
        -1.29687643e-02,  6.07051657e-04, -6.53029435e-02,
        -4.47942574e-03,  9.56761303e-02,  4.47610812e-02,
         2.34941500e-02,  5.95831902e-02,  6.40221883e-02,
        -2.49340025e-02,  5.07522476e-02,  5.34242484e-02,
         7.41269186e-02,  5.54091660e-04, -1.05322739e-01,
         5.40333326e-02,  2.35855185e-04, -3.58099332e-02,
         3.43323220e-02, -1.94075176e-02,  5.24746703e-02,
         3.05463462e-02],
       [ 3.38417243e-02, -6.76248846e-02,  6.00001680e-02,
         1.29338286e-02, -1.82819426e-02,  7.09878693e-03,
        -8.79367476e-02,  2.02313289e-02, -5.09614835e-02,
        -6.69671580e-02, -7.53680104e-02,  5.50862830e-02,
        -3.12343235e-02,  7.57843226e-02, -2.64914473e-02,
        -8.45253694e-02, -5.52761965e-02,  6.11817920e-02,
        -7.71810989e-03, -2.71442660e-02,  7.92208266e-03,
         2.48419472e-02,  5.53194846e-02,  7.17113977e-02,
        -1.78112020e-02, -6.56491429e-02, -2.04695757e-02,
         1.28858052e-02, -4.77131766e-02, -4.73860313e-02,
         1.70200363e-02, -2.40865032e-03,  1.62361917e-03,
        -3.75513158e-02, -1.12260271e-02, -4.53009411e-02,
         4.89574994e-02,  5.30699889e-02, -9.02419312e-02,
        -4.09216896e-02, -6.16072560e-02, -2.65722092e-02,
        -1.08897407e-02, -7.02376593e-02, -5.67798213e-03,
        -2.95476992e-02,  1.12342426e-02,  9.06371577e-04,
        -3.77956478e-02,  8.74454906e-03, -2.75804291e-02,
        -1.35517071e-02,  8.28482238e-02,  6.63627108e-02,
        -6.43388584e-02,  4.10778757e-02,  4.01701152e-02,
        -5.68475037e-02,  4.05363138e-02,  7.71147381e-02,
        -5.51750972e-02, -4.54093086e-02,  5.06142496e-02,
         1.44379974e-02,  3.52270370e-02,  2.53088090e-02,
         2.60277584e-02, -5.29823184e-02,  6.79185787e-02,
         6.35869903e-02, -2.06233794e-02, -5.99961540e-03,
        -5.73710832e-02,  3.71484894e-02,  4.01299058e-02,
         7.79916213e-04,  5.85961601e-02, -1.37580595e-02,
         2.89803554e-02, -5.06472497e-02, -1.16681872e-03,
        -8.63238137e-03,  1.11544043e-02, -1.82943090e-02,
        -6.50886338e-03,  4.08954289e-02, -2.19404721e-02,
        -7.68089518e-02,  8.72621916e-02,  7.01063457e-02,
        -6.06116395e-02,  3.64845972e-02, -5.16220882e-03,
         3.36340670e-02,  3.85890099e-02,  4.80420309e-02,
        -1.06673217e-02, -8.19114524e-02, -6.92568375e-02,
        -4.23820329e-02,  9.44551641e-03, -5.36879334e-02,
         4.54991457e-02,  9.47849133e-02, -2.62303596e-03,
         3.32046409e-02,  3.16730345e-02,  2.55890010e-02,
         4.52877410e-03,  3.69480958e-02,  2.39707774e-02,
        -6.12734203e-02,  4.30296371e-02,  4.39272730e-02,
        -3.88838467e-02,  1.22307625e-03,  3.23208524e-02,
        -6.06137062e-03,  6.25742157e-02,  1.41979969e-01,
         1.37889014e-02,  1.86947762e-02,  1.46228791e-01,
         2.12356370e-01,  1.35165061e-01,  1.19863317e-01,
         4.11813414e-02,  2.21637282e-01,  1.55214689e-01,
         2.22586618e-01,  1.98750545e-01,  5.42473524e-02,
         2.87828401e-02,  5.12768352e-02, -7.22533646e-03,
         7.32600083e-03,  8.58826056e-04, -9.21597511e-02,
         2.92981558e-03, -3.34157478e-02, -2.44132175e-02,
         7.14704341e-02, -6.22950714e-02,  4.24082324e-02,
        -3.56791928e-03,  5.50264238e-03,  7.47866863e-02,
         6.21999367e-02,  7.53704189e-02,  1.02821098e-01,
         5.62434329e-02,  6.98509825e-02, -1.24329392e-01,
        -2.05959217e-01,  2.50709480e-01,  2.58436446e-01,
         3.53640206e-01,  2.58147607e-01,  2.11024529e-01,
         1.37202671e-01,  3.20613414e-02,  9.53730501e-02,
         1.65453701e-01,  1.43013293e-01,  4.28427038e-02,
        -9.49451941e-02, -8.45891559e-03, -4.31224621e-02,
         8.67425780e-03,  1.47879123e-01,  2.38993129e-02,
        -1.54093169e-02,  8.70623093e-02,  1.54586711e-01,
         1.70496870e-01,  2.14013238e-01,  1.50156373e-01,
        -1.28495799e-01, -2.68641137e-01, -6.87232707e-01,
        -5.66234889e-01, -1.32981299e-01,  3.13591876e-01,
         3.68324816e-01, -4.45376559e-02, -1.99532421e-01,
        -4.49064319e-01, -2.07031561e-01, -2.09223286e-01,
        -1.04585866e-01,  2.10007589e-01,  2.51076565e-01,
         2.46090309e-01,  7.46569607e-02, -6.01350090e-02,
        -3.32461146e-02,  5.04784352e-02,  1.04825870e-01,
        -7.74005590e-02, -8.70331303e-02,  2.14837530e-01,
         2.64580078e-01,  2.14473244e-01,  3.27725516e-01,
         2.00432268e-02, -6.83375945e-02, -3.81544028e-01,
        -4.61740159e-01, -6.02716859e-01,  4.74801373e-02,
         2.50182002e-01,  6.32984348e-02, -3.01490713e-01,
        -2.52673257e-01, -3.92328258e-01, -2.15541884e-01,
        -1.26308161e-01, -1.64863196e-01, -7.24074548e-02,
        -5.63635781e-04,  7.42939375e-02,  1.01543461e-01,
         1.61951551e-01, -5.55948592e-02,  7.58893801e-02,
         4.51156606e-02,  1.88491390e-02,  9.42130208e-02,
         7.35568115e-02,  2.46972376e-01,  2.09531792e-01,
         2.05577618e-01, -6.04011799e-03, -9.50807173e-02,
        -1.10959113e-01, -2.74093526e-01, -1.31062600e-01,
         1.68216350e-01,  3.22418849e-01,  2.30067279e-01,
        -3.78195353e-02, -2.11442037e-01, -1.99315681e-01,
        -1.85922350e-01, -5.52158144e-02, -1.89261704e-01,
        -1.58538515e-01, -1.24729032e-01, -2.65300352e-02,
         1.28564344e-01, -7.58810115e-03, -5.70325720e-02,
        -3.09748907e-02, -1.55241466e-02, -3.57383952e-02,
        -1.34931234e-01,  5.61673765e-02,  1.83889369e-01,
         1.62046516e-02, -2.65988438e-02, -3.25717971e-02,
         5.00295441e-03, -2.16538508e-01, -4.31671865e-01,
        -3.42918626e-01,  6.02290226e-03, -6.50417739e-02,
        -1.74760769e-01, -3.07358427e-01, -3.63609158e-01,
        -2.66950821e-01,  8.78719321e-03,  7.98664094e-02,
        -6.65931951e-02, -6.56939758e-02,  9.78878705e-02,
         2.23384911e-02, -2.44418859e-02,  1.85907854e-02,
         2.08770315e-02,  9.76178211e-03,  1.58665139e-02,
         5.79415963e-02,  1.65593828e-02,  2.21455840e-02,
        -2.37602286e-02, -2.78968432e-01, -6.46244013e-02,
         1.07364041e-01,  6.55579055e-03, -2.98769395e-01,
        -5.04021596e-01, -2.10847146e-01,  1.05395729e-01,
        -4.09851416e-02, -2.08391702e-01, -1.87740770e-01,
        -9.52039616e-02, -1.92832862e-01,  1.21851202e-01,
         3.57455927e-02, -5.27595424e-02, -4.66325687e-02,
         1.53016672e-01, -4.65972787e-03,  5.52747180e-03,
        -5.71087565e-03,  2.86847314e-02, -5.81997484e-02,
        -4.57218095e-02, -1.36934463e-02, -7.85891910e-02,
        -1.08337500e-01, -2.42895140e-01, -1.81079340e-01,
        -2.02959450e-01, -1.58886652e-02,  5.98557557e-02,
        -9.53855660e-02, -3.69035766e-01,  1.63682205e-02,
        -5.53210029e-02, -1.66948711e-01, -3.28712371e-01,
        -2.07920944e-01, -2.49259029e-01, -1.63202544e-01,
        -2.93248572e-02, -1.89816623e-01, -2.49168819e-01,
         2.88461710e-02,  1.66853326e-01,  6.75217698e-02,
         1.35228454e-02,  1.89483835e-02, -7.40482552e-02,
         3.74675273e-02,  2.31429369e-02, -7.13768997e-02,
        -2.85066460e-02, -2.01984131e-01, -3.00866385e-01,
        -2.63539668e-01, -2.40512912e-01, -4.45123723e-02,
        -3.18355529e-02,  3.02936436e-02, -9.63550649e-02,
         4.08956383e-01,  4.83689328e-01,  1.76420735e-01,
        -2.53091180e-01, -2.98723129e-01, -4.18088199e-01,
        -4.94503397e-01, -1.78931187e-01, -1.45947325e-01,
        -3.62029534e-02,  9.23490911e-02,  2.50986112e-01,
         2.19440214e-01, -1.67270622e-02,  2.78143653e-02,
        -1.02219234e-01,  3.09726386e-02,  3.90617372e-02,
        -5.22789397e-02, -2.14153303e-03, -1.67655527e-01,
        -2.99045105e-01, -2.40333511e-01, -7.76762555e-02,
         1.33162316e-01,  3.08451445e-01,  1.15293868e-01,
         3.59964416e-01,  6.16307461e-01,  5.22341914e-01,
         1.11383273e-01, -7.03804436e-02, -1.29945691e-01,
        -1.86308064e-01, -1.44618716e-01, -1.86460027e-01,
        -1.62343866e-01, -6.53792607e-02,  3.45538667e-01,
         3.78372277e-01,  2.61137601e-01,  1.14428156e-01,
         2.40333367e-02,  2.94351868e-02, -1.24348360e-01,
        -1.77264165e-02,  3.08819014e-03, -8.16814034e-02,
        -9.37754849e-02, -4.70621200e-02,  9.15085268e-02,
         2.16309083e-01,  2.93284127e-02,  2.02150011e-01,
         9.08098281e-02,  3.39531814e-01,  4.76521349e-01,
         2.33859478e-01,  1.41859654e-02, -1.18934446e-01,
        -1.08176507e-01,  1.15952570e-02, -1.52703890e-01,
        -3.61117467e-01, -3.36204759e-01, -4.99927621e-02,
         1.87822233e-01,  3.01073115e-01,  2.29515523e-01,
         2.05546388e-02, -2.84298543e-03, -3.68902823e-02,
        -8.46248013e-03, -7.71671880e-02, -1.13336048e-02,
        -2.94129389e-02,  3.43355415e-02,  1.07940120e-01,
         4.18424670e-02,  2.96091124e-01,  1.38521054e-01,
         2.21922178e-01,  1.41279531e-01,  1.59123736e-01,
         1.45681769e-01, -5.34320203e-02, -1.01962076e-01,
        -1.24280039e-01, -1.77882964e-01, -1.97630265e-01,
        -6.28060314e-02, -1.20888529e-01, -2.65095215e-01,
        -1.58378920e-01,  6.10769141e-02,  2.07386299e-01,
         2.89389368e-01,  9.32447708e-03,  3.54688248e-03,
         1.57755561e-02,  9.10030328e-03,  1.38668170e-01,
         4.03187110e-02,  1.40004221e-02,  3.99339151e-02,
         1.52171613e-02,  1.36517526e-01,  1.46730657e-01,
         9.63292634e-02,  2.97085247e-01,  2.51724130e-01,
         2.07461894e-01,  2.18322231e-01, -1.31789501e-01,
        -1.20234994e-01,  2.03625459e-01, -8.99548829e-02,
        -6.10676059e-02, -5.51829965e-02,  3.45818435e-02,
         3.34293233e-02,  6.42063832e-02,  1.38791750e-01,
         3.05609772e-01,  2.75678178e-01,  1.94964168e-01,
         8.52542841e-02, -9.31624163e-04,  4.71037582e-02,
        -1.80003163e-02, -4.36090288e-02,  1.29204429e-02,
         2.21383356e-01,  2.21575639e-01,  2.11521983e-01,
         1.70820540e-02,  5.90741040e-02,  3.56495117e-01,
         5.52715884e-01,  5.59193266e-01,  3.41987412e-01,
        -1.88055631e-01, -2.74604728e-01, -3.88672987e-01,
         7.46712919e-02,  1.55152283e-02, -2.39082952e-02,
         3.35927047e-01,  2.65672854e-01,  9.32513770e-02,
         2.25763781e-01,  4.40939895e-01,  2.36805978e-01,
         8.77662902e-02,  8.19962524e-02, -1.90200097e-02,
        -3.96256046e-02, -1.14278441e-02,  7.88679742e-02,
         5.48377295e-02,  2.00165300e-01,  3.40989556e-01,
         2.66600912e-01,  1.25034885e-01,  1.93454526e-02,
         1.44696619e-01,  3.15415334e-01,  2.30799161e-01,
         3.89371707e-01, -3.40110392e-01, -5.57544558e-01,
        -1.85893442e-01,  2.09282625e-01,  9.63402001e-02,
         2.73913004e-01,  1.87970198e-01,  1.98988975e-01,
         2.39708615e-01,  4.75782883e-01,  5.11988172e-01,
         2.25006787e-01, -5.48004986e-02, -2.57920773e-02,
         1.82300071e-02, -1.36027658e-01, -2.37022846e-02,
        -2.58076806e-02,  9.67027372e-02,  1.66635358e-01,
         3.14551349e-01,  3.94418241e-01,  1.68163282e-01,
         1.96120834e-01,  3.65098154e-01,  3.81537368e-01,
         7.29983983e-01,  9.10038694e-02, -8.96056075e-02,
        -2.26757976e-01,  1.29314665e-01,  3.32227778e-01,
         1.93836497e-01,  1.80942466e-01, -4.08219459e-02,
         1.17912360e-01,  4.15346211e-01,  3.85784625e-01,
         2.87640090e-01,  1.31418918e-01,  9.14826859e-02,
        -1.39679680e-02,  1.55956434e-02, -3.61877280e-02,
         4.40596755e-02,  4.92351615e-02,  1.68260363e-01,
         1.47244535e-01,  3.48124724e-01,  5.99499354e-01,
         7.13474349e-01,  3.82678539e-01,  4.25721208e-01,
         5.67601768e-01,  6.37731748e-01,  4.61645757e-01,
         1.36828897e-01, -5.64800569e-02,  4.36976793e-02,
         2.45012472e-01,  1.37136267e-01,  9.33436554e-02,
        -1.15484832e-01,  1.80103528e-01,  4.15956833e-01,
         3.20240002e-01,  3.10997784e-01, -2.33567061e-02,
        -1.33330001e-02, -7.39910075e-02, -1.94345524e-02,
         4.93670660e-02, -2.27882499e-02,  4.00558263e-02,
         9.04111648e-02,  1.31007386e-01,  2.58753115e-01,
         5.08114161e-01,  3.91101391e-01,  3.19872105e-01,
         2.04734938e-01,  4.73855924e-01,  5.21926401e-01,
         2.91398115e-01,  3.16594801e-01, -7.85699691e-02,
         7.85324819e-02, -5.49951987e-02,  4.23259143e-02,
        -1.52292950e-02, -1.67088094e-01,  7.73579988e-02,
         2.94196257e-01,  2.53826106e-01,  5.58325655e-02,
         1.35668407e-02, -1.49299384e-02,  3.19256547e-02,
        -2.82365790e-02, -9.01047414e-02,  1.33915102e-02,
        -8.11180450e-02,  7.84252070e-02,  5.94530196e-02,
         2.42400347e-01,  3.00410415e-01,  1.45423371e-01,
         8.66925899e-02,  1.13448383e-01,  3.03914095e-01,
         3.61388378e-01,  2.57948458e-01,  2.39770439e-01,
        -3.53200202e-02, -5.50186173e-02, -2.29530518e-01,
        -1.12569360e-01, -3.86079482e-02,  2.56424297e-02,
         1.76970547e-01,  4.50938041e-01,  2.02447572e-01,
        -1.12090844e-02, -2.71736817e-02, -6.37638725e-03,
        -4.54546194e-02,  3.83589647e-03,  1.27606522e-02,
        -6.14763091e-02,  4.61081355e-02,  4.78052062e-02,
        -1.02280951e-01, -1.07992847e-01, -1.20432270e-01,
        -9.36411706e-02,  6.49637252e-02,  3.54720700e-01,
         2.97995534e-01,  3.83826856e-01,  1.76543447e-01,
         2.07712442e-02, -9.16228324e-02, -9.47020612e-02,
        -2.17208126e-01, -1.38347979e-01,  7.90118783e-02,
         1.27557805e-01,  1.10598992e-01,  3.82100579e-03,
        -4.39099775e-02, -1.34223939e-02,  2.15990374e-02,
        -1.41822683e-02, -2.03149945e-02,  5.71265988e-02,
        -9.25660075e-02, -1.92346445e-02,  3.27463686e-02,
         3.76525164e-02, -1.86164839e-01, -3.26755658e-01,
        -4.91793350e-01, -3.01595608e-01, -1.86419995e-01,
         2.87740651e-02, -4.70144412e-02,  4.80968135e-02,
        -6.50852156e-03, -1.14392297e-01, -4.42783791e-02,
        -1.42642061e-01, -1.22719841e-02, -1.49773392e-01,
        -2.89877905e-02, -2.84459367e-02, -1.22378180e-01,
        -1.44700808e-01, -3.83121752e-02, -8.96280575e-02,
         4.92904193e-02,  1.01351473e-01, -5.63039122e-02,
        -3.51225633e-02, -1.42852891e-02, -3.88015812e-02,
         9.04802354e-02, -6.52823867e-02, -1.82092117e-01,
        -3.07155988e-01, -4.21070370e-01, -4.28730008e-01,
        -5.99886574e-01, -4.17842647e-01, -3.30103928e-01,
        -3.76868166e-01, -4.10143463e-01, -1.48970725e-01,
         4.80374692e-02,  1.73262299e-02, -1.21660704e-01,
        -1.77918653e-01, -2.64165452e-01, -1.17263270e-01,
        -2.18944670e-01, -6.66023086e-02, -1.02606451e-01,
         5.71897925e-02,  3.76099972e-02,  3.76104492e-02,
         2.39515419e-02, -1.23040000e-02,  5.94351736e-02,
         6.94884901e-03, -9.73844617e-02, -5.67318811e-02,
        -4.84398536e-02, -5.72652412e-02, -1.08466394e-01,
        -8.40727933e-02, -2.93331275e-01, -2.72088208e-01,
        -4.13679072e-01, -2.95748268e-01, -2.77913585e-01,
        -2.40116795e-01, -4.08792189e-01, -2.35030136e-01,
        -1.34007184e-01, -1.17683657e-01, -1.66699351e-01,
        -9.99417272e-02, -1.80486824e-01, -5.61921208e-02,
         3.19408993e-02,  4.38641122e-02, -3.97902930e-02,
         1.78928625e-02, -6.40200461e-02,  2.83375430e-02,
         2.23081931e-02, -9.25697027e-02, -5.75168709e-02,
        -1.40174641e-02, -1.51113818e-02, -6.09247746e-02,
         1.71721216e-02,  4.21547222e-03, -1.77389805e-02,
        -4.02232153e-02,  3.47368726e-02,  6.96904638e-02,
        -5.14902545e-02, -5.86255388e-02, -2.35487971e-02,
        -4.70198571e-02, -3.24523694e-02,  2.09942405e-02,
        -1.29359543e-01,  4.23682381e-02, -3.89819359e-03,
        -3.78984157e-02, -3.77280296e-02, -8.28479744e-03,
        -8.57072359e-02,  7.40104706e-02,  2.04592366e-03,
         2.19318735e-02],
       [ 4.71087334e-02, -5.05550749e-02,  2.34403519e-02,
        -1.32502084e-02,  4.19214001e-02, -1.05313450e-01,
        -4.90589890e-03, -2.98440696e-02,  2.14002049e-02,
         2.32706549e-02, -3.50327021e-02, -3.52578601e-02,
        -5.46582364e-03, -4.43412659e-02,  4.17075842e-02,
        -1.82775143e-02, -1.43917362e-01, -1.85564569e-02,
        -5.14155806e-02, -8.07601870e-02, -6.12617473e-02,
         5.41652648e-03,  6.57775226e-02,  1.55049419e-02,
        -3.00263920e-02,  2.25706209e-02, -2.27283571e-02,
        -3.43878424e-02, -5.71494680e-02, -8.67284494e-02,
        -1.93041000e-02,  7.82481374e-03, -4.78357251e-03,
        -2.05933396e-02, -4.68142842e-02,  3.01192680e-02,
        -6.53142935e-02,  3.81012151e-02, -5.01971986e-02,
        -3.48681025e-02, -7.06815231e-02, -2.54936297e-02,
         6.31133823e-02,  7.83756079e-02,  7.07044858e-02,
         3.25968988e-02, -5.50220452e-02, -1.52710121e-02,
        -3.58961110e-02,  6.98054693e-02, -5.86585749e-02,
         4.42458141e-02,  4.42078040e-02,  9.05796974e-02,
        -2.02825087e-02,  3.52652018e-02,  1.12958598e-01,
        -3.05778194e-02, -7.59955959e-02, -9.22327695e-02,
         3.57978064e-02, -9.32199287e-02, -1.85814252e-02,
         1.80327695e-02, -2.03499731e-02, -4.15341204e-02,
        -2.74096455e-02,  1.87141796e-02, -1.09423227e-01,
        -1.11178233e-01, -1.92164346e-02,  1.89073064e-01,
         6.70558555e-02, -1.02069578e-02,  5.57381952e-02,
        -6.88419920e-02,  8.94160094e-02,  8.13679693e-02,
         3.16741254e-02,  8.16018340e-02, -8.25838584e-02,
        -2.46032009e-02, -3.64029457e-02,  3.57185490e-02,
        -5.19897137e-02,  3.75015980e-02,  7.12013486e-02,
         3.75804744e-02,  1.38562279e-02, -5.28508361e-02,
        -5.35901777e-02,  4.42999322e-02, -1.56899312e-02,
        -1.80677742e-01, -2.52744193e-01, -3.93218738e-01,
        -2.87906855e-01, -6.31593231e-02,  1.16337199e-02,
         3.09607893e-01,  2.18064252e-01,  8.65727811e-02,
         1.14889987e-01,  6.49269506e-02,  5.03836860e-02,
         1.22456099e-01, -1.10855732e-01,  4.32020658e-02,
        -1.36985056e-02,  3.58838435e-02,  4.54543843e-03,
        -3.62966404e-02,  1.13370108e-02, -9.18424330e-02,
         4.14574308e-02,  2.29431728e-02,  5.44699973e-02,
         1.01018159e-01,  7.40398424e-02,  3.38591571e-02,
        -3.31531069e-02, -2.13836038e-01, -1.11362897e-01,
         4.84083011e-02,  4.68686292e-02,  3.05684274e-01,
         3.53953676e-01,  4.97841268e-01,  1.38792886e-01,
         1.34772897e-02,  8.32282436e-02,  1.76753481e-01,
         4.69831002e-02,  1.04641508e-01,  2.85473023e-03,
        -5.20704994e-02, -1.22184123e-02, -1.07276726e-02,
        -6.33085339e-02,  6.29546643e-02,  5.79334688e-02,
         6.64866734e-03,  5.48578870e-03,  4.52951332e-02,
         2.25861879e-03,  1.80450310e-01,  4.16129578e-03,
         3.69457334e-02, -2.28016863e-01, -1.36054767e-01,
        -3.52617791e-01, -3.60513249e-01, -4.59170111e-01,
        -2.17347462e-01, -2.51574061e-01, -1.37577032e-01,
        -9.56254561e-02,  5.22373238e-02,  5.27577025e-02,
         5.00696503e-02, -5.60747533e-02, -1.86596558e-01,
        -3.27383684e-02,  4.99296033e-02,  1.16521809e-02,
        -5.57484053e-02,  1.30876816e-02, -5.41491014e-02,
         5.44987801e-02,  5.25699293e-02,  2.54809144e-02,
         1.42333871e-01,  2.28326405e-01,  7.74874190e-02,
        -6.01599465e-02, -1.54886655e-01, -8.37693764e-02,
        -2.56220913e-01, -6.35010360e-02,  1.16593148e-01,
        -9.80132094e-02, -2.37267738e-01, -9.01324758e-03,
         2.91764234e-01,  3.45135230e-01,  1.89433122e-01,
         2.28758330e-01,  2.03781742e-01,  8.72518452e-02,
         3.96692453e-02,  7.62824561e-02,  4.72438275e-02,
         5.59223319e-02,  1.20826288e-01,  6.39894449e-02,
        -8.23458162e-02,  7.88099513e-02,  3.19056076e-02,
         2.20066244e-02,  5.31510423e-02,  1.14365737e-01,
        -1.39852832e-03, -2.15957734e-01, -1.74734833e-01,
        -3.31988837e-01, -3.13342618e-02,  1.24261550e-02,
         1.02779781e-01,  1.10501719e-01,  2.75816065e-01,
         3.36113185e-01,  4.91114825e-01,  3.22537675e-01,
         2.80950193e-01,  6.95918487e-02,  1.94524706e-01,
         2.56677773e-01,  3.50376226e-02,  1.33690696e-01,
         3.12375597e-01,  2.41014135e-01,  4.99363597e-02,
         8.58273295e-02, -4.88205680e-02, -5.64307873e-02,
        -7.20411045e-02, -1.24767474e-01,  1.06148904e-02,
         1.67160769e-01,  1.01326546e-01, -2.27932703e-01,
         7.00373315e-02,  3.46409684e-02,  8.87999401e-02,
         2.94758297e-01,  3.55977531e-01,  5.38418552e-01,
         3.55475550e-01,  1.38444684e-01,  3.69104290e-01,
         6.38307832e-02, -7.29832383e-03,  2.62549561e-01,
         1.53875249e-01,  3.87328856e-01,  3.08468707e-01,
         5.86221692e-01,  5.75295358e-01,  3.82107234e-01,
         1.33506651e-01,  3.08430143e-02,  1.42671059e-03,
         4.28117628e-02,  3.04073979e-02, -2.54060470e-02,
         1.63726247e-01,  3.13473177e-01,  1.87697915e-01,
         2.53989201e-02,  2.89924325e-02,  2.14990390e-01,
         2.60194265e-01,  2.78693225e-01,  7.66550331e-02,
         2.84020657e-01,  2.69207214e-01,  1.36223935e-01,
        -1.22342128e-02, -1.38807728e-01, -1.98315168e-02,
         1.27168749e-01,  1.44950145e-01,  1.52372262e-01,
         5.64297134e-01,  5.74832000e-01,  5.04000345e-01,
         4.26482992e-01,  9.05850504e-02,  3.21420928e-02,
         1.00862010e-02,  4.17562639e-02,  2.94573222e-02,
         8.08275685e-02,  2.85553394e-01,  2.82578622e-01,
        -5.73216347e-02, -3.46813958e-01, -5.28041064e-02,
        -1.32519680e-01, -2.45428585e-01, -2.91835690e-01,
         7.48475683e-02,  2.90851312e-01,  8.45269950e-01,
         4.78582814e-01,  3.94032557e-01,  6.28035200e-01,
         5.56611872e-01,  1.53615088e-01, -7.92717962e-02,
         2.41377948e-01,  3.89798590e-01,  3.51311788e-01,
         2.60098077e-01,  8.42651462e-02, -7.60665677e-03,
         2.34973915e-02,  8.42016089e-02,  3.44599312e-02,
        -3.73388217e-02,  1.53581365e-01,  2.58880804e-01,
         2.79063294e-01, -2.76790239e-01, -2.40707052e-01,
        -6.37288967e-03, -1.17952939e-01, -2.84400830e-01,
        -2.80817810e-01,  4.40734370e-02,  5.72254583e-01,
         1.34291710e+00,  1.04999318e+00,  6.04717134e-01,
         7.93882461e-01,  8.83880228e-01,  2.17381245e-01,
         8.29846629e-02,  3.15500231e-01,  1.54876377e-01,
         1.55185973e-01,  1.98533576e-01,  6.23905587e-03,
        -6.25846503e-03,  1.77252158e-02, -2.83726822e-03,
         2.60433031e-03, -3.51139496e-02,  6.40651420e-02,
         1.57426535e-01,  1.91229568e-01, -1.18920280e-01,
         1.75458849e-02,  1.03431273e-01, -1.38426301e-01,
        -3.22265965e-01, -1.83660623e-01, -4.79052917e-01,
         2.99914917e-01,  9.35777116e-01,  8.95678671e-01,
         4.78065517e-01,  3.32298586e-01,  2.20293009e-01,
         1.10085368e-01, -1.98837723e-01, -5.81030655e-02,
        -1.70497318e-01,  1.17509558e-01,  1.99923502e-01,
         4.30594720e-03, -9.17164853e-03,  9.48935801e-04,
        -1.45463126e-02,  5.84639061e-02, -1.78532912e-02,
         6.97752856e-02,  1.03860194e-01,  6.51767368e-02,
        -7.90316671e-03, -6.62541651e-03, -2.51668873e-02,
        -1.05114266e-01, -2.02380145e-01, -6.18073633e-01,
        -7.41179207e-01,  7.50555600e-02,  4.11932325e-01,
         2.42547205e-01,  2.48668384e-01, -8.51824688e-03,
         7.73180686e-02,  1.64247088e-01, -3.55087494e-01,
        -3.11496423e-01, -2.72505511e-01,  9.21131250e-02,
         1.41377594e-01, -3.92103968e-02, -1.07928937e-01,
        -5.54909527e-02,  7.67368460e-02, -9.04327506e-02,
        -3.59907530e-02,  1.12798500e-01,  1.29132036e-01,
        -1.24221681e-02, -4.29326643e-02, -1.44247819e-01,
        -2.98563575e-01, -1.29748137e-01, -2.48607407e-01,
        -4.63734660e-01, -7.29895813e-01, -2.49612913e-01,
         9.06881811e-02,  1.08669859e-01, -3.25582346e-03,
        -4.01873476e-01, -8.15532892e-02, -2.00869324e-01,
        -1.54677429e-01, -1.40694198e-01,  2.08894319e-01,
         2.20142552e-01,  7.56301067e-02,  3.31923185e-02,
         1.08360415e-02, -1.75521474e-01, -7.49817532e-03,
         3.17959977e-02,  2.58879240e-02,  1.75439823e-02,
        -8.14480921e-02,  3.09436063e-02, -3.47471233e-03,
        -2.87270917e-01, -3.40616087e-01, -1.99601997e-01,
        -6.09166036e-02, -3.18965328e-01, -2.99308999e-01,
        -1.64838054e-01, -7.39884941e-02, -1.45216794e-01,
        -3.42456072e-01, -6.24110529e-01, -1.84035967e-01,
        -1.12419867e-01, -2.91564301e-02,  1.43268436e-01,
         4.65343482e-01,  3.63500169e-01,  1.72050407e-01,
         3.32151741e-02, -2.42579738e-01,  2.30556446e-02,
        -8.32735665e-02,  3.54390158e-03, -5.43673347e-02,
         1.90979074e-02, -6.00935137e-02,  9.13492382e-02,
        -1.10681208e-01, -2.23749308e-01, -2.93899260e-01,
         1.74118974e-02, -1.85980972e-02, -4.10732536e-01,
        -3.00221821e-01, -4.30990155e-01, -4.33365735e-01,
        -5.39770421e-02, -2.63764520e-01, -4.33546277e-01,
        -4.09345878e-01, -1.23574090e-01,  9.62830605e-02,
         2.56543185e-01,  6.26179240e-02,  1.52079468e-01,
         1.37744700e-01, -2.00272590e-01, -4.37670732e-01,
        -9.60741832e-02, -2.80651079e-02, -8.86643881e-03,
         2.31787113e-02,  8.10556969e-02,  8.87799626e-02,
        -8.69759825e-02, -1.72376666e-01, -2.68184904e-01,
        -2.16005198e-01, -3.32122918e-01, -2.99447161e-01,
        -4.03833586e-01, -1.45692415e-01, -4.64669864e-01,
        -5.00065780e-01, -9.95095372e-02, -1.07886371e-01,
        -2.20579228e-01, -8.55240942e-02, -7.27780354e-02,
        -4.59848799e-02, -7.69944506e-02,  1.02093018e-02,
         2.86620478e-02, -9.64717167e-02, -2.43127180e-01,
        -3.36012014e-01, -7.24718178e-02,  2.14661059e-02,
        -1.87768644e-02, -8.94004934e-03,  1.34675187e-02,
         2.83315912e-02, -6.40414325e-02, -1.99460367e-01,
        -3.05397737e-01, -2.30885484e-01, -4.02181400e-02,
        -1.28495756e-02, -1.76592839e-01, -4.08328441e-01,
        -1.02494971e+00, -7.13592874e-01, -1.61878396e-01,
         1.74396579e-01, -1.92259855e-01, -1.39708122e-03,
         1.88856176e-01,  9.08783327e-03, -1.61509500e-01,
        -1.04251065e-01, -3.11137235e-02, -4.46643518e-01,
        -4.18629163e-01, -2.67201705e-01,  1.78826099e-02,
         2.60114230e-02, -7.02730421e-03,  2.22780214e-02,
         9.20898737e-02,  9.37223735e-02,  5.48845557e-02,
         1.09640387e-01,  6.62720855e-02,  1.42106113e-01,
         3.59928231e-01,  3.71379751e-01, -1.67080762e-01,
        -7.06859701e-01, -8.93565201e-01, -5.54647732e-01,
        -3.62969877e-01, -1.13347808e-01, -2.13819683e-01,
        -4.91367672e-03, -2.42600046e-02, -9.77599651e-02,
         6.81593089e-03, -1.99771066e-01, -5.60243310e-02,
        -1.79383422e-01, -1.33105736e-01, -3.49901994e-02,
         9.60247958e-03, -1.86641657e-02, -2.83056469e-02,
         2.20343179e-02,  3.91449960e-02,  8.66535737e-03,
         1.88294646e-01,  1.35868247e-01,  2.17354243e-01,
         2.71395993e-02,  3.68141516e-01,  4.24410354e-01,
         6.85666442e-02, -2.77312985e-01, -3.56596703e-01,
        -3.26352208e-01, -1.65146987e-01, -3.50456442e-01,
         1.31993919e-01, -7.21082497e-02, -2.80713072e-01,
        -1.41320296e-01,  1.12639984e-01, -1.97781412e-02,
        -1.98454611e-01, -3.60731800e-01, -1.40219925e-01,
         2.46200799e-02, -9.56622180e-02, -8.83657761e-02,
        -3.08018794e-02,  2.91605242e-02,  3.18255446e-02,
         6.74815902e-02,  2.38137612e-02,  3.11289557e-02,
         3.79972094e-01,  2.46322467e-01,  9.07293304e-02,
         9.36732455e-02,  1.99683158e-01,  7.15483753e-02,
        -2.41115407e-01, -4.14934384e-01, -2.95717044e-01,
        -1.73412374e-01,  7.57487108e-02, -3.23742097e-01,
        -1.60296108e-01, -7.27448354e-02, -5.94828500e-02,
        -1.27589590e-01, -4.43965380e-01, -4.69128536e-01,
        -1.32231478e-01, -1.35229308e-01, -6.06202478e-02,
         1.62999121e-02,  6.20185904e-02, -2.21847570e-02,
        -3.40866321e-02, -1.54367379e-01, -4.56873910e-02,
         2.36058061e-01,  2.28058260e-01,  1.59621151e-01,
        -1.06160914e-02, -2.37413643e-02, -1.34028970e-02,
         7.45619239e-02, -1.37879673e-01, -1.65788721e-01,
         2.89808144e-03,  5.64729343e-02, -9.04646178e-02,
        -1.16975430e-01, -2.18791141e-01, -9.14873523e-02,
        -1.96540088e-01, -3.90174936e-01, -3.32113794e-01,
        -2.64371121e-01, -1.62712357e-01, -5.40572741e-02,
        -1.02728872e-01, -4.24871795e-03, -7.44197172e-03,
        -1.61738726e-02, -4.82217392e-02, -5.31154929e-02,
         5.92105396e-02,  6.40477372e-02,  1.69675571e-01,
         1.37461899e-01,  3.17327193e-03,  6.32999746e-02,
         1.43055543e-01,  1.14065958e-01,  3.77374439e-01,
         2.35056649e-01,  1.65042851e-02,  1.81381818e-01,
         1.60870248e-02,  6.62662842e-02, -4.07034864e-01,
        -4.30872984e-01, -5.82893220e-01, -4.48209707e-01,
        -3.72665326e-01, -2.46196550e-01, -7.43478342e-02,
         2.94565381e-02,  2.24623557e-03, -9.74554805e-02,
         3.24261233e-02,  4.01405143e-02, -3.55563927e-02,
         9.01083223e-02,  9.36774396e-02,  2.41573472e-01,
         4.30109540e-01,  4.39160438e-01,  4.12731974e-01,
         4.02580679e-01,  4.61559163e-01,  2.63194550e-01,
         3.12183733e-01,  2.57537043e-01,  1.16086140e-01,
         3.37916698e-02, -3.10954806e-01, -1.47049176e-02,
        -3.28994497e-01, -2.79722634e-01, -2.24709810e-01,
        -1.09256182e-01, -1.72420772e-01, -1.51001314e-01,
         2.93425754e-02, -9.30524527e-02, -4.61175774e-02,
        -1.96820422e-02,  6.12729914e-02,  1.88012996e-02,
        -4.80434175e-02, -1.37291632e-02, -1.72884555e-02,
         3.41968448e-02,  1.63088593e-01,  1.71102536e-01,
         4.42508402e-01,  3.84759407e-01,  4.29486181e-01,
         4.55094101e-01,  4.34694405e-01,  2.07441895e-01,
         2.64042586e-01,  1.91175570e-01,  3.47210992e-01,
         1.70494503e-01,  1.72768572e-01,  5.52581874e-02,
        -1.03644897e-01,  2.08332756e-02, -2.27298389e-02,
         1.83324484e-03,  4.72280449e-03, -3.74396909e-02,
         1.61087680e-03, -1.06742647e-02, -1.84097084e-02,
        -3.60642242e-02,  1.58188284e-02,  8.09998292e-02,
        -1.14344931e-02,  4.79810972e-02, -9.67829175e-02,
        -2.66675129e-02, -8.21656268e-02, -8.63087253e-02,
        -2.22961532e-02,  1.75004919e-02, -7.80549076e-02,
        -1.07975799e-03, -3.14619501e-02,  1.40454846e-01,
         2.35515407e-01,  1.78334788e-01,  8.27144141e-02,
         1.29997796e-03, -5.03548169e-02,  1.00039126e-02,
        -1.11624000e-01, -1.00325124e-02,  9.21194851e-03,
         4.20624459e-02,  3.43015617e-02,  2.88415780e-02,
        -3.96029564e-02, -9.44601814e-02, -1.94590111e-02,
         4.95881645e-02,  6.89559000e-02,  3.50476840e-02,
         2.34925957e-02,  3.12957095e-02, -5.18174401e-03,
         1.20926315e-02,  1.00663961e-01, -5.05619289e-02,
         5.23277885e-02, -7.53835324e-03,  7.71665946e-02,
        -7.84109688e-02,  4.71325582e-02, -1.50658889e-02,
        -5.09598307e-02,  1.19711979e-02,  3.73173189e-02,
        -3.20215437e-02, -6.27815187e-02, -4.09295002e-03,
        -4.32869380e-03,  2.71458666e-02,  4.70119366e-02,
        -2.94148979e-03],
       [ 9.18611024e-02,  1.11012741e-02, -1.71506677e-02,
        -7.97844730e-02, -1.30035839e-02, -1.66536354e-02,
         4.75421717e-02,  2.28963512e-02, -5.83874719e-02,
         8.52786287e-03,  3.32457470e-02,  7.56488248e-02,
         4.47372945e-02,  3.92428081e-02,  2.78006152e-03,
         1.92161990e-02,  6.18597104e-02, -6.59823133e-02,
        -1.72998246e-02, -3.82478524e-02,  1.87708764e-02,
         6.09050732e-02, -2.95546312e-02, -1.18337700e-01,
        -2.04079679e-02,  4.52236886e-02,  2.66166464e-02,
         2.11983781e-02, -1.38617340e-02, -6.33214570e-02,
         2.55108703e-02, -4.13031042e-02,  1.08131676e-01,
         2.82486725e-02, -2.77556722e-02, -2.85371117e-02,
        -1.24835227e-03, -5.80095055e-03,  6.88445875e-02,
         2.52642073e-02, -1.38970899e-02,  1.12037677e-01,
         2.20958848e-02,  5.79386274e-02, -1.47407500e-02,
         3.94408690e-02,  3.80727439e-02, -5.33366996e-02,
         1.29538287e-01,  7.98385801e-02, -9.30994495e-03,
        -5.39026547e-02,  1.72068639e-02,  4.29217570e-03,
         1.76082368e-02,  9.48449441e-03,  2.50626636e-02,
         7.16523091e-02,  2.81161559e-02, -5.18801055e-02,
         6.71605708e-02,  8.14250380e-02,  1.59080371e-01,
        -4.81953104e-02,  2.61172520e-02, -9.34651305e-02,
         8.99114334e-02, -2.04277265e-02,  1.24993633e-01,
         7.66145546e-02,  1.00903929e-01,  1.00698397e-01,
        -4.00474209e-02,  1.23330272e-01,  4.66461232e-02,
         1.69557126e-01,  1.73929408e-02,  8.01481038e-02,
         1.38542404e-01,  4.55738079e-02, -3.64078706e-02,
        -3.67178419e-03,  8.91968079e-04,  2.33986888e-02,
        -6.76695725e-02,  2.93364515e-02, -1.33943994e-01,
        -3.01432512e-02, -2.53312574e-02,  2.22552054e-02,
        -4.76494819e-04, -8.28028284e-02, -1.14171976e-01,
        -8.84776363e-02, -6.63880805e-02, -1.65351984e-01,
        -1.51174105e-01, -3.58485462e-03,  3.69172535e-02,
         3.10945266e-02,  3.92681683e-02, -1.38866635e-01,
         1.07035137e-01,  3.42522382e-01,  1.15409643e-01,
         1.29805106e-01,  7.14379672e-02,  4.06667467e-02,
         8.39949875e-02,  3.89218914e-02,  4.29544377e-02,
        -7.01136870e-02, -5.69906022e-02, -1.40536968e-01,
        -4.02679563e-02,  4.67341591e-02,  2.23985916e-02,
        -5.52304138e-02, -1.11489350e-01, -2.19323618e-01,
        -3.32551536e-01, -2.53708579e-01, -3.50045339e-01,
        -2.75298858e-01, -2.52147921e-01, -3.28536474e-01,
        -1.69288276e-01,  2.00608009e-02,  2.29843445e-02,
         1.16151538e-01,  9.45386345e-02,  1.87697789e-01,
         3.27013344e-01,  3.42709447e-01,  2.69545513e-01,
         2.81523310e-01,  1.41668029e-01,  3.06020876e-02,
         5.01730468e-02, -1.24681142e-02,  3.71255940e-02,
         1.38258182e-02, -4.69882743e-02, -8.66442236e-03,
        -1.34939471e-01, -1.64178464e-01, -2.45053958e-01,
        -3.07675859e-01, -3.29094701e-01, -1.21849257e-02,
         2.34999281e-03, -2.20758023e-01, -1.97712651e-01,
         4.50872129e-02, -1.26578999e-01, -1.50866982e-01,
        -2.11479819e-02,  4.87992690e-02,  1.90188729e-01,
         5.54136647e-02,  2.51178337e-01,  2.43446648e-01,
         4.59858201e-01,  2.72726610e-01,  2.22608419e-01,
        -5.29035454e-03,  4.18253687e-02,  4.37046676e-03,
         5.64164057e-02, -1.91947477e-02, -5.17080021e-02,
         5.56615821e-03, -1.69870282e-01, -1.44723667e-01,
        -1.87261065e-01, -1.71329743e-01, -9.26697654e-02,
        -1.73633763e-01, -1.75710774e-01, -2.05608811e-01,
        -1.19788894e-02, -1.22578094e-01, -2.30485279e-02,
        -1.21043985e-01, -2.46605119e-02,  1.16906292e-01,
        -3.56220133e-02,  2.64181420e-01,  1.19709227e-01,
         8.76894043e-02,  2.08933567e-01,  1.52561389e-01,
         2.55072019e-01, -1.50966209e-02,  9.83834391e-02,
        -1.95905249e-02, -1.21089591e-02, -9.41252010e-02,
        -3.14884569e-02, -1.32022637e-01, -1.91304555e-01,
        -8.35033844e-02, -3.86093825e-02, -1.65393332e-02,
         3.81139713e-02, -5.64472801e-02,  2.47790678e-02,
         1.27563594e-01,  6.88425770e-02,  1.07588706e-01,
         5.26050022e-02, -2.68577786e-02,  1.19119823e-01,
         2.83041201e-01,  2.98369234e-01,  2.05951908e-01,
         3.80407076e-01,  3.29891255e-01,  1.87979572e-01,
         7.76290676e-02,  2.17782927e-01,  1.84893515e-01,
         9.30715644e-02,  1.61645562e-02, -7.53079951e-02,
        -1.30974317e-01,  1.16714487e-02, -7.25569866e-02,
        -1.61686880e-01, -5.71421694e-02, -1.35818062e-01,
        -2.02004938e-01, -7.71824920e-02, -6.74289978e-02,
        -6.76884022e-02,  1.27044588e-01,  6.04311501e-02,
        -9.48001203e-02, -7.97935665e-02, -1.08804334e-01,
         9.13600793e-02,  2.00905222e-01,  6.27860829e-02,
         4.21384907e-02,  1.34561112e-02,  2.94200962e-03,
        -2.47750115e-01, -2.66469505e-01,  3.99922552e-02,
         5.06988550e-02, -5.17124376e-02, -1.28980741e-02,
        -2.40401749e-02, -4.89038938e-02, -1.57730250e-02,
        -4.22448293e-02, -1.15879868e-01, -1.39207543e-01,
        -2.70560887e-01, -3.06460891e-01, -1.42693034e-01,
        -2.13558029e-01, -9.40285476e-02,  8.32752700e-02,
         2.63874866e-02, -2.00353393e-01, -2.99182642e-01,
        -4.31456044e-01, -4.76223938e-01, -8.81401375e-01,
        -9.98074507e-01, -1.05995840e+00, -9.74535529e-01,
        -9.99770806e-01, -1.01398964e+00, -7.66944245e-01,
        -2.15068508e-01, -6.58466941e-02, -1.39685072e-01,
         3.67059347e-02,  1.20531730e-02, -5.52603808e-02,
        -6.91886742e-02, -9.02708965e-02, -4.81497474e-02,
        -2.40136744e-01, -2.92109009e-01, -2.60673658e-01,
        -7.72495715e-02, -9.88452376e-04, -1.03830589e-01,
        -1.62829483e-01, -1.55974156e-01, -4.83480700e-01,
        -7.98102815e-01, -4.61355120e-01, -4.07724158e-01,
        -9.41250286e-01, -1.28127905e+00, -1.65225886e+00,
        -1.50919510e+00, -1.25387660e+00, -1.12425341e+00,
        -8.55593225e-01, -4.96904313e-01, -6.42121137e-02,
         8.29462973e-02,  2.90810819e-02,  1.36989223e-02,
        -3.49777454e-03, -8.86667279e-02,  2.26323729e-02,
        -9.02360027e-02, -5.78773629e-02,  2.24862563e-04,
         1.11370835e-01,  2.27937299e-02, -7.80040414e-02,
         1.55830989e-01, -1.98801391e-01, -2.67592268e-01,
        -1.87740085e-01, -5.01978444e-01, -1.08365331e-01,
         2.99576805e-01,  4.43204632e-02, -1.15772929e-01,
        -5.78979045e-01, -9.45711506e-01, -1.04641479e+00,
        -8.99441658e-01, -7.10910713e-01, -4.44522421e-01,
        -2.26757184e-01, -3.49805441e-02,  5.96635546e-02,
        -4.13957306e-02,  6.75319224e-02, -1.56948329e-02,
        -9.20001735e-02, -2.76348554e-02, -6.31613696e-02,
         3.04245655e-01,  1.85064763e-01,  9.41653063e-02,
        -1.26316038e-01,  1.40385338e-01,  1.01582646e-01,
        -3.14211871e-02, -1.92047061e-01, -3.21716947e-01,
         3.87310310e-02,  1.78650657e-01,  2.48664533e-01,
         2.43916659e-01,  1.79715489e-01, -1.36713242e-02,
        -4.26790966e-01, -4.06268502e-01, -3.65800780e-01,
        -2.20072504e-01, -2.75623580e-01, -2.40235253e-02,
         4.81906214e-02, -3.85685746e-02,  1.34706026e-02,
        -2.82310882e-02, -4.34839967e-02,  5.35644334e-02,
         5.29830829e-02,  3.46497095e-01,  3.22369064e-02,
        -2.05263799e-01, -2.09591301e-01,  1.21139657e-01,
        -3.07984398e-03, -1.11291601e-01, -1.56693521e-01,
        -3.82145533e-01, -3.58408365e-02,  8.43252925e-02,
         2.07631919e-01,  2.85889339e-01,  3.87965500e-01,
         2.22496256e-01,  1.06117434e-02,  2.12869937e-03,
        -2.29964636e-02, -1.84446612e-01, -2.59442067e-01,
        -1.23174668e-01, -1.22038065e-01,  2.49229436e-02,
         1.58993516e-02, -2.13775947e-02,  1.20772083e-02,
        -5.08241137e-02,  1.27663208e-01,  1.61689658e-01,
         1.08359586e-01,  2.52589378e-01, -1.00175242e-01,
         1.59517085e-01, -2.17654120e-02, -1.23386524e-01,
        -3.10301677e-01, -4.00599016e-01,  1.24097701e-01,
         2.97654707e-01,  1.08695434e-01,  2.95135296e-01,
         1.09889011e-01,  4.41112568e-01,  2.10171550e-01,
         2.03866924e-01,  8.61131357e-02, -1.14020481e-01,
        -2.00447489e-01, -2.25418624e-01, -2.00919690e-02,
         4.66972879e-02, -1.30397928e-03,  9.18259398e-02,
         1.26755734e-03, -1.39714052e-01, -6.80347695e-02,
        -1.03911247e-01,  1.56450309e-01,  4.62107804e-01,
         9.29064519e-02,  7.58590363e-02,  6.84918035e-02,
         2.82786842e-02, -4.50955965e-01, -4.46439052e-01,
        -2.97676530e-02,  1.98115558e-01,  3.20009719e-01,
         3.71345667e-01,  2.16069171e-01,  2.59675372e-01,
         1.49832639e-01,  1.72761533e-02,  1.84623092e-01,
         3.99341187e-03, -3.17078600e-03, -1.31120075e-01,
        -6.29238049e-03, -3.35181460e-02,  5.87906750e-03,
        -1.13186852e-01, -1.09928459e-01, -2.14556822e-01,
        -1.03544465e-01, -1.05170990e-01,  2.05157013e-01,
         2.29751263e-01,  1.54331818e-01,  2.20189519e-01,
         3.72499627e-01,  1.85355758e-01, -2.19396458e-01,
        -2.23073349e-01,  2.21466787e-01,  1.89977681e-01,
         1.96519160e-01,  9.56453478e-02,  9.09218439e-02,
         7.00073089e-02,  1.15204398e-01, -1.74335784e-02,
         2.09860009e-02,  4.56130567e-02, -6.73396696e-02,
        -7.82898348e-02, -8.78772755e-02, -4.45898778e-02,
        -4.95492414e-02,  1.89159219e-02, -3.56107213e-02,
        -7.72701505e-02,  4.44824766e-02, -2.64480203e-02,
        -6.79609293e-02, -8.52680094e-03,  1.04755461e-02,
         1.99968980e-01,  2.56160220e-01,  1.41689528e-01,
        -2.76817636e-01, -2.50145269e-01, -6.41123677e-02,
         2.45481359e-02,  7.66795267e-02,  2.29870603e-01,
         1.88875493e-01,  6.95560170e-02,  5.62506722e-02,
        -1.49286573e-02, -9.27401391e-02,  1.67919764e-01,
        -7.83078928e-02, -1.28269886e-02,  2.39491329e-02,
        -4.49977597e-02, -5.60934954e-02, -7.95353859e-03,
        -7.49200247e-02,  2.95627539e-02, -3.27269354e-03,
        -5.75231753e-02, -8.49544964e-02, -5.01765877e-02,
         2.40336928e-02, -2.80191511e-02, -1.79699975e-02,
        -4.22930230e-02, -3.62911809e-01, -2.02241624e-02,
         6.68981617e-02,  1.31301558e-01,  2.73958444e-01,
         1.57763239e-01,  8.04489045e-02,  1.72977769e-02,
         1.02784449e-01, -1.16477454e-01, -1.94456270e-02,
         4.80774856e-02, -2.74287823e-02, -7.42458172e-02,
        -4.95522393e-02,  5.69172902e-02,  1.47642051e-02,
         7.59018956e-02,  2.89342508e-02,  7.54282167e-02,
         1.23354911e-02, -8.42527399e-02, -8.73775522e-03,
         3.58939540e-02, -2.27032897e-03, -2.14891413e-01,
         8.43264991e-02, -1.69071610e-01, -2.85126504e-01,
         4.67361077e-02,  2.40232321e-01,  2.81082352e-01,
         8.40664839e-02,  1.55734266e-01,  1.95267083e-01,
         1.34161995e-02,  6.33605790e-02, -1.24791748e-02,
         1.31308297e-01,  3.11278361e-02, -8.33490425e-02,
        -1.21281910e-01,  4.64546008e-02, -5.91376977e-02,
         1.41379205e-02, -2.88199340e-02,  7.06084351e-02,
         1.43289991e-01,  2.81155756e-02,  2.98142645e-02,
        -1.64675042e-01, -1.44195848e-01, -1.26575246e-01,
        -1.58220529e-01, -1.89817490e-01, -3.58040498e-01,
        -4.84042298e-01, -2.36400291e-01,  3.47478832e-01,
         3.13599075e-01,  2.26988542e-01,  2.59774690e-02,
         1.30118518e-01, -2.50696309e-02,  5.93623401e-02,
         3.92785264e-02,  2.33395645e-01,  5.97924589e-02,
         2.94695808e-03,  2.32338004e-02,  1.31823891e-02,
         3.25643271e-02, -3.38838558e-03, -6.84492960e-02,
         8.41600711e-02,  6.95720154e-02,  1.57074906e-01,
         1.94660777e-01,  4.35264838e-02,  1.35912219e-01,
         7.36458240e-02,  6.05039316e-02, -9.14103343e-03,
         1.54665708e-02, -1.81233714e-01,  7.33807295e-02,
         2.97790965e-01,  1.67108701e-01,  2.29836592e-01,
         1.84857045e-01,  1.55087716e-01,  1.90687467e-01,
         2.63158195e-01,  1.35040251e-01,  1.60023600e-01,
         9.75134109e-02, -5.41614657e-02,  3.36508739e-02,
        -3.15650930e-02,  1.07276042e-02, -1.50175998e-02,
        -2.00252246e-02,  1.25529186e-02, -2.76242797e-02,
         1.96213134e-01, -5.81739504e-02,  1.50007125e-02,
        -3.00852326e-02,  8.93656399e-02,  6.27326564e-02,
        -2.16817805e-01, -1.02893508e-01, -4.56487170e-02,
         2.12085176e-01,  2.06810463e-01,  2.29834881e-01,
         1.29320808e-01,  1.27029212e-01,  2.35887847e-02,
         6.03249580e-02,  7.35723384e-02, -5.79059369e-02,
        -1.96373184e-02, -9.89703902e-02,  6.97818445e-02,
        -4.20191127e-02,  1.08574415e-02,  3.92028775e-02,
        -2.82509110e-02,  4.12886358e-02, -7.00378139e-02,
         9.46032178e-02,  4.97434604e-02,  1.25309934e-02,
        -1.57311658e-01, -5.32990026e-02, -2.02909227e-01,
        -2.32588578e-01, -4.24079457e-01, -2.63338753e-01,
         5.86788311e-03,  2.04031347e-01,  2.93814481e-01,
         1.54777582e-01,  5.36939530e-02,  1.12088496e-01,
         8.92833798e-03, -1.93221811e-02, -7.36916198e-03,
         5.72035583e-03, -4.61212145e-03, -7.39831570e-02,
        -6.79730615e-02, -2.92709900e-02,  9.71537426e-03,
         2.70204687e-02, -1.07508805e-01, -7.99133159e-04,
         9.87735390e-03, -3.26404341e-02,  6.37656923e-02,
         4.98478336e-02, -5.01532178e-03, -1.93389510e-01,
        -1.83055224e-01, -2.52369076e-01, -3.16411376e-01,
        -2.40732580e-01,  4.91649011e-03,  2.99826946e-02,
         1.62217166e-01,  1.34180043e-01,  1.77259478e-01,
         1.72792287e-01, -1.67281086e-02,  1.39254384e-01,
        -1.98859699e-02,  2.39082664e-02, -2.04703468e-02,
         3.83094432e-02, -1.45200637e-01, -8.77854885e-04,
        -5.23880914e-03, -2.24583477e-02,  8.54609486e-02,
        -4.39455073e-02,  4.30551576e-02, -4.84741049e-03,
        -3.68120552e-03, -8.99988711e-02, -1.03006883e-01,
        -2.25705429e-02, -7.88046608e-02, -2.80075831e-01,
        -1.34368698e-01,  4.69442081e-02,  1.38104606e-01,
         2.14424218e-02, -5.42139616e-02,  6.92514174e-02,
        -2.31171940e-02, -2.68811536e-02, -8.29578287e-02,
         5.16876632e-02,  1.86081654e-02,  2.63027022e-02,
         8.67674474e-02,  4.08275092e-02,  8.02670498e-02,
        -6.90095065e-02, -1.71051077e-03, -8.00392388e-02,
        -1.13561176e-02, -1.23083188e-02,  3.10526027e-02,
         2.27635523e-03,  2.75885478e-02,  2.89441128e-02,
         9.39824951e-02, -3.65498621e-02, -7.85924029e-02,
        -2.99733510e-02, -7.22902708e-02,  3.09861443e-02,
        -8.75411679e-02, -9.80035992e-02, -4.85256245e-02,
         1.33127734e-02, -4.72596407e-02, -9.69222610e-02,
         5.35002630e-02, -5.10777834e-02, -1.42756968e-02,
         2.57014043e-02, -8.19974658e-02,  2.34095301e-02,
        -5.22356134e-02,  4.07338174e-02, -4.76583267e-02,
         3.42971777e-02,  5.47468947e-02,  4.26474630e-02,
         1.24420281e-02, -1.15292996e-02, -2.89181358e-02,
         7.23725401e-02, -3.56671746e-02, -5.28279855e-02,
         3.15316331e-02, -4.34788835e-02, -5.03443356e-02,
        -7.75658295e-02, -3.34616263e-02, -2.06981325e-02,
        -3.97829857e-03,  3.28149492e-02,  1.45203334e-02,
        -2.07146181e-02, -1.56009369e-02,  2.52013850e-02,
         5.37619954e-02,  7.65360731e-05, -2.33074620e-02,
        -4.91541916e-02, -7.15483221e-02,  3.29852639e-02,
         2.86142008e-02],
       [ 2.85837538e-02, -6.36959173e-03,  6.96536491e-02,
        -2.39674369e-02,  4.72928744e-02, -1.91805911e-03,
        -3.01178507e-02,  2.93346214e-02,  2.02800098e-02,
         1.76727850e-02,  4.02388149e-03, -1.87598709e-03,
         1.16566957e-01,  5.39124106e-02,  3.46177155e-02,
         5.48623525e-03,  4.98617114e-02,  2.56445628e-02,
         1.29732858e-03, -1.50286735e-02, -4.00600515e-03,
        -1.56959463e-01,  1.04262952e-02, -2.41831695e-02,
         7.88489143e-02,  9.57674209e-04, -5.88624604e-02,
        -2.46943560e-03, -5.17907111e-02,  2.34371595e-02,
         1.44040409e-02,  4.74201279e-02, -3.91560989e-02,
         1.61423355e-03, -8.43484505e-02,  1.60368049e-03,
        -2.01601706e-02,  9.74563026e-03, -3.45738636e-02,
        -2.23608913e-02, -7.70342777e-03, -6.35700811e-02,
        -7.26773558e-03, -9.26957985e-02, -7.19756232e-02,
        -1.53768529e-02,  2.27133132e-02, -7.16605796e-02,
        -4.48189177e-02, -3.64710207e-02, -4.23310369e-02,
         1.03889304e-02, -7.41252989e-02,  6.34159587e-02,
        -3.29433127e-02,  3.57395481e-02, -6.28742995e-02,
         3.31125206e-02,  3.32622509e-02,  1.87091851e-02,
        -5.45784673e-02,  1.19602935e-02, -7.20719649e-02,
        -7.02637955e-02, -3.68968427e-02, -4.30378978e-02,
        -1.62170732e-01, -2.14870070e-01, -1.93284011e-01,
        -1.66333784e-01, -2.22490954e-01, -9.00278264e-02,
        -1.39495136e-01, -4.93218557e-02, -1.13512541e-01,
        -2.52280309e-01, -1.01033710e-01, -8.99381655e-02,
        -1.35633991e-01, -7.70416116e-02,  1.22339815e-01,
        -1.83874969e-02,  3.61878617e-02, -3.22124615e-02,
        -1.03485414e-01, -8.42903924e-03, -1.31545166e-02,
        -2.18659969e-02, -8.16375673e-03,  1.23755342e-03,
        -6.27937874e-02, -2.07414722e-01, -2.21062157e-01,
        -3.33915260e-01, -3.60641374e-01, -2.07394856e-01,
        -3.42557562e-01, -4.79322324e-01, -3.61845988e-01,
        -2.75701390e-01, -2.27558032e-01, -2.83015770e-01,
        -6.22263621e-02, -8.19429800e-03, -1.29626959e-01,
        -1.07753454e-01,  4.95918486e-02, -2.08754522e-01,
        -9.29358424e-02, -3.40742924e-02,  1.72932452e-02,
        -1.22655724e-02,  6.53702344e-02, -4.32910029e-02,
         3.09253959e-02, -1.47791773e-02,  1.55710548e-02,
        -3.97288190e-02, -1.74842494e-01, -2.12702851e-01,
        -2.81033225e-01, -3.66617698e-01, -4.15378631e-01,
        -3.24877485e-01, -4.07067389e-01, -4.95188787e-01,
        -3.41571100e-01, -4.63203307e-01, -2.77154434e-01,
        -3.00829536e-01, -3.74146531e-01, -1.39513990e-01,
        -1.62964308e-01, -1.28221164e-01,  2.96453134e-02,
        -1.10548501e-02,  3.34911920e-02,  1.70503303e-02,
         4.11665073e-02, -8.51153932e-03,  5.77439465e-02,
         2.62872124e-02, -1.08989985e-01, -3.54177890e-02,
        -2.10703462e-02, -3.82610779e-02, -3.20624861e-01,
        -1.41710687e-01, -2.55147266e-01, -3.27577579e-01,
        -3.97575529e-01, -3.23592921e-01, -3.58238428e-01,
        -4.87086017e-01, -2.91254698e-01, -4.89296254e-01,
        -6.92025908e-01, -6.67657275e-01, -6.48590320e-01,
        -3.87045796e-01, -1.34558342e-01, -6.70277312e-02,
         6.47974757e-02,  1.11243130e-01,  7.52923947e-02,
         4.50274188e-03,  1.47388784e-01,  7.07732055e-02,
        -6.16140349e-02,  1.14722625e-02, -3.66338795e-02,
        -8.20438855e-02, -8.11460066e-02,  7.97745933e-03,
        -1.93764448e-01, -1.87671545e-01, -1.66638638e-01,
        -4.94033760e-02, -1.47608287e-01, -2.01125162e-01,
        -1.40728563e-01, -1.47467022e-01, -7.37115972e-02,
        -1.53107125e-01, -3.78123842e-01, -1.77202875e-01,
        -5.13975031e-01, -1.24017735e-01, -5.23228862e-02,
         5.83789583e-02,  2.48325159e-02,  1.65950178e-01,
         1.40632051e-02,  9.34384301e-03,  5.71967083e-02,
         3.22984274e-02, -1.93919511e-02, -5.04639700e-02,
        -4.26638275e-02, -3.68170717e-04, -4.75884814e-02,
        -5.75488219e-02, -1.68161747e-01, -1.87347302e-01,
         4.11710161e-02, -6.18396348e-02,  1.16177877e-01,
         7.86235545e-02,  1.15830819e-01,  3.85737437e-01,
         2.75467925e-01,  1.00506957e-01,  2.18637563e-01,
         2.04624205e-01,  3.50732796e-02,  1.40163399e-02,
         2.96668330e-01,  2.11346474e-01,  2.06240264e-01,
         2.65007348e-01,  1.68490631e-01, -1.43020915e-02,
         3.39669616e-03,  1.85332536e-02, -6.40536259e-02,
        -3.81868135e-03,  5.81134113e-02, -1.32745791e-01,
        -7.61995681e-02, -9.30679800e-02, -5.60663941e-02,
         1.10573892e-01,  1.20796064e-01,  1.75674951e-02,
         2.85339576e-02,  1.19237603e-01,  7.36861557e-02,
         7.80158488e-02,  1.20058296e-01,  1.58070325e-01,
         2.68725691e-01,  1.06555806e-01,  2.20971748e-01,
         5.74995947e-02,  2.18082247e-01,  2.16473531e-01,
         1.61938358e-01,  2.17485430e-01,  2.76572159e-01,
         1.31034296e-01,  1.48501933e-02, -6.12949125e-02,
        -9.69013649e-03,  5.44970049e-02, -1.64730530e-02,
        -6.28905709e-02, -1.37092604e-01, -7.70500023e-02,
         6.69639898e-02,  9.20701843e-02, -9.77969250e-02,
        -5.88390284e-02,  1.26919833e-01,  1.84610525e-01,
        -2.92401932e-02, -2.68077040e-02, -1.00991404e-01,
         5.88080847e-02,  2.55776793e-01,  2.56060131e-01,
         3.00070809e-01,  1.87539181e-01,  7.82792664e-02,
         6.05880790e-02,  1.47383574e-01, -8.67955984e-02,
         8.70395446e-02,  1.69089744e-01,  3.61802598e-02,
        -1.26034226e-02,  2.79548749e-02,  7.99959624e-02,
        -3.52716920e-03, -2.23305726e-02,  3.11186875e-02,
         1.96570426e-01,  1.65458655e-01,  3.27637012e-01,
         5.47772466e-02,  3.33330412e-01,  1.67154792e-01,
        -9.00448736e-03,  1.22466327e-01,  1.90449352e-01,
         2.50807160e-02,  4.60212629e-01,  4.04955539e-01,
         1.53740635e-01,  3.66581781e-01,  2.52930691e-01,
        -9.21284249e-02,  1.59255343e-02,  2.72780781e-01,
         1.18396666e-01,  2.26522629e-01,  2.74878331e-01,
         1.74150587e-01,  3.92300538e-02,  4.32568307e-04,
        -1.07325004e-02,  1.03185903e-02, -2.14579095e-02,
         2.10823463e-02,  3.78464872e-01,  3.97263485e-01,
         4.40865255e-01,  3.60467808e-01,  3.89784482e-01,
         3.29931273e-01,  2.42245723e-01,  3.84721153e-01,
        -6.46743634e-02, -8.18687608e-02,  6.21437176e-01,
         4.15803078e-01,  1.32941259e-01,  6.36029884e-02,
         8.24301488e-02, -1.33837272e-01, -1.26402768e-01,
         1.92394846e-01,  9.53057159e-02,  1.05222170e-01,
         1.65621872e-01,  1.92744006e-01,  2.55789360e-02,
         2.47091302e-02, -8.15734759e-02, -2.99363814e-03,
        -3.56502036e-02,  1.87168692e-01,  4.29429711e-01,
         2.98238445e-01,  3.49555672e-01,  2.83996734e-01,
         4.48316706e-01,  3.77942283e-01,  4.95801453e-01,
         3.20591233e-01,  1.45854122e-03, -3.64836187e-01,
         1.90872917e-01,  1.26304962e-01, -1.36897097e-01,
        -2.38408467e-01, -2.16473894e-01, -2.09488571e-01,
        -2.48486899e-01, -1.54953683e-01, -5.27823303e-01,
        -3.80934916e-01,  1.36621936e-02,  4.12975534e-02,
         7.65059330e-02, -1.02789567e-03,  1.78357524e-02,
        -5.33989949e-02, -1.13865302e-02,  2.02689489e-01,
         2.18107189e-01,  3.23516558e-01,  1.66827918e-01,
         3.75384182e-01,  4.74377412e-01,  3.01584219e-01,
         3.66659390e-01,  2.17731196e-02, -3.21680976e-01,
