[array([[-2.68189971e-02, -1.46713858e-01,  7.21000542e-01,
        -1.45609746e+00,  1.45513451e+00, -1.83018731e+00,
         1.79920941e-01,  8.88795245e-01, -3.79572028e-01,
         9.33570958e-01, -1.50730393e+00,  1.57466338e-01,
        -1.77939406e+00,  5.24805232e-01, -1.35217086e-01,
        -1.47078580e+00, -9.62995327e-01, -2.50248561e-01,
         1.32928659e+00,  2.13490107e-01,  2.04306466e-01,
         2.74466783e-01, -1.28797033e+00, -2.38201810e-01,
        -8.09950190e-01, -5.81621559e-01,  5.24658373e-01,
         4.12390650e-01, -1.13767547e+00,  2.11010019e-01,
         1.32574935e+00,  3.40182456e-01,  1.26402187e-01,
         1.91116092e-01, -2.25369211e-01,  1.56429020e+00,
         2.09680947e+00, -8.16787393e-01,  3.23153886e-01,
         7.39194857e-02,  2.87044830e-03, -2.20360197e-01,
         1.45865049e+00,  1.49627892e+00, -2.15116933e-01,
         2.73928776e-02,  9.84497899e-01,  7.55236567e-01,
        -2.05816755e-01,  4.89742668e-01, -1.95151486e+00,
        -7.81669113e-01,  8.03870190e-01,  1.21544993e+00,
         4.31806287e-01, -9.36418301e-01,  2.45056828e+00,
         1.93408062e+00, -1.92781828e+00, -7.73632288e-01,
         1.64129035e+00, -1.35010118e+00,  9.11879175e-02,
         8.51403346e-01,  9.12626320e-01, -9.87064017e-02,
        -1.21862514e+00, -6.14981400e-01,  1.02651429e+00,
        -4.39390049e-02, -8.92196169e-01,  3.28874792e-01,
        -3.47083305e-01, -6.41998014e-01,  1.81727744e-01,
         1.17340035e+00,  8.28253256e-02, -6.35345974e-01,
        -1.66086434e+00,  7.86253670e-01,  6.27680823e-01,
         2.11079084e-01,  2.76973287e-01,  4.67908456e-01,
        -1.91298192e+00, -4.09245314e-01,  2.18873983e-01,
        -1.47207612e+00,  4.33084507e-01,  1.06419839e+00,
         3.80103730e-01, -1.10149591e+00, -3.67862587e-03,
        -1.90445651e+00,  3.39359474e-01, -3.20874686e-01,
         5.32356412e-01, -1.01547606e+00,  1.40688234e-01,
        -8.28588118e-01, -5.76687490e-01, -1.09793826e+00,
        -7.17035339e-01, -2.59436373e+00, -6.07931662e-01,
        -1.18937218e+00,  1.69561248e+00, -3.25549037e-01,
        -5.83826906e-01, -4.93796284e-01,  1.10697217e-01,
         1.82668690e+00, -3.93655720e-01,  5.98121559e-01,
         2.27492535e+00, -9.33278487e-02, -1.09447710e+00,
        -1.09809218e+00,  5.82129984e-01, -4.33642875e-01,
        -7.57175091e-01,  1.14901978e-01,  5.60935265e-01,
        -3.68682423e-01,  2.67150141e-01, -3.78685057e-01,
        -4.36803717e-01,  9.12971221e-01, -8.95739814e-01,
         3.27631120e-02,  1.54704040e+00, -6.29248241e-01,
         2.78010191e-01, -3.73509215e-01, -2.25918819e+00,
        -7.38656974e-01,  8.01972752e-01,  5.31698672e-01,
         9.31396420e-01,  1.92039850e+00,  6.79427276e-01,
        -4.18263708e-01,  1.21569143e+00, -1.20337173e+00,
         1.48287429e+00, -4.46517970e-01,  9.89921224e-01,
         5.79992394e-01, -9.70362996e-01,  2.25210363e+00,
        -1.07302263e+00,  8.85134703e-01,  4.07401312e-01,
         2.08190927e-01,  1.90405708e-01,  1.34626190e-01,
         6.51299637e-01, -4.93675865e-01, -3.88709826e-01,
        -4.95868308e-01,  5.64291640e-01, -1.13712726e+00,
        -1.09695785e+00,  2.05914949e+00, -7.10936144e-01,
        -3.03223525e-01,  4.70425222e-01, -1.89106798e+00,
        -1.46876697e+00,  5.35972679e-02, -2.50427816e-01,
         6.87473037e-02, -4.25839162e-01,  7.24206327e-01,
        -3.91528361e-01, -3.89042453e-01,  5.19803035e-02,
        -1.36390689e+00, -9.11985672e-01, -1.64351607e-01,
        -1.03732200e-01,  1.70048350e-01, -1.09788730e+00,
        -5.78892192e-02,  3.53402436e-01, -9.21923212e-02,
         4.89520080e-02,  3.95341537e-01, -4.74229557e-01,
        -9.02032578e-01, -2.11924015e+00,  2.06077889e-01,
         4.54615793e-01,  1.38917085e-01, -4.90421034e-01,
         3.70343055e-01,  8.25566694e-01,  9.34031818e-01,
         3.02112335e-01, -7.71114336e-02, -7.59483785e-01,
         7.84394736e-01,  5.63607685e-01, -3.04425310e-01,
        -4.49404479e-02,  1.52109529e+00,  1.36252135e-01,
        -1.27753571e+00,  8.65501372e-01,  5.28895674e-01,
         7.45461075e-01, -7.54624864e-01,  1.39695900e+00,
        -9.35122297e-01, -1.23516889e+00,  1.66557631e-01,
        -4.19889237e-01, -7.07714560e-01, -1.54639260e-01,
        -1.02163473e+00,  2.10797588e-01, -7.87352396e-03,
         9.93370876e-01, -6.24880052e-01,  1.08737717e+00,
         3.22534112e-01, -1.51716863e+00,  2.17931007e+00,
         1.22482598e+00, -2.71786169e-02, -8.90757284e-01,
        -4.50653151e-02,  1.11169331e+00, -2.94901236e-01,
         3.05026448e-02, -1.01879292e-01, -1.30316625e+00,
         7.57097578e-01, -1.18972802e+00,  7.62290989e-01,
         8.88900618e-01,  3.08921044e-01,  1.11935416e+00,
        -5.29735907e-01, -4.27327571e-01,  5.07523973e-01,
        -1.34319019e+00, -2.40776093e-01, -4.52346760e-01,
         1.25618845e+00, -6.53908852e-01, -4.71536184e-01,
        -1.08517621e+00,  1.17287744e-01, -1.24235911e+00,
        -6.43718254e-01,  1.09627380e+00,  3.97228609e-01,
         1.93733922e-01,  1.47031810e+00, -3.65996809e-01,
         4.62988034e-01,  1.17728959e-01,  3.68324386e-01,
        -6.27883132e-01, -7.45260149e-01,  2.25899953e-01,
        -4.79942793e-01, -6.80539028e-02,  8.12759957e-01,
        -6.85122289e-01, -3.86578338e-01, -5.54593430e-01,
        -3.63054127e-01, -8.00048586e-01, -5.35735466e-01,
         2.75843096e-01, -3.72531756e-01, -2.36008940e+00,
         3.61077303e-01,  3.40886985e-01, -9.06088222e-01,
        -8.69323268e-01, -7.03883151e-02,  2.25501054e+00,
         2.15302175e-01,  2.25432633e-01, -1.78884246e-01,
        -5.92885129e-01,  4.96405418e-01, -1.48430550e-01,
        -1.02810337e+00, -6.16951845e-01, -9.65019700e-01,
         7.14796186e-02, -5.22978936e-01, -6.78408015e-02,
         1.96390514e-01,  1.16158473e+00,  6.89841231e-01,
         2.04664711e+00,  1.31568121e+00, -1.97705720e-01,
         7.32652210e-01, -2.28124649e+00,  3.22101758e-01,
        -1.40391955e+00,  1.48091650e+00,  1.22575445e+00,
        -4.95575095e-01, -9.50736761e-01,  2.12744346e-01,
        -8.09764561e-01, -4.20427167e-02, -2.38474862e+00,
         7.72697821e-02, -1.86102683e-01, -7.84189220e-01,
        -1.64578133e+00, -2.01980034e+00, -1.25445190e-01,
        -1.19751928e+00,  1.42515651e+00,  1.40285688e+00,
        -1.18668881e+00,  1.65270585e+00,  3.71144521e-02,
         1.00694214e+00,  9.75994218e-01,  1.48086239e-01,
        -2.31717784e+00, -7.11024022e-01, -2.86275933e-01,
         5.64138582e-01, -8.66677827e-02,  9.49253510e-01,
        -3.16377737e-01, -1.53960172e-01,  1.75681143e-01,
         1.24620476e+00, -2.59663237e-01, -4.17725416e-01,
        -1.31909096e+00,  9.85958300e-01,  8.17430385e-01,
        -1.86868104e+00, -8.33056587e-01,  6.42790269e-01,
         1.19433963e+00,  9.09873229e-01,  2.94847490e-01,
         9.48848960e-01, -3.20159663e-01,  2.74209164e-01,
         7.04158577e-01,  1.59577026e-01,  2.16509719e-01,
        -1.48637916e+00, -1.12851049e+00, -9.62569093e-01,
        -8.68449763e-01, -1.74453149e-01,  8.24252013e-01,
         7.31916677e-01, -1.94953573e+00, -1.17420195e+00,
         1.59005608e+00,  3.01521414e-01,  3.59003869e-01,
         3.32830829e-01, -8.01995874e-01, -4.54397278e-02,
        -2.51461747e+00,  1.52379950e+00, -1.66302458e+00,
        -7.53584016e-01,  1.80984322e+00,  2.19923593e-01,
         2.42520149e+00, -1.76381926e-01,  1.05662904e+00,
         5.01997268e-01,  1.97610531e+00, -2.02353089e+00,
        -3.11662951e-01,  3.71649287e-01, -5.84404396e-02,
        -1.08459271e-01, -3.66158731e-01, -3.51909563e-01,
         7.01039958e-02, -3.80010913e-01, -7.48991825e-01,
        -4.58841989e-01,  1.59652472e-01, -1.27405975e+00,
         6.53431369e-01, -9.21834214e-01,  1.31738983e+00,
        -2.06586265e+00, -6.48456259e-01,  3.67281702e+00,
         1.72003578e-01, -3.29227365e-01,  6.81091723e-01,
         1.14610627e+00,  1.99868271e+00,  5.77911146e-01,
         2.41680689e-01,  1.60382688e-01, -2.63147067e+00,
        -6.52464436e-01, -1.16714614e+00,  4.34103627e-01,
        -1.54043851e+00,  6.03929531e-02, -2.08901556e-01,
        -2.15751123e+00, -2.34005629e-01,  5.99853743e-01,
         7.94566969e-01,  9.30247245e-03, -3.51487595e-01,
         7.81650176e-02,  1.02493325e-01,  1.31687189e-01,
        -1.31279541e-01,  4.72883139e-01, -6.91070563e-02,
        -1.52047110e-01,  1.83711265e-01,  1.00435495e+00,
         1.17654027e+00,  3.39653555e-01,  6.20581632e-01,
        -1.32312605e+00, -1.28345284e+00,  2.29605004e-02,
        -6.21529697e-01, -9.21535048e-01, -1.33815543e+00,
        -8.67926874e-01,  3.48518296e-01,  6.22306392e-01,
        -1.05777177e+00,  7.32377869e-01, -1.07189854e+00,
         8.98678572e-01, -2.35332851e-01,  4.44837321e-01,
        -1.19706713e+00, -3.82295807e-01,  1.08786036e-01,
         1.38221009e+00, -1.59229080e+00, -2.42041404e-01,
        -2.68774594e-01, -1.69968238e+00,  2.85688683e-02,
        -9.62489608e-01,  8.02707085e-01, -3.42484086e-01,
        -1.62916458e+00,  1.65201078e+00,  6.90269065e-01,
        -5.31863472e-01, -1.76248826e-01,  2.50667296e-01,
        -3.82873427e-01, -9.07471026e-01, -4.24555410e-01,
         1.46468768e-01,  4.19429394e-01, -6.90644398e-02,
         7.05370414e-01,  1.34666635e+00,  1.91771390e-01,
        -3.47550028e-01, -1.03311263e+00,  5.20532855e-01,
        -3.29882860e-01, -1.13333128e+00,  2.01270094e-01,
        -2.16879289e+00, -1.02373199e+00, -3.28945764e-01,
        -1.09033727e+00, -6.02690543e-01,  7.68671343e-01,
        -1.11955073e-01, -4.10134272e-01,  4.20834203e-01,
        -9.15412092e-01,  2.06015973e-01,  8.64423879e-01,
         4.63524513e-01,  2.07283288e-01,  1.26819953e+00,
        -2.13515296e-01,  1.63577080e+00,  1.09367756e+00,
         7.72163936e-02,  8.11605905e-01, -3.24003241e-01,
         3.38036531e-01,  1.12665972e+00, -4.32192116e-01,
        -7.63085986e-01,  3.00934480e-01, -1.22640078e+00,
         8.01112613e-02, -2.54143160e+00, -3.45557756e-01,
        -2.33462376e+00, -1.59719160e+00, -2.03946541e+00,
         1.52022592e-02, -2.67218562e+00, -1.18282784e+00,
        -9.78001683e-02, -9.99739614e-01,  9.22830483e-01,
         5.87706771e-03, -1.15101342e+00,  3.07525253e-01,
         1.44034918e-01, -2.68107563e-01, -3.28200934e+00,
         1.10933104e+00,  4.90616037e-01, -4.06464996e-01,
        -7.01999562e-01,  5.48637714e-01,  5.93611564e-01,
        -1.00786793e+00,  8.76841334e-01, -5.96967899e-01,
         3.25484837e-01, -1.12604418e+00, -4.67043231e-01,
        -1.41401466e+00, -1.81526592e+00, -1.09605637e+00,
        -2.09851498e+00, -1.44743457e+00, -1.21153398e+00,
         6.11678470e-01, -3.89598967e-02, -1.81287027e-01,
         2.36162706e-01,  1.38574535e-01,  7.79170732e-01,
         1.38163895e+00, -1.19045712e+00, -3.57545555e-01,
        -4.68145681e-01, -1.76059922e+00, -8.91125767e-01,
        -6.53961576e-02, -1.86538621e-01,  1.84667518e+00,
        -1.49723060e-01, -8.57828725e-01,  1.59952444e+00,
        -1.37059565e+00,  6.53116783e-01,  9.85982697e-01,
         1.39881753e-01, -6.95835481e-01, -3.53532441e-01,
        -1.62561142e+00, -6.76584072e-01, -1.28285170e+00,
        -1.12582378e+00, -3.73777867e-01,  3.09334581e-01,
        -1.99113174e-01,  1.29507344e+00, -3.14280583e-02,
        -1.20534688e+00, -6.69982614e-01,  7.87632146e-01,
         1.23140209e+00, -1.03058475e+00, -1.83656305e+00,
         9.11882487e-02, -3.07599891e-02,  5.77129447e-01,
         1.55835772e+00, -2.45966290e-01, -1.87695850e+00,
        -9.84466147e-01,  1.89289980e+00,  3.17791945e-01,
        -7.38130436e-01,  1.19488342e+00,  7.37371146e-01,
         3.04602788e-01, -4.23769783e-01,  1.56095724e+00,
        -9.63090502e-01,  9.28723491e-01, -2.00186762e+00,
        -3.23327320e-01, -5.14490301e-01, -4.25162405e-01,
        -3.29306017e-02,  9.97638617e-02,  1.07438140e-01,
        -8.30555166e-01,  1.30212225e+00, -1.44029590e+00,
        -1.30324745e+00,  4.16112289e-01, -7.28660922e-02,
        -3.30640903e-01,  5.55781212e-01, -2.71432770e-01,
        -1.67443635e+00, -6.59698863e-01,  2.70591186e+00,
         6.88743830e-01,  6.67750852e-01,  2.93250646e-01,
         5.11003923e-01, -1.12175509e+00, -6.02051153e-01,
        -8.85199478e-01, -9.38474171e-01,  9.93759919e-01,
        -1.14978965e-01, -1.13239735e-01, -6.56771496e-01,
        -5.62644516e-01,  4.31946542e-01,  7.34148867e-01,
        -8.91438205e-01, -8.89251061e-01,  1.29445326e+00,
        -3.27744058e-01, -1.14376041e+00, -6.92449132e-01,
        -2.68412101e-01,  1.58192543e+00, -5.89575055e-01,
         7.53641843e-01, -1.20600878e+00, -3.69160917e-01,
         1.64963888e+00, -1.07381274e+00, -1.80940550e-01,
         5.22583281e-01,  7.76279063e-01,  1.37565540e-01,
         1.55409841e+00,  3.78460552e-01,  4.48217129e-01,
         5.33406377e-01, -2.80220213e-01,  2.50344247e-01,
        -7.87003522e-01,  2.14367140e-01, -4.74239612e-01,
        -3.98509003e-03, -4.58977414e-01, -9.55012393e-01,
         3.49595938e-02, -9.78236724e-01,  2.67034427e-01,
         2.86621454e-02, -5.23372857e-01, -5.26783679e-01,
        -2.92377891e+00, -1.64601173e+00,  1.08091268e-02,
         1.26907623e+00,  6.91215250e-01,  1.10935592e+00,
         1.63644418e+00,  2.26137681e+00, -8.63219775e-01,
        -1.41780176e-01, -9.75278948e-01,  8.04907845e-01,
        -9.91621412e-01, -1.22977149e+00,  7.13565358e-01,
        -1.06565809e+00,  8.66327848e-01,  2.98244113e-01,
        -1.77856697e-01, -1.48844310e+00, -4.02285318e-01,
        -4.64347597e-01, -1.87978447e-02,  1.42816759e-01,
        -4.96336395e-01, -1.14430043e+00, -5.14530035e-01,
         9.85661951e-01,  1.25243236e+00,  9.20665625e-01,
        -6.90181338e-01, -2.01947960e-03, -2.04150333e+00,
         2.42982492e-01,  7.77482214e-01,  7.62920050e-01,
         1.98664856e+00,  5.93770874e-01,  2.11361567e+00,
         5.47717860e-01,  1.88999836e+00,  1.54182684e-01,
        -8.23694527e-01, -8.79873601e-01,  3.06770339e-01,
         8.33512261e-01, -1.08628674e+00,  7.48880194e-01,
         2.82769255e-01, -1.69089131e+00,  6.42972463e-01,
        -4.95359675e-01,  1.63541619e+00, -5.22583187e-01,
         5.48606847e-01, -8.75776013e-01, -8.00067490e-03,
        -1.02061815e-01, -4.05703675e-01,  4.53522293e-01,
        -1.18111236e+00, -2.23172688e-01, -5.37675182e-01,
         1.25932705e+00, -1.86057524e-01, -2.03562588e+00,
         8.28518657e-01, -5.95442887e-01, -1.21261444e+00,
        -1.41712834e-01,  5.85039887e-01,  1.92771020e+00,
        -1.45842372e+00, -5.60165861e-01, -1.82162548e-01,
         9.09290636e-02, -1.24281975e+00,  4.05500534e-01,
         1.86827746e+00, -4.72417085e-01, -7.73698645e-01,
         1.16601759e+00, -1.12791730e+00, -8.50178951e-01,
         9.60911347e-01,  7.82844239e-02,  6.36241767e-01,
        -1.43626391e+00,  2.27758253e+00, -1.06461654e+00,
         5.66102135e-01, -1.02582336e+00, -7.67805912e-01,
         8.23117123e-01,  2.16391959e-01, -6.21248819e-01,
         9.13179249e-01,  2.09714078e+00, -1.22717565e+00,
         5.93549543e-01,  3.73543527e-01,  7.20081356e-01,
        -8.92557427e-01,  1.67748848e+00, -1.22304237e+00,
         1.50223219e+00,  3.38232004e-01, -1.24238039e+00,
        -1.42876802e+00, -1.01061976e+00,  8.00306533e-01,
        -2.72342155e-01],
       [ 3.48467647e-01,  2.33980750e-01, -6.32851004e-01,
        -2.33061158e+00,  1.49043871e-01,  9.80562172e-01,
        -2.04701410e+00,  9.16477439e-02,  6.54254757e-01,
        -1.77496472e+00, -1.22747072e+00, -2.55733099e+00,
         3.41943485e-01, -1.44423514e-01,  1.34798772e+00,
         1.76254811e-01, -9.19986516e-01, -2.52586543e+00,
        -9.42367191e-02, -9.78305278e-01,  6.04803882e-01,
         8.55197007e-01, -3.34533561e-01,  2.73185508e-02,
         1.27147596e+00, -1.09143923e-01, -7.42857731e-01,
         8.12463796e-01,  1.31740020e+00,  5.73429414e-02,
         2.31599351e-01, -8.56590800e-01,  3.64079438e-01,
        -1.28232776e+00, -1.76595743e-01, -1.31926212e-01,
         7.59018406e-01, -9.58562560e-01, -9.65888627e-01,
        -4.32691980e-01, -7.24928502e-01, -1.07631002e-01,
         1.31044879e-02, -1.01967605e+00,  1.06698957e+00,
         8.73342074e-01, -2.88325113e-01, -1.06524097e+00,
        -1.65023817e+00, -3.89046797e-01, -5.80307326e-01,
        -5.07407900e-01,  1.21944993e+00,  6.36304512e-02,
        -7.07763411e-01, -1.38766045e+00,  1.32762749e+00,
        -4.45924203e-01,  4.53303057e-01,  1.59593808e+00,
        -5.46810207e-01,  6.97800658e-01, -3.62651876e-01,
        -1.09549807e-02,  9.89229778e-01,  8.74015460e-01,
        -1.42349483e+00,  3.23811089e-01,  1.55800264e+00,
         1.16254041e+00,  5.02619396e-01, -5.75455940e-01,
         1.37351791e+00, -2.75460372e-01, -1.42333149e+00,
         3.14044431e-02,  1.69389760e-02, -4.71197480e-01,
         1.82378820e-01,  4.17862089e-01,  1.79222486e+00,
        -6.58858318e-01,  6.55691363e-02, -1.46428785e+00,
         2.09979844e-01,  2.29964925e+00,  3.77989400e-01,
        -1.42958322e+00, -1.66558091e-01,  9.05493717e-01,
         1.00272610e+00,  2.13424397e-01,  1.15780170e+00,
         3.07266717e-01, -1.93544857e+00,  1.15404196e+00,
        -8.03133337e-01, -9.27726542e-01, -3.69838230e-01,
         6.11297626e-01, -4.84078409e-01, -5.49690618e-01,
         1.33153295e+00,  1.74822086e-01,  7.24790510e-01,
         9.52182831e-02, -1.85760189e-01, -1.71740518e-01,
        -8.48429297e-01, -2.99332784e-01,  1.31747232e+00,
        -1.55738767e+00,  1.57003417e-01,  6.47240900e-01,
         6.73943984e-01, -2.38624233e-01,  1.40302288e+00,
        -1.06164835e+00,  6.02339985e-01, -9.53403447e-01,
        -4.62003115e-01, -3.95209225e-01, -2.72732468e-01,
        -2.12196765e+00,  4.29127429e-01, -4.73222851e-01,
        -2.43086383e-01, -2.05975626e+00, -1.47436866e-01,
         6.03574059e-01, -1.70937653e+00, -8.59627072e-02,
         2.57587865e-01,  5.24280941e-01, -4.90108924e-01,
         7.20489465e-01, -1.03592440e+00, -4.97134910e-01,
         8.52245214e-01,  2.80124524e-01,  4.48555822e-01,
        -3.78860197e-01,  2.87079187e-01, -9.08447584e-01,
         9.86985375e-01,  1.67601045e-01, -6.04844605e-01,
        -1.95415366e+00,  2.20754242e-01, -1.28320417e+00,
         4.68577291e-01, -5.77726102e-01, -8.24326697e-01,
        -3.12343216e-01, -8.28905482e-01,  1.23877434e-01,
        -9.68310572e-01, -1.98953756e-01,  6.25486697e-01,
        -6.59686732e-02,  3.61883499e-01,  1.06963878e+00,
         1.64994443e+00,  1.77019763e+00,  5.66849123e-01,
        -2.00024806e-01, -1.00738664e+00,  1.80900594e-03,
        -1.29546152e-01,  4.15041685e-01,  1.33556097e-02,
        -3.69220110e-01, -2.50124556e-01,  5.00729148e-01,
         4.97831947e-01,  7.22442368e-01, -1.89891602e-01,
        -9.27189821e-02, -1.25317472e-01, -7.50331074e-01,
         2.52413126e-01,  1.55335264e-01, -5.90042778e-01,
        -1.55835797e+00,  5.50560017e-01, -6.41000357e-01,
         5.04742741e-01,  1.20582033e-03, -9.48989509e-01,
        -6.75625469e-01,  5.92376667e-01, -7.49281627e-01,
         6.78916525e-01, -9.54415287e-01, -1.31093187e-01,
         8.87932749e-01,  4.55328746e-01,  1.22602426e+00,
         1.02114855e+00, -2.32416944e-01, -8.85851426e-01,
         1.13914023e-01, -6.32300812e-01,  4.59317271e-01,
        -8.06642896e-01, -5.21406541e-01, -7.41767751e-01,
        -4.64536192e-01, -7.63796505e-01,  2.92502586e-01,
        -1.41913859e+00,  1.77262959e-01,  7.82575547e-01,
        -1.53082393e+00, -4.01430448e-01, -8.20587620e-01,
         1.06723930e+00, -1.35693228e+00,  1.42843333e-01,
         2.11213629e+00,  1.94229039e+00,  1.27144572e+00,
        -1.29707309e+00,  1.17963734e+00, -6.39505550e-01,
        -2.03419636e+00,  1.85017741e+00, -2.26312603e-01,
         1.39745934e+00, -5.47990693e-01, -6.91667591e-01,
        -1.25665920e-01,  8.38975816e-01, -1.25706657e+00,
        -1.36010491e+00, -1.72456908e-01, -1.91409460e-02,
        -1.13285763e+00, -7.03265752e-01,  6.96068288e-01,
        -5.01988749e-01,  7.53215197e-01, -8.02962154e-01,
         2.82814085e-01, -1.02861794e+00,  3.00113447e-01,
        -8.50363626e-01, -5.51665468e-01, -1.04305136e+00,
         1.42203537e+00,  1.80348613e+00,  2.19876190e+00,
         1.22075560e-01,  9.40393206e-01, -1.18763610e+00,
        -2.58960563e-01,  7.71392928e-01, -8.46110093e-01,
        -2.01647306e+00, -7.89886242e-01, -2.06408137e+00,
         3.39979811e-01,  4.48558235e-01, -1.19486351e+00,
        -5.39886545e-01, -7.58288681e-01, -1.06001919e+00,
        -2.19634602e+00,  2.31519563e-01, -1.09015207e+00,
        -2.40230841e-01,  4.97137204e-01, -4.20116581e-01,
        -3.81344407e-02, -1.39302889e+00,  9.24071708e-01,
         4.24683750e-01, -4.30489930e-01, -4.60181726e-01,
        -6.61936487e-01,  8.35715938e-01,  1.02423615e+00,
         2.90072660e-01, -6.90886732e-01,  3.67095929e-01,
         1.30842194e+00,  2.56061615e+00,  1.77284803e+00,
        -4.89300491e-01,  1.41197310e+00, -9.89650881e-01,
         1.81969450e+00, -3.69987024e-02,  1.13398786e+00,
         8.53964124e-01, -1.15267888e-01,  5.05586315e-01,
         3.34662689e-01, -2.49200470e-01, -1.67281214e-01,
        -5.81214334e-01,  1.78388960e+00,  1.11707603e+00,
         2.99319573e-01,  7.28153211e-01,  1.91288145e-02,
         4.90507541e-01, -2.76652502e-01,  3.10880091e-01,
         7.79124014e-01,  4.50473559e-02,  3.36408702e-01,
        -1.00606541e+00,  7.82883910e-01, -1.04326169e-02,
         1.86729527e+00,  9.73451870e-01,  1.37298048e+00,
         2.17332380e+00,  2.43778286e+00,  3.13726103e+00,
         3.27631420e+00,  7.13332739e-01, -1.97660038e+00,
        -1.35854041e+00, -1.97905018e-01,  6.25597659e-01,
        -2.80357231e-01,  1.19722001e+00, -3.97184363e-01,
        -3.81027675e-01,  7.54278025e-01,  5.94642261e-01,
        -9.09052373e-01, -9.76718687e-01,  1.28872659e+00,
         3.95737759e-01,  3.17189005e-01, -1.08482279e+00,
        -1.61333521e+00, -3.52960544e-01,  2.19953352e+00,
         3.26956332e+00,  2.28205186e+00,  3.74597518e+00,
         1.95123392e+00,  2.89046114e+00,  2.19246274e+00,
         1.29534628e+00,  2.75360830e+00,  8.85833741e-01,
         9.14600763e-01,  1.43253171e+00,  1.01949738e-01,
        -3.13386773e-01,  3.61866769e-01,  4.45341228e-01,
         3.40808017e-01, -2.44621083e-01, -2.78165011e-01,
         7.48602860e-01, -8.13815446e-01, -2.13258921e-02,
         9.56926632e-01,  5.84267780e-01,  1.02379429e+00,
         6.25113987e-01, -1.67234276e-01,  4.89327064e-01,
         1.68882248e+00,  2.86554195e+00,  1.87457788e+00,
         3.92610030e+00,  2.25324960e+00,  1.76693853e+00,
         1.81047740e+00,  6.53511547e-01, -5.60338644e-01,
        -5.38508340e-01,  6.57769768e-01, -9.09924236e-01,
        -2.57327828e-01,  4.34278989e-01, -5.75367125e-01,
        -6.97414467e-01,  1.16141418e+00,  1.61488133e+00,
         2.21365531e+00, -2.91255633e-01,  4.78082428e-01,
         3.78397550e-01,  1.15492682e+00, -1.73564866e-01,
         2.81789476e-01, -6.57615899e-01, -4.98222377e-01,
         6.24870131e-01,  1.83825113e+00,  4.69570275e-01,
         5.23283360e-01, -7.95424608e-01, -9.68422617e-01,
         3.68359244e-01, -1.18123940e+00, -3.56501055e-01,
        -5.33558281e-01, -9.35942960e-01,  3.68768182e-01,
        -1.47386109e-01, -8.54030446e-01, -3.64517732e-02,
         7.68147954e-01,  7.68585313e-01, -5.99693869e-01,
         9.92957690e-01,  9.85326090e-01,  8.30409603e-02,
         4.83049860e-02, -1.59211973e+00, -3.77764602e-01,
         3.65742377e-01, -9.81093728e-01,  1.27886187e+00,
        -2.00166066e+00,  1.76913598e+00,  8.94530843e-01,
         1.13033107e+00, -1.09864307e-01,  8.49166145e-01,
        -3.18373704e-01, -6.31046440e-01, -1.08547047e+00,
         4.58434847e-01,  8.50482406e-02,  3.99629980e-01,
         1.15633579e-01,  7.65668652e-01,  3.91673227e-01,
        -5.36676850e-01, -5.52045522e-01,  8.37436116e-01,
        -1.03565034e+00,  1.00472368e+00,  2.64207216e-01,
        -5.61815816e-01, -3.63723321e-02,  5.48803262e-02,
         4.88131277e-01,  4.61782812e-01,  1.04090754e+00,
         1.55362525e-01, -7.53898335e-01, -7.65981503e-01,
         6.87416915e-01, -3.34742659e-01,  3.29114680e-01,
         1.19814042e+00,  1.21248070e-01,  2.00098115e+00,
         1.10893154e-01,  8.21024602e-01, -1.53380105e+00,
        -3.53537368e-01, -5.07703041e-01, -9.15762095e-02,
        -2.27520157e-01,  6.60823816e-01,  1.91420666e-01,
        -8.34580581e-01, -3.03250272e-01, -4.92817555e-01,
        -3.74287129e-01, -1.51732928e-01,  7.13081847e-01,
        -9.84645507e-01,  3.37305925e-02, -9.25832189e-01,
        -4.23815452e-01,  5.53799450e-01,  1.10860516e+00,
        -2.17382454e+00, -6.75235394e-02,  7.68808700e-01,
        -1.44681027e+00,  4.47281720e-01,  6.72883838e-01,
         1.04527538e+00, -1.54198871e+00,  9.31048523e-01,
        -3.23230342e-01, -9.50152512e-01,  6.20378080e-02,
         4.11400722e-01, -4.29288477e-01, -8.05833970e-01,
         1.35801055e+00,  1.94652089e-01, -5.26986636e-02,
         5.62132588e-01, -1.24791148e+00, -6.89060853e-01,
        -8.29544727e-01, -3.49142285e-01,  3.07269045e-01,
        -4.51389372e-01,  9.01044655e-01, -1.29155343e+00,
        -6.00254672e-01, -9.92889970e-01, -2.24417067e+00,
        -1.53613839e+00, -5.22322831e-01, -1.70882402e+00,
         1.85494256e-01, -2.59963174e-01,  1.29311912e+00,
         6.74160517e-01, -5.80122229e-01, -5.10249066e-01,
        -9.40456938e-01,  3.02493557e-01, -8.98320795e-01,
         6.20448603e-02, -1.42182569e-01, -4.00264096e-01,
         6.72908917e-01, -3.59221189e-01, -1.33351525e+00,
         5.59758539e-02, -5.26717129e-01, -5.58121089e-01,
        -2.86931250e-01,  3.10582960e-01,  7.97894223e-01,
         6.87126536e-01, -5.34597527e-01,  4.11033994e-01,
        -4.64529350e-01,  3.98212805e-01,  8.01639164e-01,
        -5.65386251e-01, -5.88682070e-01, -2.02346448e-01,
        -7.71899493e-01,  3.83613751e-02, -2.72468213e-01,
        -7.01050572e-01, -3.89773403e-01,  7.00864808e-01,
        -5.28755013e-01, -3.81969363e-01, -5.31771103e-01,
        -3.42213860e-01, -1.95512565e+00,  2.14588067e-01,
         1.25416802e+00, -1.07228264e+00,  2.26923384e-01,
         7.96178052e-02,  6.57422917e-01,  3.47128459e-01,
         2.07807514e+00,  1.49261930e-01,  8.65303323e-02,
        -9.98483713e-01, -1.30874610e+00, -2.14357858e+00,
        -5.13054417e-01, -8.34328761e-01,  3.47649120e-01,
        -2.18071645e-01,  5.83818321e-02, -5.81042030e-02,
         7.26115487e-01,  2.42470662e-01,  6.47637762e-01,
        -6.60020015e-01,  1.21475343e+00, -2.98163644e-01,
         3.50056950e-01,  8.60542029e-02,  1.19055905e+00,
        -5.34702507e-01, -7.47870267e-01,  2.29675037e-01,
         8.62417883e-01,  7.04254021e-01, -2.39264540e-01,
        -5.34697714e-01,  8.11386668e-01, -4.09841037e-01,
         1.38359740e-01, -4.37648819e-01, -1.07080950e+00,
         4.69204705e-02, -1.24286360e+00,  8.06554088e-01,
        -2.27369242e-01, -5.61278214e-01,  6.70566383e-01,
         2.77366098e-01,  2.87525031e-01, -4.68568370e-01,
        -1.83781722e-01,  3.30389112e-01, -4.31869648e-02,
        -2.94579674e-01, -1.58944182e-01, -1.27133743e+00,
        -2.82029635e-01, -1.95058289e+00, -2.71578575e-02,
        -8.61964138e-01,  2.54381730e-02,  2.89677552e-01,
        -7.18737143e-01,  6.67128286e-01, -1.69340972e-01,
        -4.82218898e-03, -1.46976294e+00,  1.37556243e-02,
         9.25582355e-01,  6.91016145e-01,  8.92338252e-01,
        -4.37349081e-01,  2.97514204e-01,  2.07151478e-01,
        -2.98252662e-01,  1.60227565e-01, -9.38824419e-02,
         1.65300051e+00, -1.70859580e-01, -6.54334569e-01,
         9.42589476e-01,  1.69301258e-01,  1.22339176e+00,
        -6.59316098e-01,  1.25634533e+00,  9.51564174e-02,
        -3.01849223e-03,  3.29317688e-01, -2.16880071e-01,
        -8.49024372e-01, -9.70196832e-01,  2.40029894e-01,
         3.69209290e-01,  3.00245901e+00, -2.26477125e+00,
        -7.58627125e-01, -7.80102691e-01, -6.36046883e-01,
        -5.42702214e-01, -1.29598631e+00,  2.35794855e-01,
         7.42851755e-01,  1.10417710e+00,  5.49185499e-01,
         2.03526368e+00, -4.80793733e-01,  1.34632594e+00,
         1.31325513e+00, -1.29408684e+00,  3.88284377e-01,
        -4.34979319e-01,  9.12263767e-01,  3.25570425e-01,
        -1.40279224e+00, -8.77674852e-01,  6.11198555e-01,
        -6.28154367e-01,  1.67944927e+00,  4.69379594e-02,
         1.02166184e+00, -4.46646614e-01,  1.75431643e+00,
         8.83945673e-01,  4.38362374e-01,  2.86695806e-01,
        -1.05564903e+00,  7.70336767e-01, -9.77604430e-01,
         2.07358834e+00,  3.23276547e-01,  4.51203884e-01,
        -8.97536632e-01, -5.53614780e-01, -2.93300408e-01,
        -3.71649779e-01,  8.97692354e-01,  1.42454086e+00,
         3.70358715e-01,  9.11490974e-01, -6.95922159e-01,
        -5.09895104e-01,  8.24308912e-01,  2.16943835e-01,
         2.19654607e-01, -1.09780925e-01, -1.12988367e-01,
         1.50376575e-01, -5.62707353e-01,  3.30630025e-01,
        -5.31691210e-01,  6.67036225e-01, -1.85721574e+00,
         1.39755835e-01, -1.08077451e+00, -1.14043266e+00,
         6.97971271e-01, -6.05768715e-01, -1.70255259e+00,
        -1.78166592e-01,  2.08155416e-01, -5.29121470e-01,
         1.41034362e+00, -9.59320460e-01, -4.95706073e-01,
         1.91108021e-01,  2.18225421e+00, -3.70087200e-01,
         1.19325436e+00, -2.39156352e+00, -7.09129975e-02,
         2.29153688e-01, -1.28960967e+00,  2.61645448e+00,
         1.16267788e+00, -7.67897163e-01,  4.68874848e-01,
        -1.11620513e+00,  1.37067131e+00, -1.33743406e+00,
         3.53867929e-01,  1.37065073e-01,  1.31091837e+00,
        -1.45112458e+00, -6.33308997e-02,  1.54285614e+00,
        -5.44481193e-01, -1.63565412e+00, -1.01607904e+00,
         1.21527948e+00, -7.45565507e-01, -3.37377346e-01,
        -9.47585283e-01, -2.56439096e-01, -3.52782151e-01,
         1.51473354e+00,  3.44293007e-01, -2.07525719e+00,
         2.79393741e-01,  1.71466993e+00, -8.44483528e-01,
        -1.53932733e-01,  1.98945576e+00,  4.41851797e-01,
        -1.77879225e+00, -7.79894374e-01, -9.10677148e-01,
         1.40941003e+00,  1.10959138e+00,  2.45881117e-01,
         4.81551086e-01,  9.02918120e-02, -7.92765138e-01,
        -6.53763488e-01,  1.03095681e+00,  1.12036803e+00,
        -2.04712159e-01,  1.20899981e+00, -1.55036600e+00,
         3.97572123e-01,  1.11180207e+00,  1.27744979e+00,
        -8.23717925e-01,  1.26319015e-02,  1.91446969e+00,
         8.17148081e-01, -4.24821092e-01, -4.72047147e-01,
        -8.41234000e-01,  9.05955727e-01,  2.55420113e-01,
        -6.89417765e-01],
       [-9.75972325e-01,  6.37963104e-01, -3.19829981e-01,
        -1.18521809e-01,  3.76828756e-01, -1.19249234e+00,
         1.78799937e+00,  5.35848162e-01,  3.03213648e-01,
         7.97834998e-01,  3.40188465e-02, -1.15968845e-01,
         2.64772254e-01,  9.33019173e-01, -3.04562149e-01,
        -3.27317186e-01,  1.01273007e+00,  1.31414933e+00,
        -3.59458881e-01, -6.67084636e-03, -5.27788052e-01,
         1.10506421e+00,  1.27842614e+00,  6.53473643e-01,
         9.77072614e-01, -1.25398223e+00, -4.87804742e-01,
        -5.48567928e-02, -1.27489385e-01,  7.23311538e-01,
         8.96982308e-01, -1.14984136e+00, -4.71637156e-01,
        -6.93865288e-02, -1.65410310e-01,  1.20345433e+00,
        -5.81014190e-01,  1.47852158e+00,  1.52132498e+00,
        -4.69926999e-01,  8.68664267e-01,  3.90915636e-01,
         1.40285314e+00, -6.91773493e-01, -2.52377800e-01,
         1.09438509e+00, -3.39558287e-02, -6.30165334e-01,
         3.72492151e-01, -2.08340336e+00,  1.21622024e+00,
        -3.28066656e-01,  1.16041202e+00, -1.07783999e+00,
         2.01875140e-01, -1.25074219e+00, -1.20012815e-01,
         1.06181180e+00,  3.01589489e-01,  1.19773796e+00,
         1.21064469e+00,  5.66252586e-01,  6.92419623e-01,
         8.86402024e-01, -1.19504617e-01, -5.88176429e-01,
         1.31339241e+00, -3.38044430e-01, -1.37389219e-02,
        -9.95231494e-01,  3.73237117e-02, -1.60256141e+00,
         9.97910360e-01, -2.11074526e+00,  1.58049772e+00,
        -9.72417924e-01,  6.93554351e-01,  1.65130468e-02,
         7.19778786e-01, -1.30028745e+00,  3.50291734e-01,
        -3.76661104e-01, -3.84111338e-01, -1.11128167e+00,
        -1.93643434e-01,  2.70689506e+00, -8.66477306e-01,
        -1.61552435e+00, -2.28944895e-01, -4.31755355e-01,
        -4.21711517e-01,  6.02183602e-01, -4.78239673e-01,
        -1.00636391e+00, -7.30396890e-01,  1.90439036e-01,
        -3.39157297e-01,  3.51682810e-01, -1.41210264e+00,
        -1.85888758e-01, -4.10741133e-02, -2.82107553e-02,
        -1.75672483e-01, -1.72276083e+00,  7.27316023e-01,
         4.15737454e-01, -5.32233256e-01, -6.72494167e-01,
         1.59106976e+00, -2.69875921e-01, -5.46644740e-01,
        -1.25632024e+00, -3.13510699e-01,  1.06191397e+00,
         1.19765337e+00,  6.36051301e-01, -6.53524635e-01,
        -1.48624354e+00, -6.07163649e-01, -4.23610648e-01,
        -3.11587066e-02,  8.25255797e-01, -1.92753908e-01,
         9.66475140e-02,  7.11694249e-01,  3.30837627e-01,
        -2.41300478e-01, -1.27290890e+00, -3.75575281e-01,
        -9.78328233e-01, -8.69021804e-01, -1.08704699e-01,
         5.80017270e-01, -4.95267473e-01,  6.77540512e-01,
         8.49242700e-01,  1.89555521e+00, -3.48215901e-01,
        -7.23014616e-01,  9.00437957e-01,  8.54614489e-01,
         7.92928766e-01,  2.00515764e-02, -1.75288340e+00,
        -1.88769429e-01,  1.20895137e+00, -6.32775978e-01,
        -6.73251474e-01, -6.97271601e-01, -1.36214600e+00,
         1.71489751e+00,  3.73891221e-01, -6.36299345e-02,
         3.01957449e-01, -1.55085467e-03, -1.40294535e+00,
         3.42138800e-01, -1.88999687e-02,  1.63816971e+00,
         2.45353750e-02,  7.26174068e-01, -2.60829751e-02,
        -1.24496665e+00,  9.40266393e-01, -2.25937647e-01,
        -3.33272438e-01,  1.02549216e+00,  1.22935146e+00,
         6.87527879e-01,  4.88722425e-01, -1.79201715e+00,
         4.52466282e-01,  1.17518433e-01,  7.67578586e-02,
        -1.68516801e+00, -8.18125050e-01, -1.22094938e+00,
         9.56255510e-01,  6.57416947e-01, -4.80214554e-01,
         2.82384102e-01, -1.03909760e+00, -6.53605164e-01,
        -1.25280157e+00,  1.04468606e+00,  2.51988053e+00,
         7.41868431e-01,  4.57055944e-01,  2.29399905e-01,
         2.48356430e-01,  1.89609886e+00, -7.06042612e-02,
        -2.05713550e+00,  7.91162337e-01, -2.93004541e-01,
         1.58832867e+00, -7.82967150e-01, -4.41510330e-01,
        -4.22804020e-01, -9.18150552e-02, -1.22278974e+00,
         1.66106033e+00, -2.78495705e-01, -2.47258472e-01,
        -7.38224886e-01,  1.71660934e+00,  1.95208711e+00,
         8.56917330e-01,  9.11616421e-01, -1.32650408e-01,
         4.23795380e-01,  4.13748038e-01,  5.60350680e-01,
        -1.28932474e+00,  3.45428986e-01,  1.19179561e+00,
         1.59293213e-01, -4.32742426e-01, -1.73717769e-01,
         2.59322309e-02, -1.34670074e+00, -2.41452073e+00,
         3.15862024e-01, -8.29431935e-01, -3.48713907e-01,
        -2.71524520e-01,  5.29180814e-01, -8.68630304e-01,
         1.30835079e-01, -2.71549794e-01,  1.40253696e+00,
        -8.56747472e-01, -1.02411071e-01, -1.01473560e+00,
        -4.66778661e-01, -1.21925746e-01,  5.97378044e-01,
        -4.72676128e-01,  1.54706056e+00, -1.61006226e+00,
         2.47739100e-02,  8.93706099e-02,  4.94083524e-01,
        -1.49851933e+00,  7.63654586e-01, -8.32699074e-01,
        -2.28797087e-02,  1.20506170e+00, -4.76130112e-01,
        -9.47630590e-01,  3.75033902e-01,  1.18619209e+00,
        -7.54275333e-01, -5.62423740e-01,  2.96993328e+00,
         4.08158417e-02, -2.01656639e+00, -4.02846136e-01,
         1.27720731e-01, -1.61294982e-01, -2.06959370e+00,
        -1.68295161e+00, -1.44727735e+00,  1.16119027e+00,
         1.27408590e+00,  6.01526262e-01,  1.03169982e+00,
         9.03679807e-01,  1.13864506e+00,  2.12962745e+00,
         4.02476302e-01,  1.37071111e+00, -2.12390084e+00,
         1.64625058e+00, -9.05335842e-01, -8.98360187e-01,
         1.09196594e+00, -8.69243804e-01, -1.21278353e+00,
         1.00952045e+00,  1.30970406e+00,  1.98831604e+00,
        -5.51656483e-01,  3.92232058e-02, -5.32949186e-01,
         4.22610729e-01, -9.73764648e-01,  3.77268225e-01,
        -3.84828279e-01,  1.03540308e+00,  6.86425468e-01,
         6.36385781e-01,  1.52269401e+00, -1.32332221e+00,
         4.34507770e+00, -7.16731899e-01,  9.43731914e-01,
        -1.40476320e+00, -9.47417668e-02,  2.09388496e+00,
         4.44024258e-02, -1.06414529e+00, -2.96059748e-01,
        -6.70621490e-01, -1.65371308e+00,  2.82664518e+00,
         1.72357891e+00, -1.43237639e+00,  1.01181919e+00,
        -8.47754741e-01, -9.64915574e-01, -1.55332114e+00,
         7.38921747e-02,  3.17963995e-02,  1.31036727e+00,
         3.90905938e-01,  5.37998911e-01,  2.69667465e-02,
         1.96448247e+00, -8.53557765e-01, -6.45079582e-01,
         2.13755637e+00, -1.41745761e-01, -2.56766842e-01,
        -6.30622636e-01,  4.07365445e-01, -1.21650485e-01,
        -2.33075077e-01, -6.73149414e-01,  4.82883975e-02,
        -4.72637348e-01,  3.79279984e-01, -8.43990300e-01,
         2.17904340e-01,  6.21063587e-01,  8.47600804e-02,
         7.88373568e-01, -8.70188275e-01, -5.24598805e-01,
        -1.81846114e+00,  1.14316006e+00,  1.57180635e-02,
        -1.28766639e+00, -5.59291460e-02,  9.97653068e-02,
         6.40474570e-01, -1.19329045e+00, -9.12485342e-01,
         5.34997392e-01,  1.58568539e-01, -1.89578532e-01,
        -5.45944816e-01,  8.40656489e-01,  1.22685631e+00,
         1.25956057e+00,  1.72495444e+00,  2.00869846e+00,
         2.77313990e-01,  1.01363668e+00, -5.58852294e-01,
        -1.25025039e+00,  2.16133119e-01, -1.16672452e+00,
        -1.03025336e+00,  6.16458905e-01, -4.02066161e-01,
         7.04254458e-01,  6.65998516e-01,  2.12564460e+00,
        -8.40414853e-01, -4.21761001e-01,  5.30962157e-03,
         3.85500688e-01,  1.27038500e+00,  1.58283493e+00,
         1.83170023e+00,  6.03844490e-01,  5.52009092e-01,
        -3.87787531e-01, -2.87868711e-01,  1.06440809e+00,
        -7.76136321e-01,  8.47666393e-01,  1.39749142e-01,
        -5.78194772e-01,  1.02625927e+00, -1.08670762e+00,
        -9.38194727e-01, -5.93493745e-01, -6.16609689e-01,
         7.99929058e-01,  1.73001042e-01,  1.52252043e-01,
        -1.50289793e+00, -1.64703364e+00, -3.28781533e-01,
        -2.03404359e-01,  8.33341883e-01, -5.35276524e-01,
         2.31257284e+00,  3.22437918e-01,  8.70407101e-01,
        -2.39161092e-01,  5.06692872e-01,  2.67493214e-02,
         1.75084623e+00,  1.44971332e+00,  6.63977439e-01,
        -9.52944454e-01,  1.56156718e+00, -8.94983427e-01,
        -5.41166655e-01,  5.95238585e-03,  8.12122135e-01,
         1.97564476e+00, -1.06957972e+00,  1.87015644e+00,
        -1.09389377e+00, -6.15557705e-02, -8.29016186e-01,
         3.59529303e-01,  1.35502203e+00, -1.30378248e-01,
         1.12120557e-01, -1.50050705e+00,  9.19796289e-01,
        -5.23782379e-01, -4.81449969e-01, -7.08449186e-01,
         1.21329258e+00, -1.69286709e+00, -1.51964273e+00,
         1.03084628e+00,  4.65536884e-01, -1.23497367e+00,
         1.21745295e+00, -1.32909315e+00,  1.13661865e+00,
        -2.35427133e-01,  4.38267818e-01, -5.06320670e-01,
         3.63272462e-01,  8.67675331e-02, -6.12814801e-01,
        -3.72958885e-01,  6.01532405e-01, -8.18462901e-01,
        -7.70799250e-01,  1.75677611e+00, -9.11532599e-01,
        -1.13825990e+00,  6.83923047e-01, -3.13294778e-01,
         4.38933065e-01,  8.16259346e-01, -1.73792768e-01,
         2.29098716e-01,  7.05664900e-01,  8.44083320e-02,
        -5.28382562e-01, -1.62504501e-01,  1.43718601e+00,
        -1.49344069e+00,  1.12321489e-01, -8.50878867e-01,
         7.33748584e-01,  7.82016015e-01,  1.37659539e+00,
        -1.23254633e+00,  4.00756078e-01, -1.58254285e+00,
         1.10288475e-01, -2.47045533e+00, -1.34700108e+00,
         3.41839187e-01,  9.60098419e-01,  3.05135691e+00,
         3.56605843e-01, -8.14078819e-01, -1.89062812e+00,
        -2.70369779e-01, -2.05133428e+00, -2.02046481e+00,
        -7.27194229e-01, -4.75671133e-01, -6.42767823e-01,
         1.87276700e-01,  1.44806401e-01, -7.86122122e-01,
         9.96640922e-01,  1.58897651e+00,  5.88147674e-01,
        -3.95613677e-01,  4.96442936e-01,  4.48683031e-01,
        -2.17489612e-01,  1.31084197e+00,  4.94041306e-01,
         1.67566811e+00, -6.16529787e-01,  7.44896421e-01,
        -1.44601057e+00,  5.55946706e-01,  1.44587350e+00,
        -3.06657839e-01,  1.03068254e+00,  4.90523113e-01,
         1.58734280e+00, -1.31733280e-01,  3.05474767e-01,
         6.23340415e-01,  1.25911230e+00,  1.38389112e-01,
         1.55289211e-02,  1.30693723e+00,  1.37657699e+00,
        -2.31042797e+00,  3.40497214e-01,  1.23150869e+00,
         6.20357279e-01,  8.03482922e-01, -4.03351190e-01,
        -5.61155281e-01,  1.15468019e+00,  1.33706536e+00,
         1.56256712e+00, -1.21267257e+00, -8.61709952e-01,
        -8.25853810e-01,  1.85258663e+00, -7.46690047e-01,
        -8.36516151e-01,  9.73694820e-01,  1.27847802e+00,
        -1.49769593e+00, -6.68945922e-01, -6.20084751e-01,
         3.63919704e-01, -4.99424516e-01,  1.23944687e-01,
        -5.76596145e-01,  8.72952868e-01,  4.87485950e-01,
         7.34712962e-01, -5.82697368e-01,  2.00754533e+00,
        -9.67919529e-01, -5.30975809e-02,  2.14647203e-01,
        -7.59547883e-01,  1.34957715e+00,  2.86703015e-01,
        -2.18398118e-01, -9.48639657e-02,  7.48083722e-02,
        -1.53645791e-01,  1.72237083e+00,  4.76625492e-01,
         6.66427468e-02,  3.66368528e-02, -1.43969817e+00,
         1.34420918e+00, -6.36372337e-01,  7.86606445e-01,
        -2.51557310e-01,  1.70658750e+00, -1.23039261e+00,
         6.26833854e-01,  8.15528693e-01,  2.55425422e-01,
        -1.43752353e+00,  1.53528123e+00,  3.79300116e-01,
        -2.06888316e-01, -4.70164044e-01, -2.37473043e-01,
        -1.77928976e-05, -8.52484104e-01, -3.53289771e-01,
         4.45862286e-01, -5.88167086e-01, -5.22266064e-01,
         7.47064664e-01,  1.25030244e+00,  1.35799756e+00,
         2.34829807e+00,  1.40895114e+00, -5.01431891e-01,
        -1.09572646e+00,  9.26023848e-01,  1.17833092e+00,
         9.45425242e-01,  1.18606051e+00,  7.82961723e-02,
        -7.09172930e-01, -1.21147258e+00,  9.00343215e-01,
         4.64940570e-01,  4.66622312e-03,  4.66357681e-01,
         7.05505579e-01,  1.31784521e+00,  6.08908514e-01,
        -8.19949634e-01, -5.78374658e-01,  2.33648610e-01,
        -1.44549154e+00, -3.18669370e-01, -6.05588838e-01,
        -1.16136093e+00, -5.89906646e-01,  4.12041000e-03,
        -2.20723153e+00,  9.37203943e-04, -4.54474164e-02,
         9.52991634e-01, -3.82164200e-02,  2.50600323e+00,
         1.08091478e+00, -2.41052168e-01, -1.31869397e+00,
        -1.54315932e+00,  3.02279678e-01,  8.27304769e-01,
         1.68727193e+00, -5.37536654e-01,  4.71459236e-01,
         2.57279604e-01,  3.25053917e-01,  2.75284822e-01,
        -6.22071996e-01,  8.52213644e-01,  6.25279789e-01,
        -8.62949360e-01,  1.83165274e-01, -1.63002879e+00,
         3.68654714e-01,  4.31990332e-01,  2.95784807e-02,
        -2.42701502e-01,  1.36479869e+00,  6.09242285e-01,
        -2.98902134e+00, -3.83304044e-01, -1.02818965e-01,
         1.77171561e+00,  1.20388985e+00, -2.12994918e+00,
        -8.97654256e-01, -8.78944847e-01,  6.87663720e-01,
        -2.18565834e+00, -1.87282240e+00, -1.96408139e+00,
        -1.22716644e-01,  3.93026882e-01,  1.05683447e+00,
        -1.76970038e+00, -2.97054344e-01, -4.54296164e-01,
         5.17446640e-02, -1.22464903e+00,  9.86604422e-01,
        -9.89063483e-01,  1.23011771e+00,  7.57048693e-01,
        -8.66301763e-02, -3.64629398e-01, -1.73514297e+00,
         3.94497229e-01, -9.52872948e-01,  2.53360795e-01,
         3.34296928e-01,  2.46354559e-01, -2.20277315e-02,
        -4.59629768e-01,  1.10954680e-01, -1.28976415e+00,
         9.74768045e-01,  1.32785803e+00, -1.14515229e+00,
        -6.45595436e-02, -6.40534190e-01,  2.07404181e+00,
        -6.30628569e-01, -7.91259788e-01,  1.07108413e+00,
         1.04981962e+00, -3.18870831e-01,  2.17155202e-01,
        -6.27692663e-02,  2.10161592e+00,  1.28695788e+00,
         6.62713326e-01, -8.49340757e-01,  6.97957350e-01,
         1.89052707e-02, -1.34682571e-01,  3.30818130e-01,
         8.19015971e-02, -1.26040200e-01, -1.26624697e+00,
         6.73518794e-02,  3.45811311e-01,  2.06554343e-01,
         2.39155331e+00,  3.75700188e-01,  5.98740693e-01,
        -1.79281112e+00,  3.18587705e+00,  3.14445518e-01,
         7.35668421e-01, -9.65994169e-01, -4.31328071e-01,
        -1.39029253e+00, -7.39544640e-03, -1.08230280e-01,
        -5.14571527e-01,  1.10160790e+00,  2.17003527e-01,
        -3.89526107e-01,  3.60359982e-01, -7.61457123e-01,
        -1.23955153e+00, -7.79685490e-01, -2.84302328e-01,
         1.92463181e+00,  1.92150435e+00,  1.60783976e-01,
         5.97029862e-01, -6.67864987e-01, -4.84113733e-02,
         5.20154361e-01,  5.73174679e-01,  6.89873645e-01,
         1.46429692e+00,  6.23680030e-01, -8.14589079e-02,
        -1.74322655e-01,  7.88004851e-01, -2.04672401e+00,
        -8.70006665e-01,  1.59570911e-01,  1.03018618e-01,
        -6.14156741e-01,  4.78645819e-01, -1.10404328e+00,
         1.68644670e+00, -1.23182754e-01,  6.75976459e-01,
        -2.18678120e+00,  2.04980012e+00,  1.35818134e+00,
         4.31465848e-01, -2.85745691e-01,  1.00374074e+00,
         7.60281319e-01, -4.94764170e-01, -1.01924926e+00,
        -1.65584729e+00,  3.38798077e-01, -9.26751045e-01,
         4.38408768e-01, -3.21593791e-01,  2.69132162e+00,
         6.09641575e-02, -3.98553698e-01,  6.62672654e-01,
        -1.70562763e+00,  1.24167950e+00,  5.10959887e-01,
        -7.73457698e-01, -1.59737024e+00,  1.08878647e+00,
         2.81433417e-01, -9.69528421e-01, -4.68872647e-01,
        -2.15811617e-02, -3.36385423e+00, -7.57941757e-01,
        -1.17743051e+00,  3.43245507e-02,  2.85769360e-01,
        -2.43275046e-01],
       [-2.42952150e-02,  1.99077441e+00,  1.16403894e-01,
        -1.74386938e-01,  1.22592742e+00, -2.14611449e+00,
         2.22212191e+00, -4.38670554e-01,  3.50487043e-01,
        -6.18218674e-01, -7.92043934e-01, -3.39338579e-01,
        -1.03432963e+00,  5.79331102e-01,  1.02790051e+00,
        -9.41793564e-01,  1.21030151e+00, -2.62338688e-02,
        -7.05933757e-01, -4.24141905e-01, -6.51141633e-01,
        -3.59117945e-01,  3.02438007e-01, -9.26824282e-01,
         1.42737428e+00, -4.33732136e-01, -8.23126305e-01,
        -4.42208621e-01, -2.22036303e-01,  1.40485470e-01,
        -1.77305259e+00, -3.07391283e-01, -4.63029732e-01,
         2.09034052e-01,  2.48489475e-01, -6.59209165e-02,
        -1.37425454e-01,  1.27696058e-02, -1.45067446e+00,
         1.40103218e+00,  2.79311056e-01, -1.16108414e+00,
        -2.40085381e+00,  5.75412485e-01,  1.41671718e+00,
        -6.85217977e-01,  1.50040895e+00, -2.97641266e-01,
        -3.38820076e-01, -3.69396999e-01, -8.32173021e-01,
         3.58609494e-01, -4.59267095e-01,  7.47353570e-01,
         1.00856713e-01, -1.45666712e+00,  1.17572650e+00,
         1.49570230e+00, -2.18849995e+00, -3.34773762e-01,
         5.30983773e-01,  1.88516072e+00, -9.62993780e-01,
        -3.55327722e-01,  3.00979015e-01,  4.39288893e-01,
        -5.39078946e-01,  6.44811531e-01, -1.52162574e+00,
        -2.92071694e+00, -1.28091638e+00,  9.04441742e-01,
        -9.04400470e-01,  2.91887615e-01,  7.32559998e-02,
        -2.69218089e+00, -1.62249048e+00,  6.71564720e-02,
         6.39494266e-01,  2.60523199e+00, -1.44529564e-01,
         1.44788338e-01,  3.16289447e-01,  7.04273330e-01,
        -1.70081292e-01,  3.65155055e-01,  6.70142586e-02,
        -3.51268036e-01,  3.31588644e-01, -4.03835522e-01,
         1.54871103e-01,  7.52460863e-01,  6.54855902e-01,
         4.60118913e-01, -9.97068473e-01,  2.13455017e-01,
        -6.83690973e-01,  1.60959862e+00, -2.27515692e-01,
         1.30046580e+00,  1.66780608e+00, -4.31464178e-02,
        -8.29822501e-01,  4.51684714e-01, -1.88960394e+00,
         7.84289956e-01, -2.80821292e-02, -6.63320596e-02,
        -5.81506110e-01,  1.31208756e+00,  7.15967040e-01,
         1.47961042e+00, -3.02270754e-01, -9.04469267e-01,
        -1.95687970e+00, -1.03383407e+00, -1.52015240e+00,
         3.86919065e-01,  9.23072900e-01,  2.47706605e-01,
         1.25911811e+00, -1.88607055e+00,  1.31450382e-01,
        -9.74340431e-01,  6.98555327e-01, -4.74116382e-02,
        -1.73964414e+00, -1.03148102e+00, -8.03076671e-02,
        -4.06154684e-01,  1.22747615e-02,  4.33085130e-01,
         8.18114095e-01,  9.61232419e-01, -6.51298646e-01,
         1.02709869e+00,  1.08912440e-01,  1.35360548e+00,
        -7.32356553e-01, -1.66978047e+00,  8.49331267e-01,
         1.27919710e+00,  7.27633600e-01, -8.05685510e-01,
         1.14528815e+00, -1.02794316e+00,  1.26906169e+00,
        -9.32002083e-01,  1.27292794e-01, -1.04718676e+00,
        -7.72616389e-02, -9.02311247e-01,  6.53093404e-01,
        -2.25705358e-01, -2.89774979e-01, -1.44502865e+00,
        -2.17192791e-01, -4.92565441e-01, -1.25547068e+00,
        -7.11922310e-01, -1.18359121e+00, -2.66299021e-01,
        -3.92851587e-01,  6.23230975e-01,  4.96162197e-01,
         8.45861841e-02, -2.45534712e-01,  9.59256741e-02,
        -2.02788091e+00, -1.31656326e+00,  1.28134368e+00,
        -1.57137997e+00,  4.82564066e-01, -1.19302120e-01,
         1.21760924e+00,  6.27730149e-01, -9.37517046e-01,
         8.30835305e-01, -5.04828123e-01,  5.34521299e-02,
        -1.13558416e+00, -3.24215979e-01, -5.02254107e-01,
        -3.02949023e-01,  8.09530034e-01, -6.01364730e-01,
        -5.96422343e-01,  3.79865086e-01,  5.02939097e-01,
         3.97745945e-01,  6.56483606e-01,  1.52268859e+00,
        -1.59869779e+00, -1.35035679e-01, -5.59191602e-01,
         8.78786395e-02, -1.94599322e+00, -1.80207562e+00,
        -1.01825237e+00, -5.20373259e-01,  1.32475575e+00,
         3.82957742e-01,  2.49130039e-01,  4.65472314e-01,
        -2.03811408e+00,  2.34514609e-01,  1.08705716e+00,
        -1.59952699e-01,  6.56681794e-02, -4.95160454e-01,
         1.39329918e-02, -4.50912957e-01, -4.76723678e-01,
         3.80729534e-01,  2.20025668e-01, -1.07428176e+00,
        -8.86858428e-01, -1.51960368e-01, -2.43005664e-01,
        -2.05830826e-01, -1.42201997e-01,  2.04185472e-01,
         4.54122414e-01, -1.08180895e+00, -1.60583927e-01,
         6.30571551e-01, -4.73262879e-01, -7.95169166e-01,
        -2.52505549e-01,  7.82667355e-01,  1.07415528e+00,
        -1.11623411e+00, -3.70095852e-01, -1.84214530e+00,
        -1.77913686e-01,  8.60640636e-02, -1.02158905e-01,
         5.41843443e-01, -3.06285555e-01,  6.12681821e-01,
        -4.25622986e-01,  4.27765581e-01, -1.03382670e+00,
         2.75152010e-01, -1.06395400e+00,  3.05925114e-01,
        -1.28982174e+00, -6.84140324e-01, -1.91666548e+00,
        -1.23986683e+00,  4.24301619e-01,  4.26969867e-01,
        -6.36491984e-01,  1.47775915e+00,  1.73418842e-01,
        -1.13292265e+00,  1.36744257e-01,  2.92638003e-01,
        -4.92408510e-01, -1.29428123e+00,  1.16317073e+00,
        -1.97199259e-01,  7.19838903e-01,  4.64256270e-01,
        -4.04771740e-01,  1.49238806e-01,  6.40894041e-02,
        -9.17852499e-01, -3.93744516e-01, -6.52512123e-01,
         1.16251564e+00, -1.58661353e-01,  6.23542586e-01,
        -6.39329530e-01, -9.74324091e-01, -1.68683615e+00,
        -2.07809769e+00,  4.84926336e-01, -1.50052326e-01,
         2.80852745e-01, -4.56438731e-01,  9.09236130e-02,
        -7.74121982e-01, -4.74098535e-01,  9.95973490e-01,
        -1.34717265e+00, -7.79085586e-01,  7.08539775e-01,
        -7.77400361e-01, -4.14903555e-01, -1.43540715e+00,
        -5.50844665e-02,  2.25802069e-01,  8.87944433e-01,
        -7.34348836e-01, -7.93171720e-02, -4.51528882e-02,
         1.24393331e+00, -1.22078226e+00,  1.12795075e+00,
        -1.10672243e+00,  1.16808761e-01,  8.63734464e-01,
        -2.18954694e+00, -1.01734654e+00,  1.19180996e+00,
        -2.09433655e+00,  3.00133558e-01,  1.75267148e-01,
         7.53322181e-01, -3.50171671e-01, -9.41726417e-01,
        -1.08815010e-01,  1.01755956e+00,  2.06893903e-01,
         9.30307802e-01,  2.68392877e-02,  8.90455623e-01,
         2.59244868e-01,  6.42818862e-01,  7.45426007e-01,
        -8.07988317e-01,  1.54411538e-01,  1.22984193e+00,
         2.26661628e-01,  1.08095590e+00,  2.11101588e-01,
        -6.23864073e-02,  1.16953137e+00,  5.95854245e-01,
        -3.12584533e-01, -5.26816943e-01,  9.93497066e-01,
        -1.56592067e-01,  4.05600072e-01, -6.11508060e-01,
         1.08396205e-01, -1.33043043e+00,  4.13011339e-01,
        -7.76383585e-01,  6.93118243e-01,  4.21768807e-01,
        -4.80984785e-01, -2.41312782e-02,  7.34660691e-01,
         7.89909549e-01,  3.00345702e-01, -1.62496234e-01,
        -8.88331384e-01, -2.65907754e-02,  1.45094048e+00,
         1.06721931e+00,  1.45306644e+00,  1.54328770e+00,
         1.94498104e+00,  3.03780139e-01,  6.20124611e-01,
        -1.60847394e-01, -3.88664778e-01, -1.07218081e+00,
        -2.57706902e+00, -1.23122498e+00, -2.95237027e-01,
        -9.29126303e-01, -2.61084333e-01,  7.66437887e-01,
         1.32132891e-01,  1.49175057e+00,  4.86665412e-01,
         3.89235116e-02,  8.68434339e-01,  2.67265886e-02,
         1.38656005e+00, -5.10558209e-01,  6.18958748e-01,
        -1.61347449e+00, -4.18181463e-02, -1.36907470e+00,
         3.28781101e-02,  1.54328504e-01,  1.13749138e+00,
        -5.98770224e-01,  1.06994547e+00,  1.14630183e+00,
         8.58986483e-01,  3.15515116e+00,  1.16971930e+00,
        -1.89527815e-01,  6.39767523e-01,  1.06539447e-01,
        -7.19630643e-01, -3.21148565e-02, -7.24058484e-01,
        -1.20243732e+00, -1.86328132e+00,  5.42695240e-01,
        -1.06819375e-01, -1.97154256e-01, -1.29923820e-01,
         2.23874573e-01,  3.11983449e-01, -9.36989248e-02,
        -4.90062418e-01, -1.42128727e-01,  2.58436941e-01,
         1.25093183e-01,  1.60885568e+00, -1.11289222e-01,
         8.41050428e-01,  1.31648307e+00,  1.72663702e+00,
         1.37763927e+00,  4.01322903e-01,  1.70201208e+00,
         1.15646271e+00, -1.10574272e+00, -9.36189134e-01,
         8.33643742e-01,  5.95710541e-01,  8.10805016e-03,
         1.12145653e+00, -1.28620484e+00,  2.33745545e+00,
        -1.30481867e+00,  7.66038910e-01, -6.35643399e-01,
         5.99745168e-01,  5.15871234e-01,  1.09047106e-02,
        -2.48124533e-01, -6.18397152e-01,  1.95281897e-01,
        -5.54500384e-01, -7.74536385e-01,  7.74555515e-01,
         1.08445689e+00,  6.89541386e-01,  1.67135472e+00,
         9.22237469e-02, -1.11760573e+00,  3.83908930e+00,
        -4.11666833e-01,  7.47189217e-02,  1.31871467e-01,
         1.35579085e+00,  1.07454516e+00, -4.27739815e-01,
        -2.13767374e+00, -1.09088337e+00,  2.21493121e-01,
        -5.82050719e-01,  1.28213992e+00,  8.17895913e-01,
         8.37139513e-02,  5.15566028e-01,  1.35867805e+00,
         1.19104588e+00, -1.59846641e+00, -6.56612399e-03,
        -5.35073280e-01,  6.40807548e-01, -2.40726983e-01,
         9.30833315e-01,  5.44389868e-01,  6.04795424e-01,
         7.80024870e-01,  2.90040162e-01,  1.50452074e+00,
         1.20583271e+00, -8.48130902e-02,  1.58895525e+00,
         5.76778662e-01,  1.33170338e-01,  4.82101947e-01,
         2.60647630e-01, -2.66605840e+00,  9.32103897e-01,
         1.96001942e+00,  1.03576151e-01, -7.94020677e-01,
         5.20899578e-01, -3.47154889e-01, -1.59070954e+00,
        -1.01306818e+00, -1.88444738e-01,  1.23841259e+00,
         1.13434675e+00, -8.28342750e-01,  2.41626875e-01,
         3.52256980e-03,  2.02400959e+00,  4.86016283e-02,
         9.17041601e-02,  1.50501790e-01, -1.35992616e-02,
         2.58001230e-01, -2.55520701e-01,  2.82079986e-01,
         7.41571885e-02, -1.93416877e-01,  3.23010193e-01,
         3.52594299e-01,  8.09882769e-01,  5.03960866e-01,
         5.45396356e-01, -3.59644176e-01,  1.39047549e+00,
        -7.59506067e-02, -4.55030550e-01, -1.22721884e+00,
        -6.88632788e-01,  1.56521415e-01, -4.72055114e-01,
        -5.30562666e-01, -9.56877333e-01,  1.29043901e+00,
         3.18489481e-01,  4.01897767e-01,  7.53206629e-01,
         7.51943729e-01,  1.49054266e+00,  9.73482321e-01,
        -1.89387830e-01,  2.11876517e-01, -1.56146399e+00,
        -3.16680199e-01, -2.11624100e+00, -2.47779400e+00,
         7.59597674e-01, -4.41630120e-01, -8.52723787e-02,
        -6.45803448e-01,  6.77512347e-01, -5.27706612e-03,
         7.71331347e-01,  5.40604655e-01, -1.45109010e+00,
        -2.83003825e+00, -6.51732133e-01, -6.73485924e-02,
        -1.42544077e+00,  6.06977796e-01, -3.68015630e-01,
        -5.84508000e-01,  5.29039217e-01,  1.65765188e-01,
        -5.81534251e-01, -2.71768993e-01, -1.82621046e+00,
        -8.80887467e-01, -1.01439012e+00, -7.30951361e-01,
        -7.41904594e-01, -9.55581588e-01,  1.68459013e-01,
        -1.47728080e+00, -1.26018543e+00, -3.55060624e-01,
         9.46111622e-01,  9.10209317e-01, -1.57164463e+00,
        -1.00598686e+00,  3.61094776e-01, -1.42562245e+00,
        -1.26306664e+00,  4.49757162e-01, -1.62773733e+00,
        -2.07936324e+00, -1.75906230e+00, -3.54792516e+00,
        -1.74518322e+00, -9.43670653e-01, -2.52999432e+00,
         3.50084863e-01,  1.34949628e+00,  5.47057779e-01,
         2.02286329e-01,  7.75590910e-01, -1.02260937e+00,
        -1.08387274e+00, -2.40938718e+00, -2.26166811e+00,
        -7.49409918e-01, -1.43543012e+00, -3.01968749e-01,
         7.31071659e-01, -5.28519438e-01,  1.41989827e-02,
         1.28403929e-01,  1.62721143e-01,  1.22634991e+00,
         9.14400721e-01, -8.44141034e-01,  5.86375669e-01,
        -4.04799781e-01, -1.17256001e+00,  6.96272089e-02,
         5.36569835e-01, -1.54172420e+00, -1.59445486e+00,
         4.89296888e-01, -1.46537854e+00, -3.18304081e-01,
        -2.99591399e-01, -5.70924071e-01, -1.26457072e+00,
        -9.09065983e-01,  1.90086870e-01,  1.63268972e+00,
        -8.11429862e-01, -8.04258476e-01,  1.83413114e-01,
         8.77448861e-02,  9.93603531e-01, -1.48817611e+00,
        -4.36824872e-01, -4.48717757e-01, -4.03825290e-01,
         6.11303337e-01, -7.02509498e-01, -4.05142417e-02,
        -4.24036431e-02, -2.14207653e-01, -4.71198951e-01,
        -6.36302700e-01, -1.48623827e+00,  1.38277611e-01,
        -4.71800277e-01, -2.59170067e+00, -9.39919269e-01,
        -1.86407009e+00,  2.27160371e-01, -1.53943685e+00,
        -6.88281864e-01, -1.53058902e+00, -3.26321216e-01,
        -1.39619383e+00, -8.32099713e-01, -2.76837540e-01,
        -1.51471790e+00, -1.11780410e+00, -1.44498694e+00,
        -4.77046024e-01, -4.99525529e-02,  6.30123707e-01,
         4.52811365e-01, -8.76435089e-01, -8.88612164e-01,
         1.09079319e+00,  2.97970497e-01,  6.89742061e-01,
        -2.13223036e-01,  1.80083423e-01, -2.66845738e-01,
        -1.46223990e+00, -6.61743253e-01, -3.86475397e-01,
         3.68139167e-02, -1.48942448e+00, -3.32537203e-01,
         6.61369256e-01,  1.88345861e-01,  2.81783117e-01,
        -6.99999339e-01,  5.22490691e-01, -6.22091659e-01,
        -8.90833531e-01,  8.40778877e-01,  4.89739688e-01,
        -6.19406690e-01, -1.02690382e+00,  1.04663465e+00,
         1.95704849e-01,  9.90379882e-02, -1.59971062e+00,
        -1.15007209e+00,  1.03928315e+00, -9.57668392e-01,
        -2.47099870e-01,  4.66200709e-01, -4.23761910e-01,
        -4.12354852e-01,  1.09097578e+00, -9.16806480e-01,
        -6.35406015e-01, -9.26429230e-01, -8.95958925e-01,
        -1.98656923e+00, -1.77193569e+00, -7.75844145e-01,
         1.88419505e-01, -1.33308229e+00,  9.87364228e-01,
        -1.03611600e-01,  3.01564368e-01,  5.63861798e-01,
         3.36916052e-01,  2.84754524e-01,  2.09794608e+00,
        -2.44331107e-01,  5.01260750e-02,  5.27982254e-01,
         6.93206816e-01,  4.03623416e-01,  2.10183372e+00,
         1.86198431e+00,  1.33223361e+00,  8.23669435e-01,
         3.27022380e-01,  4.70493981e-01,  6.66356935e-02,
         6.29209698e-01, -2.67342839e-01, -7.65640493e-02,
        -1.89320183e-01,  2.06784247e-01,  3.02246369e-01,
         1.13217201e+00, -5.67592135e-01,  7.36451821e-01,
         1.24358695e+00,  2.93244273e-01,  1.63287351e+00,
        -4.01963816e-01,  4.02455189e-02, -2.71867828e-01,
         1.17273567e+00,  7.40231178e-01, -1.56080664e-02,
        -1.32968470e+00, -2.77937828e-01,  1.06088002e+00,
        -1.54394248e+00,  6.27761052e-01, -3.72804410e-01,
         5.67452022e-01,  7.13860655e-01, -2.73525911e-01,
         1.32555452e+00, -5.93098447e-01,  2.18542543e+00,
         1.49210197e-02, -4.53886125e-01,  5.78408572e-01,
        -1.36604453e+00, -1.62329309e-02, -9.73234492e-01,
        -2.07400555e+00,  2.31540150e-01, -7.14125538e-01,
         6.92095418e-01, -6.97166715e-01, -8.91676425e-01,
         5.23194883e-01, -5.20299655e-01, -6.87001738e-01,
        -1.16078281e+00,  8.62043833e-01, -1.79970171e+00,
         1.48216979e+00, -3.24861064e-01,  5.12168963e-01,
        -2.83230989e-02,  3.16530560e-01,  1.20598714e+00,
         2.39960975e-01, -9.17468984e-01,  4.39231064e-01,
        -4.35203318e-01, -1.31189575e+00,  6.74779803e-01,
         1.07091432e+00,  1.09914870e+00, -9.52431948e-01,
         1.52681201e+00, -1.91607945e+00, -2.69798388e-02,
        -2.95329412e+00,  1.02267688e+00, -1.23684771e+00,
        -6.69345470e-01,  3.68106895e-01,  2.80752169e-01,
        -4.61319368e-01],
       [-1.02071532e+00, -2.17788974e-01, -3.83719662e-01,
         1.07959817e+00,  3.81575542e-02,  3.87431097e-01,
         9.75953130e-01, -1.12931175e+00, -3.45766014e-01,
        -1.63860943e+00, -6.52762202e-02,  2.24270664e+00,
        -2.97311684e-01, -2.26594241e-01, -1.07554322e+00,
        -2.23849899e-01, -1.18258139e+00, -6.68371102e-01,
        -1.11803089e-01,  1.72177734e+00, -9.51122459e-01,
         5.67325065e-01, -5.06081333e-01,  1.45617677e+00,
         8.78940538e-01,  9.46120237e-02, -7.38416339e-01,
        -1.20567306e+00,  7.95591293e-01, -5.46049110e-03,
         1.10724998e+00,  8.72829080e-01,  3.13098961e-01,
        -7.80358017e-01, -5.08053484e-01,  3.31683201e-01,
         5.94216350e-01, -1.20842747e+00,  6.32949580e-01,
         2.09028623e-01, -1.41768614e+00, -4.79157291e-01,
        -4.84893596e-01,  1.37446684e+00,  3.79851435e-01,
         7.40096230e-01,  1.37279605e+00,  7.27836616e-01,
         1.08995987e+00,  7.11374300e-01,  1.20972437e+00,
        -2.24008292e-01,  1.42368312e+00,  4.25219567e-01,
         8.08186899e-01,  8.79924101e-01, -1.43598713e-01,
        -6.89768635e-01, -1.66234127e+00, -6.73877181e-01,
         1.25213902e+00,  6.35605784e-01,  1.08560357e-01,
         5.50140572e-02,  2.57068609e-01,  1.80347980e+00,
         3.20822085e-01, -4.07407531e-01, -6.46387146e-01,
         4.62872580e-01,  2.20561719e-01, -1.38596378e+00,
         2.65038801e-01, -1.25787479e+00,  1.00791088e+00,
        -1.59389478e+00, -2.37126218e+00, -2.44192670e+00,
         3.47464315e-01,  6.39539532e-01,  1.36017463e+00,
         1.43207625e-01, -1.17020135e-01, -4.76991503e-01,
         6.79146394e-01,  5.17731453e-01, -1.86837025e-02,
         3.56293418e-01, -5.02339083e-01, -3.92029253e-02,
        -2.24491445e-02, -4.93907531e-01,  1.24362860e+00,
        -1.41869542e-01,  2.49478556e-01,  2.59473576e-01,
         1.45723759e+00, -1.04612380e+00,  2.81723715e-01,
         7.56382971e-01,  1.57090091e-01,  1.10637106e+00,
        -4.34844066e-01, -4.01505127e-01,  1.11607521e+00,
         1.79936265e+00, -8.29152776e-01,  3.50334441e-01,
         1.03809554e+00, -1.77365884e-01, -7.13934189e-01,
        -1.11358268e+00,  3.69650225e-01,  7.96986106e-01,
         1.07536707e+00, -7.41687699e-01, -4.28113234e-02,
        -6.78337159e-01,  4.10211659e-01,  1.61657064e+00,
        -1.50781382e+00,  2.76028272e-01, -2.21156298e-01,
        -3.37282329e-02,  6.19788122e-01, -3.36596317e-01,
         6.34871156e-02,  7.61449247e-01,  1.28645727e+00,
        -1.94251971e+00, -7.88407627e-01, -6.53989612e-01,
         7.09735922e-01,  1.31569786e+00, -8.00683234e-01,
        -9.06710039e-01, -7.95236895e-01, -9.91738899e-02,
        -1.38448625e-01, -7.07312659e-01, -1.89695712e-01,
         3.10406696e-01,  4.65961292e-01, -6.52564638e-02,
         1.37747701e-01, -3.79433695e-01,  8.63863625e-01,
         3.98030733e-01,  4.70060469e-01,  2.80592418e-01,
         5.71230008e-01,  4.37172233e-01,  4.54511329e-01,
         1.82598371e+00,  3.00860391e-01,  5.06904995e-01,
        -1.74463003e-01, -1.37146153e+00,  2.46451969e-01,
         1.49001810e+00, -6.64609222e-01,  3.23410344e-01,
        -1.53122252e+00,  1.35908084e+00,  6.37773371e-01,
         1.19618501e+00,  4.39694927e-01, -4.51795511e-01,
        -1.41702997e-01, -1.63025118e+00, -4.17374804e-01,
        -6.38553428e-01,  6.13152237e-01, -1.94231903e+00,
        -1.91027989e+00,  1.77642745e+00, -4.43578175e-01,
         2.59067542e-01, -3.04112102e-01,  5.14071732e-01,
        -8.09399930e-01, -2.28629850e-01, -4.24367478e-01,
        -2.21455365e+00,  1.62074335e-01,  8.93098183e-01,
        -1.10582671e-02, -1.05345531e+00, -1.04022926e+00,
         7.04847255e-01,  9.47621580e-01, -1.81675506e+00,
         9.95223601e-01, -1.13428711e+00,  4.74437464e-01,
        -1.17348292e+00,  1.01767843e+00,  9.91079559e-01,
         5.10198538e-01, -6.08287839e-01,  1.21339243e+00,
         1.23371276e+00,  2.17161326e+00,  9.06807904e-01,
         1.82117593e+00,  9.98782919e-01,  1.41393882e-01,
        -1.32444356e+00,  1.78374993e-01,  1.94416715e-01,
        -2.92766859e-01, -4.32947939e-01,  5.26529520e-01,
        -3.73485454e-01, -8.88283802e-01, -2.04117507e+00,
         9.01426520e-01, -7.52725265e-01,  8.64276763e-01,
         8.78790947e-02,  9.80320984e-01, -2.48084843e+00,
         6.79924054e-01, -5.89587725e-01, -2.99694358e-01,
         4.69096223e-01,  1.34699549e+00, -2.13105900e+00,
         2.09979710e+00,  1.46102738e+00,  1.66732125e+00,
        -6.35338188e-01,  3.03608406e-01, -2.11774746e-02,
        -4.23663487e-01,  1.83504511e-01, -1.64448583e-02,
        -2.32131472e-01, -1.04979912e+00, -1.53473174e+00,
        -4.61451699e-02,  1.39655363e+00, -2.14935723e+00,
        -6.94446978e-01,  9.43899216e-01,  1.02989902e-01,
        -1.05395913e+00,  9.97017125e-01, -1.36258117e-01,
         1.36966076e-01, -2.27114564e-01,  7.45380317e-02,
        -2.93586392e-01,  1.38897079e+00, -1.35004746e+00,
        -4.00781683e-01, -2.47190331e+00, -2.18233169e+00,
         6.08911967e-01,  5.21503468e-01,  1.20708802e+00,
        -7.24885478e-01,  1.96947517e+00, -8.26490936e-01,
        -1.56955604e+00, -1.21657887e+00,  1.10186552e-01,
         6.07552061e-02, -5.82493066e-01, -1.43446331e-01,
         6.10920855e-01, -1.15908951e+00, -1.52554617e+00,
         1.20949630e+00,  2.44211737e-01, -1.43820779e-01,
         1.86520503e-01, -8.87439689e-01,  1.19976098e+00,
         1.82995903e+00, -1.09257383e+00,  1.14599304e+00,
         6.41520997e-01,  1.82232577e-01,  7.99158449e-01,
         1.23979713e+00,  3.46221941e-01,  6.55499642e-01,
         3.79877654e-01,  8.15324241e-01,  8.56171627e-03,
        -4.19554827e-01, -9.11185505e-01, -4.89063501e-01,
        -6.19871613e-01,  2.78459926e+00, -1.30437943e+00,
        -8.19021450e-01,  1.27165159e+00, -3.13306741e-02,
         3.91649108e-01, -2.17294243e+00, -1.88395106e+00,
        -2.91474892e-01,  5.86176254e-01, -1.65168203e+00,
         3.82718384e-01,  4.58859951e-01,  1.09464638e-01,
        -9.14182042e-01, -1.81743876e+00,  5.50008083e-01,
         1.08862147e+00,  1.07847188e+00, -9.42401290e-01,
         6.92407060e-01, -1.40727071e-01,  1.53961366e+00,
         1.34561087e+00, -2.52521042e-01, -2.41466382e+00,
        -1.60520366e+00, -1.93010430e+00, -9.33894730e-01,
        -5.59604609e-01, -9.13164661e-01,  1.30478909e+00,
        -7.05221787e-01,  1.32113664e+00,  7.57704180e-02,
        -1.06170010e+00, -2.85578319e-01,  4.58519340e-01,
         9.05512206e-01,  1.86743465e+00, -4.25289580e-02,
        -7.63756398e-01,  1.37029012e+00, -3.50213279e-01,
        -1.12661147e+00, -8.91834233e-01,  3.98758279e-01,
        -8.33681107e-01, -2.82090009e-01, -1.01265859e+00,
        -7.83408653e-02, -9.36202091e-01,  5.11105195e-01,
        -1.79015618e-01, -2.81658818e+00, -1.52973299e-01,
        -5.03636492e-01,  1.34108408e+00,  3.73968485e-01,
        -1.51960154e+00, -3.26569319e-01, -9.72339986e-01,
         2.60933060e-01, -1.49964273e+00, -1.14279304e+00,
         3.05256341e-01,  5.58836087e-02,  9.40357367e-01,
         1.06257856e-01, -5.89719083e-01,  2.45577108e-01,
         1.92694827e-01, -1.28672224e+00,  2.67197162e+00,
        -1.48022974e+00, -1.12318638e+00,  7.79817593e-01,
         2.37263396e-01,  4.23915429e-01, -7.20176376e-01,
         1.89120002e+00, -2.40144943e-01, -7.80731110e-01,
        -3.88199513e-01,  7.38647212e-01,  4.96982184e-01,
        -1.89263510e-01, -2.66244735e-01,  1.49054861e+00,
         1.07750084e+00, -4.13471248e-01,  6.88480115e-01,
         9.13483557e-01, -1.26600952e+00, -5.98900423e-01,
         4.04490338e-01,  1.72706257e+00,  1.29681746e+00,
         5.45380069e-02, -1.65180641e-01, -1.78600936e+00,
        -1.66102326e+00,  1.66222741e+00, -2.26070583e-01,
         5.63763477e-01,  1.02226331e+00,  2.16462874e+00,
        -2.82052349e-01, -3.90419599e-04, -4.81317718e-01,
         1.15377059e+00, -1.87301671e+00, -4.99112473e-01,
        -6.67569560e-02,  1.50016883e-01,  2.41808630e+00,
         1.22730642e-01,  1.88177407e+00,  3.25468217e-01,
        -1.16588562e+00, -7.35187378e-01, -7.71004022e-01,
        -1.28763409e+00,  6.14737226e-01,  1.55718712e+00,
         6.07533376e-01,  4.49205583e-01, -1.07347317e+00,
         3.33192337e-02, -3.51167099e-01,  1.40888084e+00,
         1.08995113e-01, -9.61889470e-01, -3.81685413e-01,
        -2.93473779e-01,  8.86575622e-01,  3.24840844e-01,
        -7.36496803e-01, -9.62379707e-01,  7.06214083e-01,
         1.06087137e+00, -1.05889040e+00, -1.05941369e-01,
         1.30225866e+00, -9.64189101e-02, -1.35520595e-01,
        -1.03809471e+00, -8.45969505e-01, -1.53210858e+00,
         6.49229190e-01,  1.20980420e+00,  2.31971269e+00,
        -2.08814634e+00,  2.14868145e+00, -1.26310450e+00,
        -5.57946759e-01,  6.10426278e-01, -1.15819559e+00,
        -4.07557086e-01,  9.16877925e-01, -2.80204895e-01,
        -1.73201256e-01,  7.23829961e-01, -8.19326925e-01,
        -2.96294578e-01, -1.57889666e+00,  2.14210468e-01,
         1.88382794e+00, -8.77746141e-01,  2.10115322e+00,
         2.81603222e-01,  8.00571460e-01, -1.29775626e+00,
        -1.07474698e+00,  8.74562907e-01, -2.62414061e+00,
        -4.04847615e-01,  8.62940768e-01,  4.36406206e-01,
         4.93640342e-02, -2.54610050e-01,  1.60153079e+00,
        -2.82915551e-01, -1.85380840e-02, -5.65958721e-01,
         2.41639540e-01,  1.98212828e+00,  9.21528014e-01,
        -4.62379404e-02,  7.71477308e-01,  6.00979736e-02,
        -1.69589106e+00, -1.00893439e+00,  2.94846603e-01,
        -2.17454992e-02, -3.49396926e-02, -1.24840027e-01,
         1.74525587e+00, -3.03099789e-01,  1.08181254e+00,
         9.35232571e-01, -2.55269469e+00, -3.97479195e-01,
         2.87959997e-01,  5.17775377e-01,  5.22915698e-01,
         1.02546401e+00,  5.24086338e-01, -1.27094875e+00,
         3.06477462e-01,  6.65962211e-01,  4.22147165e-01,
         1.11653255e+00,  3.44633419e-01,  1.00222010e+00,
         1.47565076e+00, -9.00626433e-01, -2.18496840e+00,
         3.56709143e-01, -1.60106032e+00,  2.25057049e+00,
         8.71356106e-01,  1.18719287e+00,  1.15793575e+00,
         4.77449761e-01, -1.31754433e+00, -1.78060364e-01,
         5.09117137e-01,  7.85279068e-01,  3.47949975e-01,
         3.40312189e-01,  1.67749217e+00,  1.57418004e+00,
        -7.65467100e-01,  8.85230161e-01, -2.48406606e+00,
        -5.46215794e-01, -2.10462129e+00, -9.90733629e-01,
        -6.93542543e-01, -2.22113908e+00,  9.49915349e-01,
         1.28250483e-01, -1.08972224e-01, -1.45771679e+00,
        -3.32814111e-01, -8.21208868e-01, -1.89291938e+00,
        -1.16585793e+00,  4.04563450e-01,  1.82804973e+00,
         1.04816388e+00, -3.50720229e-01,  1.79294881e+00,
         6.19468457e-01, -1.65047977e+00,  1.33200924e-01,
        -5.17398745e-01,  4.90438988e-01, -7.87939565e-01,
         9.72933890e-01,  7.65739283e-01, -2.75170347e+00,
        -2.79191393e-01,  1.31100220e-01, -2.97388944e-01,
        -5.00240627e-01,  6.80385545e-02, -1.67324680e+00,
         6.73579426e-01, -6.32861807e-01, -2.22022377e-01,
        -8.50154127e-01,  9.03620258e-01, -1.14961512e+00,
        -4.65890773e-01,  1.15748378e+00,  7.97990205e-01,
         1.07136061e+00,  1.10813291e+00, -1.34969366e-01,
        -1.38338416e+00, -1.16876626e+00,  2.56075354e-01,
        -4.69174308e-01, -5.66713180e-01, -4.56233364e-01,
        -4.44029519e-01, -2.44284910e-01,  1.25139808e+00,
         1.98928482e-01, -1.35612303e-01, -1.21601524e-01,
         5.73364337e-01, -9.53250205e-02, -1.20013248e+00,
        -4.68683111e-02, -2.15386415e+00,  3.05147428e-01,
        -4.20829011e-01,  1.40165797e+00,  6.16434072e-01,
        -5.99036540e-02, -4.00615504e-01, -6.17030374e-01,
         1.01483542e+00,  9.64668052e-01, -5.02942569e-01,
         3.53209377e-01, -5.72904483e-02,  9.14584154e-01,
        -5.45739748e-01, -1.84210571e-01,  4.95361975e-01,
        -1.12312885e+00, -4.74957060e-01,  1.49446089e-01,
         8.89330138e-01, -5.95437541e-01,  1.04728245e+00,
         1.56800495e-01, -7.71632570e-01, -7.16618191e-01,
         8.11168354e-01, -4.25297582e-01, -5.85731669e-01,
         1.50202081e-01,  1.69890216e+00, -2.36997894e+00,
         2.51940885e-02, -9.41533966e-01, -1.82685355e-02,
        -3.44086493e-01, -5.37354026e-01,  9.61689814e-01,
         1.14419930e+00, -3.98970631e-01,  3.28507971e-01,
         1.17917505e+00, -5.58648687e-01, -4.81742437e-01,
        -9.03757078e-01,  7.60433439e-01,  3.83728109e-01,
         5.72776501e-01,  2.23889184e+00,  7.67527632e-01,
        -2.31296390e-01,  1.80916798e+00,  2.00419521e-01,
        -1.20823231e+00,  7.22479738e-01, -1.18359955e+00,
        -5.47292321e-01, -3.71535775e-01,  4.25615864e-01,
        -1.45469189e+00, -1.52364290e+00, -1.36886470e+00,
         3.63710037e-02,  2.06431558e-01,  6.81673966e-02,
        -3.33471078e-01,  1.34813799e+00, -5.65929596e-01,
        -7.52749328e-01,  4.93996540e-01, -8.95408514e-01,
         1.81863675e+00, -1.32401585e+00,  8.45880123e-01,
        -3.51319736e-01, -2.21603137e+00,  1.40670083e+00,
         8.89959422e-01, -5.92140629e-01, -2.65346184e+00,
         3.66684512e-01,  5.64924501e-02, -1.87653291e-02,
        -7.89302999e-01,  9.49902002e-01,  4.59320246e-01,
         8.82768896e-01, -3.70885495e-01,  2.27498087e-01,
        -2.06025919e+00, -2.69788004e-01,  2.93002198e-01,
        -1.81795355e+00,  2.32834735e-01,  8.46779518e-01,
        -1.53078947e+00, -4.88214219e-01,  1.53808529e+00,
         8.77762988e-01,  2.52561343e-02, -8.64190557e-01,
        -2.29924031e-01, -8.77413705e-01, -2.75022852e+00,
        -1.76911330e-01, -1.22141253e+00, -5.78032374e-01,
         1.00942323e+00, -4.47798699e-02,  3.39415797e-01,
         1.01518011e+00, -2.76238900e-01, -1.66426848e+00,
        -2.94142411e-01,  9.08957520e-01,  1.75047830e+00,
        -1.60799506e+00, -5.25837364e-02, -1.72883547e+00,
        -1.31011525e+00, -1.12325230e+00,  7.36901739e-02,
        -2.22740578e+00,  1.41079466e+00,  1.60776881e-02,
         4.30823792e-01, -2.56267759e+00, -6.73004170e-01,
        -9.24234401e-01,  7.27988130e-01,  2.66188268e-01,
         4.02794391e-02,  5.65668123e-02, -1.12325223e+00,
         3.56829866e-01, -9.55512030e-02, -2.17586733e+00,
        -1.14731362e-01, -4.38492970e-01, -6.79824111e-01,
         5.43613705e-01,  1.34888976e-01, -1.43246905e-01,
         4.17391599e-02, -1.11785396e+00, -7.88786702e-01,
         1.22896543e+00,  7.20861717e-01, -1.15328685e+00,
        -1.79590247e+00, -2.45706717e-01, -5.36937728e-01,
        -3.32949003e-01, -1.18179900e+00, -9.58186105e-01,
         3.67402545e-01, -2.58175662e-01,  1.12360745e+00,
         1.40346056e+00, -1.99241297e+00, -1.55375394e+00,
         2.87192333e+00,  1.69379154e+00,  7.47518478e-01,
         5.21679476e-01, -8.73200228e-01, -1.08136628e+00,
         1.67327644e+00,  1.70145290e-01, -6.02996513e-01,
        -1.07728838e+00,  2.14871808e-01, -1.58729914e-01,
         1.34898964e+00,  9.95583283e-02, -3.48872221e-01,
         1.24484263e+00,  1.52270309e+00, -2.13407122e+00,
        -1.03688088e+00,  9.07154122e-01,  7.60769167e-01,
        -1.09372583e+00,  2.20514371e-01, -6.43331661e-01,
        -2.43913049e-01, -5.44869934e-01,  2.34777205e-01,
         1.12330580e+00,  4.31925556e-02, -2.95606432e-01,
        -1.11941389e+00],
       [-1.56198519e+00,  1.11768920e+00,  6.80950447e-01,
        -1.06792539e+00, -1.44017543e+00, -6.30910626e-01,
         9.66419737e-02,  7.82000849e-01,  1.63584898e-01,
         1.88352771e-01,  1.29807450e+00,  1.97793763e+00,
        -3.34948332e-01, -1.88514797e+00, -7.22432457e-01,
         9.68337721e-01,  2.40544377e+00,  1.19851446e+00,
        -2.05250667e-01, -5.91892878e-01,  2.02307179e+00,
         6.96249338e-01,  9.55100048e-02, -2.49254953e-01,
        -9.67830256e-01, -1.85446164e-01, -7.46069701e-01,
         1.01485627e+00, -3.48470232e-01,  5.09119437e-02,
        -1.60461695e-01,  1.32123543e+00,  1.94569797e-01,
         1.42237758e+00,  1.09014491e+00,  1.78496234e+00,
         2.06188234e+00,  1.15197831e+00, -3.77071574e-01,
         2.37524139e+00,  1.71821361e+00,  3.37146110e-02,
         1.57131321e+00,  7.00114189e-02, -1.27438539e+00,
        -7.93821409e-02,  8.15109616e-02,  7.52521954e-01,
        -7.40193216e-01, -5.89292778e-01, -9.60638712e-01,
        -2.33619848e+00, -4.84019886e-01, -5.12258092e-01,
        -5.22631052e-01, -1.63487614e-01, -1.48294170e+00,
         1.25891729e+00,  1.00807171e-01, -4.24546918e-01,
        -4.18142043e-01,  8.10781977e-02, -7.64507359e-01,
         4.53914522e-01,  9.22346772e-01,  1.41488888e+00,
        -1.03716177e+00,  6.46136255e-01, -1.43257107e+00,
         2.20349213e+00,  5.12197996e-01, -3.90961811e-01,
        -2.57289285e-02, -1.90610616e+00, -1.18113588e+00,
        -1.42083273e+00, -7.95697976e-01,  1.80445446e+00,
         7.91892842e-03, -1.13165525e+00, -6.59563903e-01,
        -2.02542307e-01, -6.65634811e-01,  3.26829718e-01,
         9.55721650e-01, -5.76117456e-01, -1.24488976e+00,
         1.43773653e+00,  1.06080788e+00,  1.98030602e+00,
         6.71694629e-01, -1.11178457e+00,  5.10513258e-01,
        -1.53239752e+00,  1.26382570e-01, -1.26015043e+00,
        -2.69419452e-01, -8.75368979e-01,  3.15200658e-01,
        -6.79988047e-01, -6.81505299e-01,  7.11599937e-01,
         3.84532515e-01, -1.08076703e-02, -1.32007116e+00,
        -1.21781519e-03,  1.85601768e-01,  1.38540652e+00,
        -1.85479069e-01,  4.05911923e-01,  3.62873017e-01,
        -1.22993322e+00, -1.23313880e-01,  1.37181019e+00,
         6.32108952e-01, -8.11868554e-01,  7.06859443e-02,
         2.01679647e-01, -1.66210576e+00,  7.66009086e-01,
         8.23383295e-01,  1.22246610e+00, -2.44883411e-01,
         6.43794760e-01, -4.17339735e-02,  2.89262283e-01,
        -8.66013914e-01,  3.28002889e-01,  7.74060684e-01,
         9.09548849e-01, -4.34381573e-01, -4.05590256e-01,
         1.64063580e+00, -3.00645033e-01, -6.47380344e-01,
         9.89114580e-01, -2.40073314e+00, -1.26806977e-01,
        -1.05169608e+00, -3.44570690e-01, -1.34906120e+00,
         1.98595201e-01,  9.23224095e-01,  9.49438764e-01,
        -6.49269169e-01, -8.34514441e-01, -1.80753359e-01,
         1.22187917e+00, -7.77604414e-01, -2.40697642e-02,
        -9.67905705e-01, -1.26480604e+00,  7.14641067e-01,
        -6.24429550e-01, -3.22149536e-01,  1.32231331e-01,
         8.15012396e-01,  1.37110392e-01,  8.65938895e-01,
        -2.35238852e+00,  7.99409471e-02, -1.29554910e+00,
         4.65718253e-02,  2.59526250e-01,  6.69678708e-01,
        -1.02409010e+00,  1.38299738e+00,  3.15486258e-01,
        -5.23414956e-02,  7.62023142e-01, -4.19962220e-01,
        -2.50902484e-01,  1.23042137e+00, -8.84633778e-01,
        -8.16972706e-01, -2.58403045e-01, -1.17443967e+00,
        -1.06037407e+00,  7.31159572e-01, -1.45260283e-01,
        -6.09384460e-01, -1.17917175e+00, -1.48662714e-01,
        -2.51963722e+00, -6.82566016e-01,  8.23035020e-01,
         1.72077981e+00,  1.60975310e+00, -6.74714651e-01,
        -6.30617567e-02, -1.84144954e+00, -4.19708352e-01,
         7.41306380e-01, -6.86908955e-01,  1.73585717e+00,
         3.78261519e-01, -3.17676064e-01, -1.89810145e-02,
        -3.96737475e-01, -6.75827264e-01,  4.91957130e-01,
        -5.13846900e-01, -6.91063139e-02,  3.36551660e-02,
        -1.35929338e+00, -6.48703442e-01, -1.82635329e+00,
        -1.84301307e+00, -8.09476443e-01, -2.72465691e-01,
         1.19181520e+00, -1.09606782e+00, -6.34332053e-01,
         2.07429250e-01,  2.91855367e-01, -1.37633964e+00,
        -5.65189432e-01,  8.38349668e-02,  7.98066682e-01,
         8.92358135e-01, -8.88840852e-01, -6.41907464e-01,
        -7.42612686e-02, -3.30043522e-01,  6.44385398e-02,
        -1.09220908e+00, -3.29334054e-01,  5.05839408e-01,
         2.11282438e-01,  1.74541077e+00, -2.35969301e+00,
         3.09792875e-01, -1.68693403e-01, -6.44327041e-01,
         8.27480525e-01, -7.47062522e-01, -4.40897971e-01,
        -1.79506497e+00, -6.03762706e-01,  1.09621831e+00,
        -6.67391403e-01, -6.38801832e-01,  8.91036067e-02,
         8.09912165e-01,  6.49772150e-01,  8.29385288e-01,
         9.94336317e-01,  1.89821871e-01, -1.92029849e-01,
         2.16320826e-02,  7.07359389e-01,  2.64777665e-01,
         1.26532733e+00,  1.22711938e+00, -9.03830867e-02,
         7.54060986e-01, -1.49823874e+00, -1.90343348e-01,
        -7.91628888e-02, -2.14927402e+00,  3.61652966e-01,
        -7.28304249e-01, -2.69372503e-01,  1.40887005e-01,
        -2.35292384e+00,  6.00329478e-01, -4.07278933e-01,
         5.40262517e-01, -9.38658373e-01, -3.27294337e-01,
         2.16566373e-01,  5.17567025e-01, -1.90331816e+00,
        -2.15964147e+00,  1.23836091e-01,  8.90033859e-01,
         3.10877768e-01,  1.48542417e+00, -4.17984509e-01,
        -5.29886439e-01,  1.74893867e-01,  3.39891128e-01,
         7.39761886e-01, -2.34186872e-01, -8.80130875e-02,
        -4.44226363e-01, -4.78647065e-02, -1.46953291e+00,
        -9.78543135e-01,  1.52812724e+00, -1.35805411e+00,
        -4.44300742e-01, -9.21541947e-01, -1.14680764e+00,
         2.36905233e-01,  1.49938668e+00,  1.07208348e+00,
         1.49617903e+00,  2.64773627e-02, -8.33075133e-01,
         7.76937384e-01,  8.42654417e-01, -1.90065642e+00,
         1.25249939e+00, -2.07793603e-01,  7.37916012e-01,
         3.86082400e-01, -1.19241452e+00, -9.43796949e-01,
         9.19369816e-01, -2.32420496e+00,  2.06173691e-01,
        -9.59034930e-01,  5.25994595e-01,  8.42247869e-01,
         1.14530301e-01,  1.45353059e+00, -1.47990360e+00,
         8.87278305e-01,  6.98087170e-01,  3.95553430e-01,
         4.46777264e-01,  1.20889454e+00,  1.58157932e+00,
         7.13003658e-01,  1.67102573e+00,  1.93799725e+00,
        -1.08784760e+00, -6.74175680e-01,  2.77509269e-01,
        -1.08323515e+00, -7.04824321e-01,  3.59917620e-01,
        -4.94458332e-01,  1.28158016e+00,  4.40323438e-01,
         7.49899037e-01,  8.47997306e-01,  2.71524758e-01,
         8.26768802e-01,  6.89393050e-01,  1.29619599e+00,
         7.19946840e-02, -1.15894647e+00, -1.21939450e+00,
        -9.15265372e-01,  3.85697157e-02, -3.58200059e-01,
         1.09327541e-01, -3.31000197e-01,  1.08188627e+00,
         3.67341466e-01, -1.65214904e+00,  5.94188117e-01,
         3.49027111e-01, -1.28515130e-01, -1.88972580e-01,
        -3.90773872e-01, -4.13636093e-01, -6.95000676e-01,
        -1.60160451e-01,  5.00192892e-02,  9.98936291e-01,
         1.83967115e-01,  7.62234989e-01,  1.72301668e-01,
        -7.18588375e-01,  1.44859812e-01, -4.66973430e-01,
        -2.19209432e+00,  1.44155192e-01,  1.67936016e-01,
         1.13812146e+00,  1.67358974e+00, -1.33491134e-01,
         1.51119058e+00,  4.42776673e-01,  2.28873609e+00,
         7.68195014e-01,  2.04761366e+00, -6.67620728e-01,
         2.18094555e-01,  5.42999076e-01, -6.54174025e-01,
        -4.17979083e-01, -8.06283949e-02,  1.24200495e+00,
        -1.86995467e+00,  7.08076428e-01,  1.49459064e-01,
         1.03943590e+00, -2.96939882e-01, -1.47232593e+00,
         1.28672580e+00,  9.28808255e-01, -1.26149956e+00,
         3.00621080e-01,  8.77729114e-01, -2.27132943e+00,
        -1.00287680e-01,  1.08772518e+00, -5.15201436e-01,
        -1.04119141e+00, -6.42951848e-01,  1.00356843e+00,
         7.05274114e-01, -7.43919192e-01, -3.12383559e-01,
        -1.35337924e+00,  1.27804004e-03, -1.25888760e+00,
        -8.84902018e-01,  1.20749421e+00, -1.23480977e-01,
        -3.16205203e-03,  4.88245394e-01, -2.42036499e+00,
        -9.61945139e-01,  2.41519441e-01, -3.40197238e-02,
        -2.12724884e+00,  7.06868957e-01,  1.27737672e+00,
         4.55681163e-01, -1.16335280e+00,  6.62620678e-01,
         1.11743044e+00,  9.20140322e-01, -1.05018349e+00,
        -1.10844100e+00,  1.57266399e+00, -1.08253862e+00,
        -2.77138793e+00, -6.20296603e-01, -1.95657243e+00,
         2.26357128e-01, -3.13116320e-01, -1.31579474e+00,
         8.94416001e-01, -1.50432165e+00,  1.01580419e+00,
        -4.69430018e-01,  2.04787653e-01, -1.18810830e+00,
         1.44524207e+00,  3.35234144e-01, -1.70403084e+00,
         2.18068333e+00, -2.00880434e+00,  2.79771314e-01,
         1.07754328e+00,  8.33588550e-01,  4.22394245e-01,
         6.41003471e-01, -1.52125284e+00, -1.15845339e+00,
        -5.00563553e-01, -1.08681920e+00, -9.15577529e-01,
        -1.75499882e+00, -1.51659797e+00, -8.58691213e-01,
        -7.60605363e-01, -2.95588797e-02,  7.82080704e-01,
        -1.51224347e-01, -3.60528524e-02,  1.23650676e+00,
        -2.03113183e+00, -9.72615777e-01, -1.41953850e+00,
         3.94456113e-01, -1.50180033e+00, -2.39278027e+00,
         5.28639278e-01, -2.01533948e+00, -8.98240539e-02,
        -9.42497897e-01, -2.59717676e+00,  8.88799987e-01,
        -3.63017281e-01,  2.59711772e-01,  1.19990233e+00,
        -3.18760043e-01, -2.66202252e-01, -8.06236847e-01,
        -1.01826774e+00, -1.90277762e-01,  1.32669611e+00,
         2.36226183e-02, -7.67152333e-01, -9.18537776e-01,
         5.67957149e-01, -5.94630245e-01, -3.57271219e-01,
        -3.10839961e-01,  7.16621552e-01, -7.60961950e-02,
        -1.55983165e+00,  1.13866094e-01, -9.36507743e-01,
        -4.29481368e-01,  1.92625193e+00, -1.24318557e+00,
        -4.72895356e-01,  7.56668603e-01,  1.55667616e+00,
         3.15501156e-01, -1.27925791e+00, -1.27345071e+00,
         9.48729719e-01,  1.56593867e-01,  2.10434256e-01,
        -1.00366140e+00,  1.61913336e-01, -1.38735216e+00,
         5.80483717e-01,  9.69027924e-01, -2.06384957e-01,
        -1.60432379e+00,  1.79951849e+00,  2.71652364e-01,
        -9.91166525e-01,  2.15923419e-01,  9.18727269e-01,
        -1.19102515e+00,  4.23439943e-01, -4.52696651e-01,
         1.07528546e+00, -5.32467072e-01,  1.02619256e+00,
         4.98442484e-01,  9.62645656e-02,  2.09791855e-01,
        -8.46114982e-02, -1.45748825e+00,  1.31209129e+00,
         7.22568236e-01,  2.52390488e-01,  2.35832910e-01,
        -8.61833937e-01, -1.36245543e-02,  1.00703315e+00,
         1.48888851e+00,  2.37109993e-01,  1.84472644e+00,
        -8.32934692e-01, -3.55732908e-01, -1.47738063e+00,
        -1.18460880e+00,  2.01548577e+00,  3.57515450e-01,
         9.10340873e-01,  1.01033513e+00, -5.80624088e-01,
        -1.34598363e+00, -7.97076024e-01,  7.77993928e-01,
        -6.94354139e-01, -3.92691690e-01,  1.53746880e+00,
         1.02503747e+00,  5.86583930e-01, -2.47060861e+00,
         6.48370702e-01,  7.27917042e-02,  2.53428820e-01,
         1.63592442e+00, -2.09858615e-01,  9.01080597e-01,
         2.42114005e+00, -9.56006981e-01,  1.60697073e+00,
         1.47822241e+00,  1.81246430e+00, -2.73470789e-01,
         2.70587915e-03, -1.92130636e+00, -2.34929097e+00,
        -9.33684114e-01, -5.16725296e-01, -9.75606930e-01,
        -7.26918977e-01, -5.76982831e-01,  7.28888379e-01,
        -1.75404075e-01, -7.43365250e-01,  2.01594218e-01,
        -7.44055913e-01,  2.21646177e+00,  1.68526039e+00,
        -7.01683551e-01, -3.96134181e-01,  3.09440321e-01,
         2.57234750e-01,  3.05315351e-01,  3.20531615e-01,
        -5.71873971e-02, -5.18704750e-01, -1.01393472e-01,
        -5.09295353e-01, -4.93434084e-01, -1.31754080e+00,
         5.80373098e-02, -1.12036889e+00, -1.24473164e+00,
        -1.10964745e+00,  1.71374931e+00, -4.45413123e-01,
         3.75753237e-01, -7.44889700e-03,  9.32031413e-01,
        -1.60726905e+00,  5.43965193e-01, -8.04004573e-01,
         1.57434722e-02, -4.66513399e-01,  1.26642162e-04,
        -1.29496385e+00,  1.32055265e+00,  2.11252626e+00,
         6.08949366e-02,  3.53316744e-01, -2.01632905e-01,
        -2.93523753e-01, -9.81084646e-02, -2.55465720e-01,
        -3.77804155e-01, -1.17014261e-01, -7.39310187e-01,
         7.29356552e-01, -1.58680711e+00, -1.73102427e+00,
        -8.07187448e-01,  7.53088546e-02, -9.10710251e-01,
        -1.40066249e+00,  2.32920343e-02,  2.39665919e+00,
        -1.45284473e+00, -1.02741954e+00,  3.23023802e-01,
         3.79309152e-01,  3.34636061e-01, -1.39870986e+00,
        -4.70445668e-01, -1.24828021e-01, -8.05757398e-01,
         1.03067962e+00, -4.81765738e-01, -1.37617141e-01,
         1.62553199e+00,  2.50963307e+00,  6.35877293e-01,
         9.95385910e-02,  9.35937605e-02, -1.46516181e+00,
        -1.08008106e+00, -6.90140924e-02,  8.16804580e-01,
        -7.37389795e-01, -1.43939608e+00, -1.52450444e-01,
         9.81658973e-01, -9.68027375e-01,  1.47613058e+00,
        -8.21174903e-01, -9.66339160e-01, -1.19833975e+00,
         2.80978645e-01, -9.79505050e-01,  7.45603188e-02,
         1.43216189e-01, -1.66968227e+00,  9.92266871e-02,
        -7.16389002e-01, -1.89639571e+00,  1.44248814e+00,
        -4.71222713e-01,  1.44642086e+00,  8.52404710e-01,
        -3.24530051e-01, -1.01028628e+00,  1.16005543e+00,
         8.78309587e-01,  5.88683180e-02,  4.59969321e-02,
         6.38712670e-01, -5.78041695e-01, -6.90444575e-01,
         1.99310213e-01,  3.06241848e-01, -7.57112199e-01,
         4.97132093e-01, -2.09208222e+00,  5.86603493e-01,
        -4.33818009e-01,  2.15827968e-01, -1.31056242e+00,
        -1.19851497e+00,  1.28319949e+00, -8.71615171e-01,
         1.16164166e+00,  7.24794634e-01,  4.71203384e-01,
         5.94581766e-01,  4.63184520e-01, -8.27417088e-01,
        -9.72648434e-01, -1.07126629e+00, -8.88633742e-02,
        -1.23992580e+00,  9.45774062e-01, -5.19701223e-01,
        -1.08654168e+00, -2.21812126e-01,  9.98554434e-01,
         1.78149253e+00, -8.31456714e-02, -5.47269153e-01,
        -2.37382896e-01, -1.22733144e+00, -8.90005571e-01,
        -1.02466297e+00, -1.97622540e+00, -8.87300545e-01,
        -3.65078668e-01,  1.26045597e+00, -4.42620859e-01,
         9.12277861e-01, -1.96235667e+00,  9.23754766e-01,
        -8.37486189e-01,  2.11924872e-01,  9.03468139e-01,
        -7.93604128e-01, -1.32698394e+00,  1.73097782e-01,
         3.47852352e-01,  1.31928036e+00,  1.26728520e+00,
         8.76670713e-01,  1.21252264e+00,  5.93309414e-01,
         1.58313582e+00,  5.09469027e-01,  5.47047177e-01,
        -6.42142317e-03,  5.01038276e-02,  3.44120467e-01,
         2.18965573e-01, -1.39336522e+00, -7.33396222e-01,
         1.36488713e+00,  2.27538707e-01,  8.69977316e-01,
         1.07069740e-01, -4.65815231e-01,  1.84564772e+00,
         9.94362098e-01, -4.40678535e-01,  3.72921741e-01,
        -5.01704573e-01,  9.27982056e-01, -4.35491675e-01,
         2.67565641e-01, -5.03059796e-01,  4.26229187e-01,
        -1.09049916e+00,  9.65725988e-01,  3.23376434e-01,
         6.49459476e-01, -1.20201339e+00, -3.59647025e+00,
         6.49092964e-01,  8.36177682e-01,  2.58236213e+00,
         7.36257836e-01, -4.89768709e-01, -1.49368861e+00,
        -1.35008204e+00, -8.48918526e-01, -5.29370703e-02,
         1.15218995e-01],
       [-2.81956814e-01, -1.05474849e+00, -1.41622189e+00,
        -1.04726922e-01,  3.00917264e-01, -3.39267973e-01,
        -1.93701939e-01,  2.85248517e-01,  5.65415301e-01,
        -1.79361966e+00,  1.65947398e+00,  2.59054747e+00,
         7.14760518e-01,  4.88889278e-01, -1.46709037e-01,
        -1.59623991e+00,  2.18607802e-01, -2.20190687e-01,
        -1.71312455e+00, -4.99812058e-01, -8.45899070e-01,
         9.21127729e-01, -6.30640904e-01, -1.89535600e-01,
         1.82901583e+00,  4.96860232e-01, -1.28362238e+00,
         1.05900366e+00, -1.00267947e+00,  9.86516642e-01,
         5.26954879e-01,  7.76936940e-01, -1.01783569e+00,
         9.25149218e-01, -2.90593161e-02, -3.62561423e-01,
         3.30212208e+00,  4.12223166e-01,  4.50870639e-02,
         1.03412312e+00,  7.99886757e-01,  7.25961462e-01,
         8.36025083e-01, -3.23575014e-01, -2.36828548e+00,
         3.74469066e-01,  5.68988434e-01, -4.07414353e-01,
         1.30853946e-01, -2.11440621e-01,  9.06155430e-01,
         1.37167191e+00, -1.04592587e+00,  9.21480975e-01,
        -1.75741153e+00, -2.90316886e-01,  1.62604106e+00,
        -5.43446954e-01, -3.59187962e-01,  1.43987709e+00,
        -1.13128151e+00, -1.89898889e+00, -2.03901364e+00,
         1.29674481e+00,  8.05274219e-01,  4.12494444e-01,
        -1.68761520e+00, -1.54095783e+00, -1.03486308e+00,
         1.55146271e+00,  1.32289351e-01, -1.30409506e+00,
         5.49252576e-01, -2.77622840e-01,  1.91316697e+00,
        -2.42215834e-01,  9.06141260e-01, -1.26826069e+00,
        -1.78476143e+00, -6.16595091e-01,  1.60013780e+00,
        -8.55369042e-01, -5.77511636e-01,  7.03479342e-02,
        -7.65319518e-01,  4.97974667e-01,  1.39856739e-01,
         8.66871485e-01,  1.13939692e+00, -9.37727079e-01,
        -9.76812152e-01,  7.18550132e-01,  1.26112588e+00,
        -4.31264402e-01, -7.82224655e-01,  1.75595674e-01,
         3.55005326e-01, -3.94574981e-01, -1.21702316e+00,
        -2.14940987e+00, -1.00416463e+00, -1.48931033e+00,
        -8.99031387e-01, -1.85899845e+00, -1.44861218e-01,
        -7.03055385e-01, -3.11742701e+00,  9.07672016e-01,
         1.44914473e-01,  5.69126909e-01,  2.34885495e-01,
         1.19418221e+00, -2.70784091e-01,  4.08390471e-01,
         1.66480951e+00,  7.22365195e-01,  8.55617257e-01,
         3.07834269e-01,  1.08276146e+00, -4.94122806e-02,
        -7.67103122e-01, -1.76335245e-01,  4.74251579e-02,
         7.34842010e-01,  6.87322104e-02, -1.97986826e+00,
        -4.29743811e-01, -1.95827830e+00, -1.26181228e+00,
         1.64618798e+00, -1.04243551e-01,  5.67155579e-02,
        -1.08651446e-02,  6.96492167e-01,  4.50618439e-01,
        -7.65426906e-03,  2.44219858e-01, -2.26300436e+00,
        -9.19115247e-01, -7.07434543e-01,  1.04241429e+00,
         1.54838065e+00,  9.61740025e-01,  8.58745961e-01,
         1.46386472e+00, -4.19224832e-01, -8.86845771e-01,
         1.38212148e+00,  8.63888728e-01, -1.07295868e-01,
         1.06428588e-01, -5.72533158e-01,  3.87632396e-01,
         9.35366938e-02,  1.23074938e-01,  1.28721659e+00,
        -2.20713776e+00,  4.39874184e-01, -2.04252274e+00,
        -1.37498714e+00,  8.07837301e-01,  3.99188753e-01,
        -6.38857093e-01,  4.04374028e-01, -1.86418492e+00,
         2.35066729e+00,  3.09206533e-01,  1.37728734e+00,
         1.24541933e+00,  1.68738122e+00,  1.12295674e+00,
         5.54339357e-01, -3.79515771e-01, -2.57705385e-01,
        -6.17834654e-01, -4.77769805e-01, -1.23336929e+00,
         5.67406108e-01, -3.09254363e-01, -5.80019805e-02,
         1.66348686e+00, -4.98016793e-01,  3.80408920e-01,
         2.01161586e-01,  7.37906543e-01, -1.52649242e+00,
         2.05667928e-01, -5.59450230e-01, -3.56101715e-01,
         3.11252171e-01,  6.17289950e-01, -8.68252313e-01,
        -9.89650228e-01,  1.79942368e+00, -2.75621269e-01,
        -1.54707922e+00,  2.08833883e+00,  5.94568503e-01,
         6.03464761e-01, -7.13089810e-01,  9.12707317e-01,
         1.84764602e+00, -1.23906318e+00, -3.52853223e-01,
         1.25450240e-01, -7.52623812e-01,  1.29137857e+00,
         3.57537610e-01,  2.43894987e-02,  6.47176564e-02,
        -8.19298229e-01, -1.37601538e+00,  7.24614084e-01,
        -1.01565212e+00,  2.74237823e-01,  8.52970583e-01,
        -2.23245714e-01, -1.45582064e+00,  8.54883458e-01,
        -1.97392988e-02,  1.11000362e+00,  1.11191224e+00,
        -1.22750400e+00, -1.00923344e+00,  1.29398810e+00,
        -1.54719905e-02, -7.15128329e-01, -2.35497651e-01,
        -5.32391616e-01,  7.13055558e-02, -7.49382836e-01,
         4.02809571e-01, -1.89606935e+00,  1.23273491e+00,
        -8.76538370e-01,  2.17250137e-01,  1.50387566e+00,
         7.36007375e-01, -7.01643687e-01,  2.02666736e+00,
        -9.00892557e-01, -1.44561587e-01, -1.47632886e+00,
         2.25100981e-01, -1.06506662e+00,  1.26946619e+00,
        -2.40961365e-01, -1.78045876e-01,  9.97643600e-01,
         1.84781070e-01, -3.89067602e-01, -5.31730035e-03,
         1.49245328e-01, -8.18658951e-01, -3.02783815e-01,
         1.87447763e-01,  2.08601118e+00,  9.46245136e-01,
        -1.69837868e+00, -1.86933046e+00, -2.16732124e+00,
        -1.18953254e-01, -2.63234741e+00, -1.15299831e+00,
        -2.86399521e+00, -1.32102256e+00, -2.34622031e+00,
        -2.79635771e-01,  2.67585608e-01, -1.23682462e+00,
        -8.24681557e-02, -6.51149936e-01, -1.69747797e-01,
        -3.82746266e-01, -3.94871860e-01,  1.39097988e+00,
        -5.68604075e-01,  4.37734233e-02,  9.95449555e-01,
         8.77809416e-02,  1.33597312e+00, -7.67439967e-01,
        -8.69742140e-01, -1.40206931e+00, -9.14733942e-01,
        -3.32935479e-01, -8.11479583e-01,  4.57032205e-01,
        -1.59765903e+00, -1.15030835e+00, -6.83384511e-01,
        -1.20152508e+00,  1.66707029e+00,  7.76331840e-01,
        -3.80407530e-01,  4.31087325e-01,  1.78850889e+00,
        -5.90023224e-01,  1.01969664e+00, -7.87774923e-01,
        -1.86100353e-01,  7.23555436e-02, -7.63692156e-01,
        -1.15273357e+00, -7.83906634e-01, -1.66828222e-01,
         3.08037944e-01, -2.06862625e-01, -1.59666197e+00,
        -4.28044002e-01, -1.12027471e+00, -8.47653438e-01,
        -1.88033202e-01,  4.55816594e-01,  9.61411094e-01,
        -7.06573378e-01, -6.65881583e-01, -2.85438375e-01,
         2.13619275e-01,  4.12464652e-01, -7.97846115e-01,
        -1.55964659e+00, -4.73965640e-01,  9.17445985e-01,
        -1.05389586e+00, -1.19153269e+00, -1.98068796e-01,
        -8.38320966e-01, -1.56142666e+00,  2.26119638e-01,
        -5.70272868e-01,  1.03981309e+00, -1.50582367e+00,
         5.64503713e-01,  9.07120983e-01, -8.67921675e-01,
         1.25635484e-01,  7.73478290e-01,  6.65181143e-01,
        -2.34509691e+00,  9.17067712e-01, -1.55870027e-01,
        -1.92475661e+00, -1.23652258e+00,  1.02703555e+00,
        -1.14541937e+00,  3.95976279e-01,  1.79099541e-01,
        -4.49520535e-01,  1.01829264e-01,  1.42847765e-01,
        -1.42899599e-01, -3.43504697e-01, -4.34764176e-01,
         2.03413299e-01, -2.85146084e-02, -1.65193764e+00,
         7.62668778e-01, -4.43930482e-01, -1.19447907e+00,
         2.22347485e-01, -1.25703806e+00, -2.60910880e+00,
         6.90484162e-01, -2.22210665e-01, -2.07530274e+00,
         3.31144224e-01, -3.85630609e-02, -1.39547209e+00,
        -2.33086510e+00, -4.43239130e-02, -5.42956476e-02,
         6.37330281e-01, -8.23458186e-01,  4.34805521e-01,
        -7.32156141e-01,  1.45584303e-01,  5.75573039e-01,
